tree
version=v4
num_class=1
num_tree_per_iteration=1
label_index=0
max_feature_idx=3
objective=regression
feature_names=Column_0 Column_1 Column_2 Column_3
feature_infos=[-1.0005150720479528:2.7491754498178538] [-1.3701609449851655:1.8343570053781759] [-3.2035133000948073:2.2181389122593291] [-1.6802444047296694:3.7270631405807801]
tree_sizes=2781 2884 2877 2878 2882 2873 2883 2890 2890 2880 2892 2900 2888 2894 2890 2896 2899 2897 2901 2910 2913 2912 2913 2909 2908 2914 2917 2920 2914 2930 2923 2933 2917 2918 2932 2909 2926 2911 2917 2939 2927 2925 2922 2914 2913 2911 2901 2923 2920 2944 2920 2909 2922 2910 2916 2932 2917 2914 2936 2914 2915 2926 2926 2911 2912 2915 2919 2905 2913 2898 2894 2921 2903 2926 2894 2898 2910 2890 2881 2908 2884 2889 2919 2904 2864 2897 2890 2924 2876 2925 2926 2889 2870 2900 2911 2901 2904 2885 2850 2888 2888 2873 2871 2870 2919 2889 2904 2861 2836 2870 2859 2868 2841 2921 2886 2928 2870 2879 2862 2883 2920 2854 2870 2877 2903 2891 2863 2868 2820 2888 2880 2853 2836 2792 2850 2853 2842 2810 2873 2845 2800 2875 2793 2875 2796 2824 2815 2860 2825 2796 2819 2836 2875 2830 2846 2873 2858 2879 2840 2892 2852 2872 2798 2827 2868 2881 2844 2844 2895 2815 2854 2846 2832 2846 2846 2833 2821 2879 2817 2860 2882 2888 2840 2830 2820 2797 2824 2852 2846 2868 2853 2845 2799 2840 2800 2849 2851 2810 2809 2875 2839 2849 2855 2858 2798 2833 2831 2875 2861 2811 2895 2842 2848 2846 2832 2877 2839 2832 2843 2909 2856 2836 2834 2824 2857 2850 2814 2821 2861 2789 2849 2812 2830 2821 2840 2820 2894 2847 2801 2848 2827 2794 2828 2804 2852 2858 2852 2875 2837 2841 2834 2853 2860 2862 2832 2813 2822 2836 2830 2867 2811 2838 2878 2872 2844 2823 2848 2832 2819 2805 2827 2823 2809 2824 2802 2885 2879 2825 2841 2861 2831 2832 2841 2868 2864 2838 2842 2818 2821 2859 2853 2898 2833 2851 2817 2867 2837 2841 2818 2868 2869 2836 2829 2852 2845 2882 2876 2846 2817 2865 2815 2833 2847 2807 2800 2858 2833 2826 2837 2831 2858 2847 2834 2806 2841 2859 2828 2829 2832 2846 2832 2818 2845 2839 2814 2834 2844 2852 2875 2825 2828 2866 2834 2826 2845 2842 2835 2830 2850 2841 2835 2875 2850 2834 2837 2800 2862 2840 2825 2805 2829 2809 2825 2822 2850 2811 2803 2865 2839 2859 2836 2805 2845 2821 2825 2805 2801 2853 2842 2808 2822 2825 2818 2821 2803 2806 2805 2849 2854 2860 2788 2843 2843 2816 2802 2819 2842 2817 2836 2837 2832 2849 2836 2839 2830 2827 2830 2826 2814 2861 2843 2839 2815 2826 2867 2857 2822 2819 2834 2845 2814 2816 2843 2845 2836 2826 2844 2816 2850 2821 2847 2824 2876 2846 2839 2834 2865 2873 2840 2813 2781 2850 2826 2794 2843 2826 2848 2809 2811 2866 2824 2805 2821 2872 2844 2786 2848 2835 2847 2861 2840 2825 2835 2819 2821 2835 2825 2871 2807 2819 2838 2827 2848 2841 2848 2827 2845 2853 2844 2824 2868 2815 2822 2825 2820 2839 2846 2857 2827 2855 2847 2826 2819 2832 2830 2832 2790 2827 2859 2821

Tree=0
num_leaves=31
num_cat=0
split_feature=2 0 3 3 3 0 0 0 1 2 3 1 0 3 0 2 3 0 0 0 2 3 2 0 2 2 3 3 2 0
split_gain=1.07619e+06 383554 102749 89395.5 63155.4 47963.2 38334.8 31407.8 25996.5 21419.7 16397.2 12135.3 11696.6 11306 10758.5 8177.35 7534.49 5161.29 5074.33 4699.71 4344.08 4211.04 3956.13 3655.59 2980.29 2886.41 2725.51 2657.89 2594.38 2451.93
threshold=0.45138159279887585 -0.20423099528288471 -0.9687565698203997 -0.68416143585669187 0.16962396603443161 0.99911361934308107 0.17138040558287479 1.1527725543700351 1.0065232015343131 -1.1714970254384964 0.16962396603443161 1.7111063149795864 1.0290203919322198 1.0000000180025095e-35 -0.54548692987169523 -0.35924594100357304 -0.39956630189298409 -0.61826815628471965 0.17138040558287479 0.61816321263867258 -0.36963723022797029 1.0000000180025095e-35 -0.57076368480197703 0.60565049399218251 -0.5370984067994099 -1.1593077817804611 1.5925996358529713 -1.5379468377478152 1.1519384843863771 1.9017543920334496
decision_type=2 2 2 2 2 2 2 2 2 2 2 2 2 2 2 2 2 2 2 2 2 2 2 2 2 2 2 2 2 2
left_child=1 4 7 8 9 10 21 11 12 -1 18 20 28 29 15 26 17 25 -4 -12 -3 -5 -13 -8 -18 -11 -6 -9 -2 -7
right_child=3 2 5 6 14 13 23 27 -10 16 19 22 -14 -15 -16 -17 24 -19 -20 -21 -22 -23 -24 -25 -26 -27 -28 -29 -30 -31
leaf_value=63.376928373262871 63.04764759455901 63.394480767985272 63.375913542787636 63.069888479471544 63.351677882122942 63.628811675296411 63.324046108418294 63.37407604161335 62.871457500905208 62.704911860268162 63.586193125896813 63.180542452407067 63.322441441974682 63.790634907179992 63.487382052073819 63.242491686200928 63.289210549665079 63.194904644658237 63.523033276862691 63.664387098813251 63.203641318666854 63.160208530145475 62.945284976461181 63.535004983215835 63.171576485251293 63.061868802061142 63.424005140385205 63.597624626507169 62.961257386917147 63.717787173177378
leaf_weight=1146 1712 669 748 3308 4077 1734 321 159 8072 58 4174 323 314 4803 1731 1451 719 874 2708 3561 538 2116 400 570 2144 2402 1914 812 1765 1399
leaf_count=1146 1712 669 748 3308 4077 1734 321 159 8072 58 4174 323 314 4803 1731 1451 719 874 2708 3561 538 2116 400 570 2144 2402 1914 812 1765 1399
internal_value=63.3202 63.4698 63.6064 63.0031 63.2876 63.6484 63.1551 63.3291 62.9222 63.1783 63.5817 63.2124 63.0302 63.7424 63.3751 63.349 63.1416 63.0905 63.4912 63.6222 63.3094 63.1051 63.0504 63.459 63.2011 63.0535 63.3748 63.561 63.0038 63.6685
internal_weight=0 38544 22028 18178 16516 19127 6315 2901 11863 7343 11191 1930 3791 7936 9173 7442 6197 3334 3456 7735 1207 5424 723 891 2863 2460 5991 971 3477 3133
internal_count=56722 38544 22028 18178 16516 19127 6315 2901 11863 7343 11191 1930 3791 7936 9173 7442 6197 3334 3456 7735 1207 5424 723 891 2863 2460 5991 971 3477 3133
is_linear=0
shrinkage=1


Tree=1
num_leaves=31
num_cat=0
split_feature=2 0 3 3 3 0 0 0 1 2 3 0 1 0 3 2 3 0 0 2 3 2 0 1 2 2 3 0 0 0
split_gain=971260 346372 92345.5 80679.4 61443 39751.4 34597.2 27793.1 23461.9 19248.3 13644.6 13001.6 11980.7 10556.2 10203.7 7236.07 7227.37 4740.34 4195.97 3830.98 3800.47 3579.97 3321.62 3052.63 2838.84 2604.98 2557.24 2473.02 2374.16 2237.16
threshold=0.45138159279887585 -0.13856251034092648 -0.9687565698203997 -0.68416143585669187 0.16962396603443161 0.99911361934308107 0.17138040558287479 1.2208362437108338 1.0065232015343131 -1.1714970254384964 1.0000000180025095e-35 -0.46219316544345573 1.7111063149795864 1.0290203919322198 1.0000000180025095e-35 -0.35924594100357304 -0.39956630189298409 -0.61826815628471965 0.69545206317938091 -0.36963723022797029 1.0000000180025095e-35 -0.57076368480197703 0.65776390461877365 1.0065232015343131 -0.5370984067994099 -1.1593077817804611 1.5925996358529713 -0.48524085048031529 0.76961682066833748 1.9526240309264484
decision_type=2 2 2 2 2 2 2 2 2 2 2 2 2 2 2 2 2 2 2 2 2 2 2 2 2 2 2 2 2 2
left_child=1 4 7 8 9 10 20 12 13 -1 23 15 19 27 29 26 17 25 -12 -3 -5 -14 -8 -4 -18 -11 -6 -2 -10 -7
right_child=3 2 5 6 11 14 22 -9 28 16 18 -13 21 -15 -16 -17 24 -19 -20 -21 -22 -23 -24 -25 -26 -27 -28 -29 -30 -31
leaf_value=0.054103448660823832 -0.3364555325170811 0.0792115636878062 0.1638361186563484 -0.23781093183830593 0.032994668159524308 0.29784489981120726 0.021677119138070626 0.24322274205323954 -0.43114808218805778 -0.58453871299480575 0.25204561671148212 0.18157352549690495 -0.13292062050420461 0.0021143855856268841 0.44689818334509979 -0.064912817925135355 -0.025230170126589065 -0.12147299574646508 0.32308574217241004 -0.09809514156456485 -0.15200688519276545 -0.35407647013589555 0.21644319877825821 -0.0079618955635471847 -0.13834424285283292 -0.24542961914486236 0.10192834395501876 -0.25100826908236801 -0.27401238758560093 0.38489887852628696
leaf_weight=1162 2018 699 1798 3308 4248 1943 387 892 7824 58 5043 1743 338 314 4803 1583 740 941 3536 540 2116 399 504 302 2215 2402 1969 1459 248 1190
leaf_count=1162 2018 699 1798 3308 4248 1943 387 892 7824 58 5043 1743 338 314 4803 1583 740 941 3536 540 2116 399 504 302 2215 2402 1969 1459 248 1190
internal_value=0 0.142088 0.27566 -0.301278 -0.0261053 0.31635 -0.156904 0.0115581 -0.378132 -0.13301 0.253364 0.0581142 -0.0930193 -0.275527 0.401108 0.0305258 -0.167217 -0.216916 0.281326 0.00193503 -0.204337 -0.252651 0.131848 0.13913 -0.110018 -0.253425 0.0548268 -0.300601 -0.42632 0.33091
internal_weight=0 38544 21483 18178 17061 18615 6315 2868 11863 7518 10679 9543 1976 3791 7936 7800 6356 3401 8579 1239 5424 737 891 2100 2955 2460 6217 3477 8072 3133
internal_count=56722 38544 21483 18178 17061 18615 6315 2868 11863 7518 10679 9543 1976 3791 7936 7800 6356 3401 8579 1239 5424 737 891 2100 2955 2460 6217 3477 8072 3133
is_linear=0
shrinkage=0.05


Tree=2
num_leaves=31
num_cat=0
split_feature=2 0 1 3 0 3 3 0 1 2 3 0 0 2 3 3 3 0 3 3 0 2 0 2 0 3 2 2 0 0
split_gain=876562 313024 80271.6 72813.2 51675.2 42151.8 36543.8 31224 21174.3 17716.8 13920.7 9757.13 9526.99 6903.09 6047.05 6039.19 4824.72 4028.88 3510.03 3429.92 3021.76 2957.56 2954.39 2739.85 2697.49 2566.72 2351 2311.61 2279.1 2207.24
threshold=0.45138159279887585 -0.36750676054070286 1.5284712010253121 -0.68416143585669187 1.1820230654917008 0.16962396603443161 -0.39956630189298409 0.17138040558287479 1.0065232015343131 -1.1714970254384964 1.0000000180025095e-35 0.36213373879510341 1.0290203919322198 -0.35924594100357304 -0.39956630189298409 0.45421909999813953 -0.39956630189298409 0.83926707619423602 0.45421909999813953 1.0000000180025095e-35 0.60565049399218251 -0.519209093500829 -0.61826815628471965 -0.2652008544470103 -0.72411094817338351 -1.2533517037841075 -1.1593077817804611 1.1519384843863771 -0.051373486805192832 1.2208362437108338
decision_type=2 2 2 2 2 2 2 2 2 2 2 2 2 2 2 2 2 2 2 2 2 2 2 2 2 2 2 2 2 2
left_child=1 5 4 8 6 9 17 19 12 -1 25 15 27 24 22 28 21 23 -13 -5 -9 -4 26 -3 -7 -6 -11 -2 -8 -10
right_child=3 2 16 7 10 13 11 20 29 14 -12 18 -14 -15 -16 -17 -18 -19 -20 -21 -22 -23 -24 -25 -26 -27 -28 -29 -30 -31
leaf_value=0.051044761238377291 -0.2441758149429703 0.062243830444385188 -0.11476154484132484 -0.22592038263284131 0.1549444223794034 0.042227864475466621 0.045938941742478173 0.0025549662749158263 -0.40702655614683902 -0.55531174232219838 0.43324157266357866 0.24536798325557344 0.0020086641200213057 -0.055099157175354734 -0.11294800104683429 0.23326320340902909 0.057178398809715439 0.15497967791107514 0.31865122241683214 -0.14440653659614588 0.1943551822632486 -0.29541051462292672 -0.12293962110739219 -0.05665747840538285 0.12470663893154772 0.31305933332729585 -0.23315814277858979 -0.32572233795824201 0.16955016681290663 -0.066955592479401582
leaf_weight=1095 1712 1026 415 3308 277 5270 686 321 8024 58 4272 2739 314 1713 2674 3442 201 593 4050 2116 570 499 679 918 1221 3497 2402 1765 817 48
leaf_count=1095 1712 1026 415 3308 277 5270 686 321 8024 58 4272 2739 314 1713 2674 3442 201 593 4050 2116 570 499 679 918 1221 3497 2402 1765 817 48
internal_value=0 0.134983 0.249413 -0.286214 0.270098 -0.0424455 0.212969 -0.149059 -0.359226 -0.133448 0.371426 0.250173 -0.261751 0.0341812 -0.168201 0.19675 -0.164613 0.0408962 0.289085 -0.19412 0.125255 -0.213387 -0.215269 0.00609599 0.0577427 0.301454 -0.240754 -0.285571 0.113131 -0.405004
internal_weight=0 38544 23432 18178 22317 15112 14271 6315 11863 6908 8046 11734 3791 8204 5813 4945 1115 2537 6789 5424 891 914 3139 1944 6491 3774 2460 3477 1503 8072
internal_count=56722 38544 23432 18178 22317 15112 14271 6315 11863 6908 8046 11734 3791 8204 5813 4945 1115 2537 6789 5424 891 914 3139 1944 6491 3774 2460 3477 1503 8072
is_linear=0
shrinkage=0.05


Tree=3
num_leaves=31
num_cat=0
split_feature=2 0 3 3 3 0 0 0 1 2 3 0 1 0 3 2 3 1 0 2 3 2 2 3 3 3 3 0 1 3
split_gain=791098 282615 76293.3 65713.9 50092.5 32440.5 28179.6 22860.9 19109.8 16178 11384.7 10720.6 8893.93 8598.11 8439.84 6106.28 4942.72 3598.83 3363.84 3113.64 3097.1 3028.95 2918.93 2838.6 2461.88 2372.44 2223.57 2203.76 2157 2103.27
threshold=0.45138159279887585 -0.13856251034092648 -0.9687565698203997 -0.68416143585669187 0.16962396603443161 1.0963608543496803 0.17138040558287479 1.1527725543700351 1.0065232015343131 -0.83170754895150434 0.16962396603443161 -0.54548692987169523 1.7111063149795864 1.0290203919322198 0.16962396603443161 -0.35924594100357304 -0.39956630189298409 0.52584550897981175 0.69545206317938091 -0.2652008544470103 -0.39956630189298409 -0.82057824900097198 -0.57076368480197703 1.0000000180025095e-35 0.73881423396184742 -1.5379468377478152 1.5925996358529713 -0.48524085048031529 -0.11300390291954691 -1.5379468377478152
decision_type=2 2 2 2 2 2 2 2 2 2 2 2 2 2 2 2 2 2 2 2 2 2 2 2 2 2 2 2 2 2
left_child=1 4 7 8 9 10 20 12 13 28 17 15 19 27 -7 26 21 -4 -12 -3 -5 -11 -14 -8 -13 -23 -6 -2 -1 -9
right_child=3 2 5 6 11 14 23 29 -10 16 18 24 22 -15 -16 -17 -18 -19 -20 -21 -22 25 -24 -25 -26 -27 -28 -29 -30 -31
leaf_value=0.058526102310104355 -0.30513880820677231 0.057987819954264344 0.17971098982205391 -0.23760362932260889 0.025610994267754733 0.31398567028158147 0.017379218437852933 0.039848299981709925 -0.38475411545894961 -0.53264465936716054 0.23656412572241414 0.071044084093250331 -0.11987665549262988 0.0019082314741151159 0.42001656863775905 -0.067837283832790002 -0.11189234838532465 0.044558277019077719 0.30351437273958171 -0.10755664017629843 -0.15757626308926839 -0.43819012401079888 -0.32322066316276565 0.19737442166805563 0.18823551643495265 -0.18923871707008344 0.090939619016124171 -0.22447729383579651 -0.0513578183305217 0.23870986334525346
leaf_weight=1011 2018 711 2884 1819 4077 3815 388 159 8072 69 4299 648 321 314 3694 1451 2669 594 3329 473 3605 99 392 503 1453 2870 1914 1459 800 812
leaf_count=1011 2018 711 2884 1819 4077 3815 388 159 8072 69 4299 648 321 314 3694 1451 2669 594 3329 473 3605 99 392 503 1453 2870 1914 1459 800 812
internal_value=0 0.128234 0.248889 -0.271903 -0.0236926 0.285874 -0.141606 0.00883558 -0.341264 -0.120219 0.231599 0.052351 -0.0921602 -0.248663 0.366147 0.0241928 -0.161537 0.156629 0.265782 -0.00814607 -0.184414 -0.205151 -0.231673 0.118993 0.152091 -0.19754 0.0464821 -0.271292 0.00998544 0.206147
internal_weight=0 38544 21483 18178 17061 18615 6315 2868 11863 7518 11106 9543 1897 3791 7509 7442 5707 3478 7628 1184 5424 3038 713 891 2101 2969 5991 3477 1811 971
internal_count=56722 38544 21483 18178 17061 18615 6315 2868 11863 7518 11106 9543 1897 3791 7509 7442 5707 3478 7628 1184 5424 3038 713 891 2101 2969 5991 3477 1811 971
is_linear=0
shrinkage=0.05


Tree=4
num_leaves=31
num_cat=0
split_feature=2 0 1 3 0 2 0 3 3 1 3 0 0 3 3 3 3 0 3 0 2 3 3 2 2 1 2 3 0 0
split_gain=714046 249416 65278.2 64717.9 41439.9 33322.3 30345.7 28805.9 18470.1 18075.9 11514 8319.76 7974.88 5054.86 4178.03 3895.7 3700.51 3269.6 3206.83 2922.12 2826.65 2808.46 2791.6 2683.69 2352.31 2174.01 2097.01 2096.53 2089.84 2055.87
threshold=0.42471278831927911 -0.36750676054070286 1.5284712010253121 -0.68416143585669187 1.1820230654917008 -0.83170754895150434 0.14790499537497409 -0.39956630189298409 1.0000000180025095e-35 1.0065232015343131 -0.39956630189298409 1.1527725543700351 0.36213373879510341 0.73881423396184742 0.73881423396184742 -1.2533517037841075 1.0234093679255554 0.83926707619423602 1.0000000180025095e-35 0.83926707619423602 -0.82057824900097198 1.0000000180025095e-35 0.45421909999813953 -0.69195555633463568 0.84048560839214692 1.7111063149795864 0.04087937580375494 0.45421909999813953 -0.011381716562842615 0.76961682066833748
decision_type=2 2 2 2 2 2 2 2 2 2 2 2 2 2 2 2 2 2 2 2 2 2 2 2 2 2 2 2 2 2
left_child=1 5 4 9 7 14 18 17 20 11 -6 24 13 28 25 23 -10 26 -5 21 -7 -8 -14 -4 -2 -1 -3 -12 -9 -11
right_child=3 2 15 6 10 8 19 12 16 29 27 -13 22 -15 -16 -17 -18 -19 -20 -21 -22 -23 -24 -25 -26 -27 -28 -29 -30 -31
leaf_value=0.032977931538958498 -0.1842872969095749 0.039733791987840994 -0.11732317094976337 -0.2044050061539272 0.25674357298178413 -0.4916629105806351 -0.051287809527331731 0.069603793545929327 -0.071724610082710985 -0.37006026241724538 0.34499401536434088 0.030523860836895084 0.2225419068453281 0.22034535377460296 0.10064090139892862 -0.045007274627319675 0.01860034304994897 0.14208654784905325 -0.12743494518389781 0.2470130977512052 -0.17542087286953631 0.15221965646206204 0.28819388874000673 -0.32866633617338514 -0.27789177978895258 -0.075905394979676591 -0.077619259225316872 0.40968647354966281 0.17178947422215637 -0.22469639828302471
leaf_weight=3277 896 1371 271 3430 2916 72 297 1075 2670 7860 2228 276 2704 2897 2529 490 1971 588 2235 323 3796 395 4036 337 2675 533 527 2860 936 251
leaf_count=3277 896 1371 271 3430 2916 72 297 1075 2670 7860 2228 276 2704 2897 2529 490 1971 588 2235 323 3796 395 4036 337 2675 533 527 2860 936 251
internal_value=0 0.124104 0.226389 -0.253588 0.245053 -0.035965 -0.128929 0.193574 -0.100616 -0.323225 0.335959 -0.233963 0.226551 0.178068 0.0508175 -0.149917 -0.0333642 0.0390654 -0.174038 0.122837 -0.181307 0.0648761 0.261855 -0.234466 -0.254405 0.0177457 0.00714946 0.381358 0.117165 -0.365562
internal_weight=0 38084 23236 18638 22138 14848 6680 14134 8509 11958 8004 3847 11648 4908 6339 1098 4641 2486 5665 1015 3868 692 6740 608 3571 3810 1898 5088 2011 8111
internal_count=56722 38084 23236 18638 22138 14848 6680 14134 8509 11958 8004 3847 11648 4908 6339 1098 4641 2486 5665 1015 3868 692 6740 608 3571 3810 1898 5088 2011 8111
is_linear=0
shrinkage=0.05


Tree=5
num_leaves=31
num_cat=0
split_feature=2 0 3 2 0 2 0 3 0 3 3 3 1 0 3 1 3 0 0 3 3 3 1 2 3 0 2 2 3 0
split_gain=644586 230836 59927.7 54272.8 37959 31475.2 19162.6 17405 14882.9 11139.7 11039.3 9081.86 7763.25 7440.74 6238.35 5695.91 5500.38 5303 4103.67 3770.67 3698.79 3480.32 3040.72 3024.88 2690.41 3018.77 2510.4 2448.95 2273.29 2151.79
threshold=0.45138159279887585 -0.36750676054070286 -0.9687565698203997 1.1015281849116794 0.7294026564299978 -0.83170754895150434 1.2208362437108338 1.0000000180025095e-35 0.75924067781778226 1.0000000180025095e-35 -0.39956630189298409 1.0000000180025095e-35 1.7111063149795864 1.4591475508053693 -0.9687565698203997 1.0065232015343131 0.16962396603443161 0.075566231331778214 0.06286958089984658 0.73881423396184742 0.16962396603443161 1.0234093679255554 1.7111063149795864 -0.16379510355580665 0.73881423396184742 -0.011381716562842615 -0.82057824900097198 -0.57076368480197703 -1.5379468377478152 1.1527725543700351
decision_type=2 2 2 2 2 2 2 2 2 2 2 2 2 2 2 2 2 2 2 2 2 2 2 2 2 2 2 2 2 2
left_child=1 5 6 8 9 19 12 26 11 18 15 22 23 20 -10 29 -15 -13 -4 -1 -6 -9 -2 -3 25 -11 -7 -14 -28 -5
right_child=3 2 4 10 13 7 -8 21 14 24 -12 17 27 16 -16 -17 -18 -19 -20 -21 -22 -23 -24 -25 -26 -27 28 -29 -30 -31
leaf_value=0.016858411273641606 -0.1757835028002179 0.049465685880413612 -0.052228261504123276 -0.27667630758010725 0.20588777353727991 -0.46707976162433629 0.19633493937485155 -0.06918703489894594 -0.10049036646887291 0.084494926907326698 -0.17498953317452939 -0.10228955068892531 -0.10942633323617937 0.29737573556746699 0.2013767215537505 -0.3543995456486419 0.3939934041574007 0.134601308293509 0.10812223885021813 0.095608857333708552 0.29092409026165011 0.017670326318691296 -0.27184108605445712 -0.1104792101155351 0.22092998416300713 0.1926607740271972 -0.40573566489749491 -0.29052101273206626 -0.16307933003436947 -0.051385607506643553
leaf_weight=3810 3604 837 599 2347 1905 72 892 2780 287 947 1256 1430 340 3141 424 7368 2774 283 1195 2529 3890 1971 1068 457 4018 2023 99 414 3851 111
leaf_count=3810 3604 837 599 2347 1905 72 892 2780 287 947 1256 1430 340 3141 424 7368 2774 283 1195 2529 3890 1971 1068 457 4018 2023 99 414 3851 111
internal_value=0 0.115752 0.214017 -0.245437 0.244305 -0.0366135 0.00291289 -0.0979514 -0.13747 0.165724 -0.31457 -0.161634 -0.0813315 0.303237 0.079526 -0.332412 0.342687 -0.0631535 0.0545827 0.0482766 0.26297 -0.0331534 -0.197742 -0.00702181 0.194257 0.158172 -0.174494 -0.20886 -0.169161 -0.266502
internal_weight=0 38544 23432 18178 20492 15112 2940 8773 7096 8782 11082 6385 2048 11710 711 9826 5915 1713 1794 6339 5795 4751 4672 1294 6988 2970 4022 754 3950 2458
internal_count=56722 38544 23432 18178 20492 15112 2940 8773 7096 8782 11082 6385 2048 11710 711 9826 5915 1713 1794 6339 5795 4751 4672 1294 6988 2970 4022 754 3950 2458
is_linear=0
shrinkage=0.05


Tree=6
num_leaves=31
num_cat=0
split_feature=2 0 3 2 3 0 0 0 2 3 3 0 3 1 3 3 0 1 0 2 3 1 1 2 2 2 0 0 2 0
split_gain=581794 203555 55801 53484.2 35976.8 24001.5 16615.6 15601.1 12041.9 9962.95 9323.84 8129 7965.41 6506.83 6349.55 5893.05 5758.61 5140.56 5047.32 4521.88 3459.8 3143.54 2999.15 2563.14 2372.13 2259.72 2181.96 2077.41 2063.71 1941.99
threshold=0.42471278831927911 -0.13856251034092648 -0.9687565698203997 1.1015281849116794 0.16962396603443161 0.96714431071331208 1.1527725543700351 0.75924067781778226 -1.1714970254384964 -0.39956630189298409 1.0000000180025095e-35 -0.54548692987169523 0.16962396603443161 1.7111063149795864 0.16962396603443161 -0.9687565698203997 0.075566231331778214 1.0065232015343131 -0.6600380046139912 -1.0521422008962926 -0.39956630189298409 1.7111063149795864 0.52584550897981175 -1.1593077817804611 -0.36963723022797029 -0.57076368480197703 1.9360206157993747 0.61816321263867258 -0.74385116103811388 1.1527725543700351
decision_type=2 2 2 2 2 2 2 2 2 2 2 2 2 2 2 2 2 2 2 2 2 2 2 2 2 2 2 2 2 2
left_child=1 4 6 7 8 12 13 10 -1 17 21 19 22 24 26 -9 -12 29 20 -6 23 -2 -4 -10 -3 -15 -7 -14 -20 -5
right_child=3 2 5 9 11 14 -8 15 18 -11 16 -13 27 25 -16 -17 -18 -19 28 -21 -22 -23 -24 -25 -26 -27 -28 -29 -30 -31
leaf_value=0.046403754404032681 -0.16524410570103115 0.05529863582556567 0.15266902039775498 -0.26284249596438414 0.061724778707272221 0.23751099512225737 0.17600049212454322 -0.090811034780461347 -0.52729357193256243 -0.16624005246806628 -0.095726801591351357 0.13328238171195309 0.19957885015084137 -0.10246317235671704 0.35560846422988346 0.19046115529877106 0.13752465719666601 -0.33667956567530566 0.037623089857584849 -0.016738380920295774 -0.10939895383991279 -0.2603662818534988 0.024859698992323053 -0.19077510062296377 -0.0890480970407726 -0.28275430062417145 0.31323156700817673 0.25313961888421715 -0.088442879077630432 -0.048816326843692109
leaf_weight=1162 3765 659 2631 2347 3588 2466 965 300 58 1256 1552 2092 3784 321 4022 491 319 7368 422 3761 1972 1129 556 2318 501 379 1549 3471 1407 111
leaf_count=1162 3765 659 2631 2347 3588 2466 965 300 58 1256 1552 2092 3784 321 4022 491 319 7368 422 3761 1972 1129 556 2318 501 379 1549 3471 1407 111
internal_value=0 0.112023 0.214613 -0.228902 -0.0182261 0.246253 0.00765119 -0.126326 -0.101264 -0.298842 -0.150894 0.0463237 0.19626 -0.0796913 0.311205 0.083784 -0.0559581 -0.315791 -0.129043 0.0215697 -0.158357 -0.187188 0.130372 -0.19899 -0.00704422 -0.200078 0.266724 0.225204 -0.059356 -0.253177
internal_weight=0 38084 21304 18638 16780 18479 2825 7556 7339 11082 6765 9441 10442 1860 8037 791 1871 9826 6177 7349 4348 4894 3187 2376 1160 700 4015 7255 1829 2458
internal_count=56722 38084 21304 18638 16780 18479 2825 7556 7339 11082 6765 9441 10442 1860 8037 791 1871 9826 6177 7349 4348 4894 3187 2376 1160 700 4015 7255 1829 2458
is_linear=0
shrinkage=0.05


Tree=7
num_leaves=31
num_cat=0
split_feature=2 0 3 3 3 0 0 2 1 2 0 3 1 0 3 0 0 2 0 0 2 2 3 3 2 1 2 2 0 0
split_gain=525833 202439 59583 38426 29882.9 22748.7 17132.5 10489.3 10114.8 10028.8 9616.64 8478.84 6624.15 6404.34 6067.33 4914.64 4507.78 3185.56 2987.71 2485.31 2328.6 2207.22 2163.16 2188.12 2069.97 2060.1 2013.22 1984.97 1866.68 1749.5
threshold=0.60776349440360977 -0.13856251034092648 -0.9687565698203997 -1.0000000180025095e-35 -0.68416143585669187 0.99911361934308107 1.2647120103933318 -1.1714970254384964 1.0065232015343131 -0.35924594100357304 0.46700878566105519 1.0000000180025095e-35 1.7111063149795864 -0.58960056971300301 1.0000000180025095e-35 -0.6600380046139912 1.1527725543700351 -0.16379510355580665 -0.6600380046139912 0.61816321263867258 -1.1593077817804611 -0.43544427299472538 -0.68416143585669187 -0.9687565698203997 1.5261152491327261 1.0065232015343131 -1.0521422008962926 -0.73303770055470763 2.0966037789627312 1.2208362437108338
decision_type=2 2 2 2 2 2 2 2 2 2 2 2 2 2 2 2 2 2 2 2 2 2 2 2 2 2 2 2 2 2
left_child=1 3 6 7 8 11 12 -1 16 13 24 25 17 26 28 20 -2 -3 -11 -13 -9 -14 23 -22 -6 -4 -5 -17 -7 -10
right_child=4 2 5 9 10 14 -8 15 29 18 -12 19 21 -15 -16 27 -18 -19 -20 -21 22 -23 -24 -25 -26 -27 -28 -29 -30 -31
leaf_value=0.038540504334949259 -0.22701781020761583 0.046411834688478849 0.11764495270330309 0.056702471121325621 -0.15164275758287296 0.22092695706106469 0.17816523826518929 -0.49174366891384125 -0.31683140766999535 -0.079332376756665809 0.10539992715381086 0.1809542255463876 -0.10642616228531128 0.13758753052880285 0.33048947989817745 0.029816850924098328 0.0055973861015698309 -0.10893053037218169 0.019587077507419753 0.2341375536669574 -0.18940674091497253 -0.2731197231314903 -0.15069419679710006 -0.34188233854459882 -0.33979668198831825 -0.019313213587229257 -0.00017174651448773902 -0.10525658625682853 0.31152532357162976 -0.010867264787567422
leaf_weight=856 3153 832 1934 3739 4576 2465 896 59 7871 2214 375 4503 369 1899 4850 341 223 547 1165 4289 839 430 2704 327 151 320 2665 1344 739 47
leaf_count=856 3153 832 1934 3739 4576 2465 896 59 7871 2214 375 4503 369 1899 4850 341 223 547 1165 4289 839 430 2704 327 151 320 2665 1344 739 47
internal_value=0 0.0970721 0.198432 -0.0267461 -0.238749 0.231313 -0.00587086 -0.124498 -0.284118 0.0273933 -0.138319 0.184718 -0.0815808 0.0569471 0.295217 -0.149358 -0.211653 -0.0152069 -0.0452273 0.206899 -0.179994 -0.196136 -0.175242 -0.232168 -0.157653 0.098201 0.0330345 -0.0779212 0.241823 -0.315015
internal_weight=0 40326 22174 18152 16396 19100 3074 6470 11294 11682 5102 11046 2178 8303 8054 5614 3376 1379 3379 8792 3929 799 3870 1166 4727 2254 6404 1685 3204 7918
internal_count=56722 40326 22174 18152 16396 19100 3074 6470 11294 11682 5102 11046 2178 8303 8054 5614 3376 1379 3379 8792 3929 799 3870 1166 4727 2254 6404 1685 3204 7918
is_linear=0
shrinkage=0.05


Tree=8
num_leaves=31
num_cat=0
split_feature=2 0 2 1 0 3 3 0 2 3 3 3 0 3 0 1 3 2 3 0 3 1 3 0 2 3 2 0 1 2
split_gain=474817 163412 47762.2 43326 27486.2 21979.8 17077.5 14178.9 9868.42 9234.08 8193.2 8151.95 5596.22 5200.68 4796.44 4049.34 3718.62 3667.26 3566.15 3638.4 3102.19 2905.76 2631.04 2390.31 2084.2 1974.55 1887.39 1834.82 1715.17 1677.57
threshold=0.38960332059931674 -0.36750676054070286 1.1015281849116794 1.5284712010253121 0.79801635538163129 0.16962396603443161 -0.39956630189298409 0.75924067781778226 -1.1714970254384964 -0.39956630189298409 1.0000000180025095e-35 -0.39956630189298409 0.075566231331778214 -0.9687565698203997 1.3483697222231372 1.0065232015343131 -0.39956630189298409 -0.50963024776667265 0.73881423396184742 -0.011381716562842615 -1.2533517037841075 1.7111063149795864 -1.2533517037841075 2.0966037789627312 -1.5544698536587795 0.73881423396184742 -1.1593077817804611 -0.5153952376949229 -0.34307185833024828 -0.83170754895150434
decision_type=2 2 2 2 2 2 2 2 2 2 2 2 2 2 2 2 2 2 2 2 2 2 2 2 2 2 2 2 2 2
left_child=1 5 7 4 6 8 -3 10 -1 20 21 15 -12 -9 -11 -4 26 25 19 -8 -6 27 24 -22 -5 -7 -10 -2 -29 -28
right_child=2 3 11 22 9 17 18 13 16 14 12 -13 -14 -15 -16 -17 -18 -19 -20 -21 23 -23 -24 -25 -26 -27 29 28 -30 -31
leaf_value=0.04129243803560334 -0.17311335522269924 -0.0005685093754537817 -0.2300446072079598 -0.027357829092526355 0.060052698605623969 0.014007929467513126 0.056862154294076594 -0.082161940413432277 -0.42707164804737729 0.23963104583704309 -0.086168798785992082 -0.15033903919712044 0.13312986487496009 0.17237887242122174 0.31915407650946309 -0.3041560020891092 -0.077656558218855545 -0.029397337798759443 0.20094849980783167 0.16479958188087829 0.17848724874977928 -0.23581872409752222 -0.036407195986102425 0.27446943151358083 -0.24625019919299543 0.072235175335068444 -0.036877024666632251 -0.047599254401988214 -0.15383620117002239 -0.16681591940807577
leaf_weight=1095 2444 1729 2458 143 413 2525 1049 314 65 3268 1654 1256 353 556 4517 7368 2463 2089 4715 3053 2290 1174 478 905 454 3439 274 726 797 2658
leaf_count=1095 2444 1729 2458 143 413 2525 1049 314 65 3268 1654 1256 353 556 4517 7368 2463 2089 4715 3053 2290 1174 478 905 454 3439 274 726 797 2658
internal_value=0 0.103075 -0.203031 0.186096 0.201282 -0.0277203 0.143113 -0.110076 -0.0957 0.255127 -0.133273 -0.270285 -0.0475976 0.0805101 0.285772 -0.285617 -0.123174 0.027614 0.171289 0.137197 0.189006 -0.166719 -0.123825 0.205675 -0.193819 0.0475833 -0.160581 -0.14627 -0.103194 -0.154673
internal_weight=0 37622 19100 23014 21939 14608 10546 8018 6555 11393 7148 11082 2007 870 7785 9826 5460 8053 8817 4102 3608 5141 1075 3195 597 5964 2997 3967 1523 2932
internal_count=56722 37622 19100 23014 21939 14608 10546 8018 6555 11393 7148 11082 2007 870 7785 9826 5460 8053 8817 4102 3608 5141 1075 3195 597 5964 2997 3967 1523 2932
is_linear=0
shrinkage=0.05


Tree=9
num_leaves=31
num_cat=0
split_feature=2 0 3 3 3 0 0 2 1 0 3 0 1 3 2 0 3 2 1 2 0 2 2 2 1 0 3 2 0 0
split_gain=428971 165397 49131.4 31547.2 24442.4 18595.4 14236.9 9959.7 8161.69 7896.74 7125.97 6876.88 5333.31 5046.86 4602.55 3939.36 3555.75 2807.59 2380.23 2156.85 1975.3 1951.67 1917.1 1812.32 1697.66 1657.47 1631.09 1571.9 1549.56 1447.24
threshold=0.60776349440360977 -0.13856251034092648 -0.9687565698203997 0.16962396603443161 -0.68416143585669187 1.0963608543496803 1.2647120103933318 -0.83170754895150434 1.0065232015343131 0.46700878566105519 0.16962396603443161 -0.6600380046139912 1.7111063149795864 0.16962396603443161 -0.36963723022797029 1.1820230654917008 -0.39956630189298409 -0.36963723022797029 0.52584550897981175 -0.82057824900097198 0.36213373879510341 -0.63577051937920193 -0.69195555633463568 1.5369001683355721 -0.11300390291954691 1.9017543920334496 -1.5379468377478152 -1.3701264665761139 1.2208362437108338 -0.69935492110633157
decision_type=2 2 2 2 2 2 2 2 2 2 2 2 2 2 2 2 2 2 2 2 2 2 2 2 2 2 2 2 2 2
left_child=1 3 6 7 8 10 12 24 15 23 18 14 17 25 -5 -2 19 -3 -4 -9 -12 -13 -14 -6 -1 -7 -21 -26 -10 -29
right_child=4 2 5 11 9 13 -8 16 28 -11 20 21 22 -15 -16 -17 -18 -19 -20 26 -22 -23 -24 -25 27 -27 -28 29 -30 -31
leaf_value=0.050781583580850331 -0.20552428303646897 0.053467408132591356 0.12996868620021371 0.031063403350530119 -0.13704438005159916 0.20081583293849878 0.16153928644842902 -0.43443892644583315 -0.28613647637559142 0.096039731930351507 0.16232104822418958 0.14120446601218503 -0.080243577731489033 0.31157307983445137 -0.067553217561203874 0.017604568735056367 -0.083010327806858783 -0.089289222483475789 0.022870345039103623 -0.33746682058209965 0.21487188918811553 0.057306683600854738 -0.23937256622427883 -0.32358769729955877 0.040951329876537414 0.26647550592653613 -0.146064394124886 -0.19699634515799935 0.0018137684210817865 -0.024081122970233255
leaf_weight=1011 3165 711 3077 5546 4593 2158 896 69 7871 375 2777 1512 308 3709 1504 211 2849 668 624 115 5022 1280 491 134 312 1733 3466 222 47 266
leaf_count=1011 3165 711 3077 5546 4593 2158 896 69 7871 375 2777 1512 308 3709 1504 211 2849 668 624 115 5022 1280 491 134 312 1733 3466 222 47 266
internal_value=0 0.0876768 0.179295 -0.0242415 -0.215641 0.209153 -0.00622564 -0.0959762 -0.256673 -0.124812 0.169047 0.0363271 -0.0752419 0.26984 0.0100252 -0.191579 -0.124872 -0.0156852 0.111912 -0.157546 0.19616 0.102741 -0.178031 -0.142332 0.00771851 0.23006 -0.152211 -0.0467024 -0.284427 -0.102743
internal_weight=0 40326 22174 18152 16396 19100 3074 8310 11294 5102 11500 9842 2178 7600 7050 3376 6499 1379 3701 3650 7799 2792 799 4727 1811 3891 3581 800 7918 488
internal_count=56722 40326 22174 18152 16396 19100 3074 8310 11294 5102 11500 9842 2178 7600 7050 3376 6499 1379 3701 3650 7799 2792 799 4727 1811 3891 3581 800 7918 488
is_linear=0
shrinkage=0.05


Tree=10
num_leaves=31
num_cat=0
split_feature=2 0 2 1 0 2 3 0 3 3 3 3 0 3 0 1 3 0 3 3 1 3 3 2 0 1 2 0 1 1
split_gain=387599 133474 39342.1 35630.5 22575.5 18188.3 14181.2 11702.9 9837.35 7674.22 7136.84 6672.87 4894.6 4072.53 3936.94 3181.01 3024.56 3004.37 2851.22 2633.78 2446.07 2389.62 2180.89 2059.17 2029.22 1879.78 1786.93 1573.66 1610.88 1484.28
threshold=0.38960332059931674 -0.36750676054070286 1.1015281849116794 1.5284712010253121 0.79801635538163129 -0.83170754895150434 -0.39956630189298409 0.79801635538163129 1.0000000180025095e-35 -0.39956630189298409 1.0000000180025095e-35 -0.39956630189298409 0.075566231331778214 -1.2533517037841075 1.3483697222231372 1.0065232015343131 0.73881423396184742 -0.011381716562842615 1.0234093679255554 -1.2533517037841075 1.7111063149795864 1.0234093679255554 -1.2533517037841075 -0.82057824900097198 2.0966037789627312 1.7111063149795864 -1.5544698536587795 -0.5153952376949229 -0.34307185833024828 1.7111063149795864
decision_type=2 2 2 2 2 2 2 2 2 2 2 2 2 2 2 2 2 2 2 2 2 2 2 2 2 2 2 2 2 2
left_child=1 5 7 4 6 18 -3 10 23 19 20 15 -12 -9 -11 -4 17 -8 25 -6 27 -10 26 -7 -21 -1 -5 -2 -29 -25
right_child=2 3 11 22 9 8 16 13 21 14 12 -13 -14 -15 -16 -17 -18 -19 -20 24 -22 -23 -24 29 -26 -27 -28 28 -30 -31
leaf_value=0.026463191193423524 -0.15670673567618804 -0.0017176111348798423 -0.20909377378828375 -0.02248499583635297 0.051632149400810783 -0.39938079792385306 0.05049273317445712 -0.11204170304447858 -0.056248576741383866 0.21686387341857116 -0.077023542625421354 -0.13595674969886198 0.12176008577913222 0.14816490047536418 0.28891037752110005 -0.27478014447269494 0.18220452501220297 0.14857573055285009 0.082523315569117045 0.16076056978172942 -0.21356858599599515 0.016767574495974439 -0.033303745781026677 -0.11150297249586311 0.24919624888435915 -0.074311686184045586 -0.22516682035800498 -0.039078681976967455 -0.14078768504935887 -0.18675118268698421
leaf_weight=3468 2444 1729 2458 143 413 72 1049 201 2611 3268 1654 1256 381 597 4517 7368 4715 3053 2337 2290 1180 1963 478 2764 905 534 454 742 819 859
leaf_count=3468 2444 1729 2458 143 413 72 1049 201 2611 3268 1654 1256 381 597 4517 7368 4715 3053 2337 2290 1180 1963 478 2764 905 534 454 742 819 859
internal_value=0 0.0931282 -0.183438 0.16816 0.181932 -0.0250801 0.129214 -0.0990741 -0.073929 0.23073 -0.119157 -0.244477 -0.0398066 0.0826241 0.258667 -0.258349 0.15489 0.123493 0.0386416 0.170451 -0.1503 -0.0249126 -0.112893 -0.134606 0.18581 0.0130165 -0.176618 -0.131659 -0.0924417 -0.129344
internal_weight=0 37622 19100 23014 21939 14608 10546 8018 8269 11393 7220 11082 2035 798 7785 9826 8817 4102 6339 3608 5185 4574 1075 3695 3195 4002 597 4005 1561 3623
internal_count=56722 37622 19100 23014 21939 14608 10546 8018 8269 11393 7220 11082 2035 798 7785 9826 8817 4102 6339 3608 5185 4574 1075 3695 3195 4002 597 4005 1561 3623
is_linear=0
shrinkage=0.05


Tree=11
num_leaves=31
num_cat=0
split_feature=2 0 3 3 3 0 0 2 2 0 0 3 0 1 3 1 0 2 0 2 3 3 0 2 0 0 2 2 2 3
split_gain=349956 135140 40535.2 25956.4 20012.4 15174 11830.6 7215.37 6987.67 6639.25 6517.25 5796.92 4755.03 4672.82 4391.26 4281.64 3844.5 2460.87 2162.02 2003.94 1754.99 2009.12 1746.57 1671 1621.26 1619.17 1582.65 1542.53 1490.22 1437.9
threshold=0.60776349440360977 -0.13856251034092648 -0.9687565698203997 1.0000000180025095e-35 -0.68416143585669187 0.96714431071331208 1.2647120103933318 -1.1714970254384964 -0.35924594100357304 1.1820230654917008 0.46700878566105519 1.0000000180025095e-35 -0.6662585976082579 1.0065232015343131 0.16962396603443161 1.7111063149795864 -0.6600380046139912 0.10719432079916731 -0.40512678222821003 -1.1593077817804611 -0.68416143585669187 -0.9687565698203997 0.61816321263867258 -0.43544427299472538 0.075566231331778214 1.9017543920334496 1.5369001683355721 -1.0521422008962926 -0.73303770055470763 1.0234093679255554
decision_type=2 2 2 2 2 2 2 2 2 2 2 2 2 2 2 2 2 2 2 2 2 2 2 2 2 2 2 2 2 2
left_child=1 3 6 7 9 11 15 -1 12 13 26 24 27 -2 25 17 19 -3 29 -9 21 -21 -13 -17 -4 -7 -6 -5 -18 -10
right_child=4 2 5 8 10 14 -8 16 18 -11 -12 22 -14 -15 -16 23 28 -19 -20 20 -22 -23 -24 -25 -26 -27 -28 -29 -30 -31
leaf_value=0.032907286664295869 -0.18650285485031387 0.024241779754550909 -0.031473346301529287 0.045146262731806906 -0.12355905132063139 0.17768251188826498 0.14642651162367723 -0.43923105274216606 -0.080048756478939401 0.016862037042440235 0.088052134692917283 0.14721113209996944 0.10927235557141882 -0.25844694562695242 0.27734369390805952 -0.083461702213713185 0.033600491905568547 -0.12676514773882683 0.048772498889120657 -0.15592017472456338 -0.12350955588299473 -0.30202592259453787 0.19208899129727175 -0.22850035369255428 0.094828017184194258 0.24106087276891555 -0.29788199379595359 -0.0061789942054005101 -0.08343528119335783 -0.0017343622035522522
leaf_weight=856 3165 1011 293 3575 4593 2408 896 59 1950 262 375 4503 2249 7867 4069 369 341 368 591 839 2704 327 4181 430 1913 1733 134 2479 1344 838
leaf_count=856 3165 1011 293 3575 4593 2408 896 59 1950 262 375 4503 2249 7867 4069 369 341 368 591 839 2704 327 4181 430 1913 1733 134 2479 1344 838
internal_value=0 0.0791913 0.162007 -0.0219736 -0.194771 0.189127 -0.00650472 -0.102314 0.0225227 -0.231899 -0.112584 0.150432 0.0471918 -0.237807 0.240454 -0.0694186 -0.122933 -0.0160559 -0.0380953 -0.150029 -0.14562 -0.196895 0.168818 -0.161518 0.0780527 0.204206 -0.128501 0.0241295 -0.0597503 -0.0565095
internal_weight=0 40326 22174 18152 16396 19100 3074 6470 11682 11294 5102 10890 8303 11032 8210 2178 5614 1379 3379 3929 3870 1166 8684 799 2206 4141 4727 6054 1685 2788
internal_count=56722 40326 22174 18152 16396 19100 3074 6470 11682 11294 5102 10890 8303 11032 8210 2178 5614 1379 3379 3929 3870 1166 8684 799 2206 4141 4727 6054 1685 2788
is_linear=0
shrinkage=0.05


Tree=12
num_leaves=31
num_cat=0
split_feature=2 0 2 1 0 2 3 0 3 3 3 0 3 3 3 1 0 0 0 3 3 1 2 3 3 2 2 0 1 3
split_gain=316339 109376 33625.2 28803.6 18007.1 14740.7 11852.9 10794.3 7923.71 6778.76 6264.45 6139.11 5296.7 3679.67 2754.84 2545.76 2523.56 2509.69 2465.84 2085.07 1993.43 1962.18 1874.69 1823.31 1659.76 1572.61 1538.32 1511.71 1493.18 1492.65
threshold=0.36457130114216646 -0.36750676054070286 1.1519384843863771 1.5284712010253121 0.83926707619423602 -0.83170754895150434 -0.39956630189298409 0.79801635538163129 1.0000000180025095e-35 -0.39956630189298409 -0.39956630189298409 -0.018747916707950809 -0.39956630189298409 -0.9687565698203997 0.45421909999813953 1.4204401034562448 0.81554791172698804 1.7082108314935287 0.12239517461790612 -1.2533517037841075 1.0234093679255554 1.7111063149795864 -0.82057824900097198 -1.2533517037841075 1.3080045018892632 -0.45488965122537067 -1.5703428833906368 2.0966037789627312 0.17868939769044964 1.0234093679255554
decision_type=2 2 2 2 2 2 2 2 2 2 2 2 2 2 2 2 2 2 2 2 2 2 2 2 2 2 2 2 2 2
left_child=1 5 7 4 6 15 -3 9 22 21 19 -11 16 -9 18 24 28 29 -8 -6 -10 -2 -7 26 -1 -16 -5 -21 -4 -12
right_child=2 3 12 23 10 8 14 13 20 11 17 -13 -14 -15 25 -17 -18 -19 -20 27 -22 -23 -24 -25 -26 -27 -28 -29 -30 -31
leaf_value=0.027357904364801677 -0.13242219651959578 0.0044914162021074564 -0.1892098630375022 -0.015629614272287914 0.04927553672486773 -0.37389088858746822 0.039519438952880737 -0.058222681953124647 -0.051248764842603128 -0.089864674690314658 0.19290218715002905 0.080448629372873379 -0.12386720128336065 0.15363458994306978 0.1818738292845033 -0.045793292552877507 -0.10151328582427839 0.276276749183755 0.13476414018841659 0.14935213758231478 0.015554895467547583 -0.21045527845164799 -0.11620868227537021 -0.028130654009998354 0.085058868537867871 0.12942524423303084 -0.20545935297223072 0.22628328846633763 -0.24909820347960732 0.2565225950213198
leaf_weight=3583 3251 1804 1198 140 390 72 956 326 2592 2826 2632 651 1178 552 4100 845 335 2874 2350 2169 1962 1071 3587 468 1911 2194 449 905 7932 1419
leaf_count=3583 3251 1804 1198 140 390 72 956 326 2592 2826 2632 651 1178 552 4100 845 335 2874 2350 2169 1962 1071 3587 468 1911 2194 449 905 7932 1419
internal_value=0 0.0848646 -0.164291 0.153099 0.165462 -0.0222789 0.122082 -0.0912368 -0.0664896 -0.109948 0.21308 -0.0579769 -0.223851 0.0749723 0.144179 0.0350017 -0.236294 0.240541 0.107222 0.158184 -0.0224677 -0.151759 -0.121279 -0.101802 0.0474283 0.163591 -0.160339 0.172001 -0.24124 0.215187
internal_weight=0 37402 19320 22850 21793 14552 11404 8677 8213 7799 10389 3477 10643 878 9600 6339 9465 6925 3306 3464 4554 4322 3659 1057 5494 6294 589 3074 9130 4051
internal_count=56722 37402 19320 22850 21793 14552 11404 8677 8213 7799 10389 3477 10643 878 9600 6339 9465 6925 3306 3464 4554 4322 3659 1057 5494 6294 589 3074 9130 4051
is_linear=0
shrinkage=0.05


Tree=13
num_leaves=31
num_cat=0
split_feature=2 0 3 3 2 0 0 2 3 0 3 2 0 0 3 2 1 3 0 3 2 1 3 3 0 2 0 3 2 1
split_gain=285496 110531 33381.7 21387.3 16374.9 12422.5 9820.61 6962.72 5232.75 5114.88 4780.27 3589.65 3456.5 3410.11 3401.1 3345.3 2557.04 2365.23 2277.51 2243.59 2393.52 1853.64 1807.23 1724.35 1556.4 1520.74 1499.71 1422.81 1417.03 1347.6
threshold=0.60776349440360977 -0.13856251034092648 -0.9687565698203997 0.16962396603443161 1.1519384843863771 1.2208362437108338 1.1527725543700351 -1.1714970254384964 0.45421909999813953 -0.6600380046139912 -0.39956630189298409 -0.40489051366658674 0.79014121777195179 -0.6600380046139912 0.16962396603443161 -0.36963723022797029 0.52584550897981175 -0.39956630189298409 0.81554791172698804 -0.68416143585669187 -1.1593077817804611 0.72803533203845128 -0.9687565698203997 -1.2533517037841075 -0.051373486805192832 -0.48283775700151516 0.46700878566105519 -1.5379468377478152 -1.2660630900167036 0.17868939769044964
decision_type=2 2 2 2 2 2 2 2 2 2 2 2 2 2 2 2 2 2 2 2 2 2 2 2 2 2 2 2 2 2
left_child=1 3 6 7 12 8 11 -1 16 15 18 27 17 19 -7 -5 -4 -2 29 22 -21 -13 -9 -14 -19 -15 -10 -3 -11 -6
right_child=4 2 5 9 10 14 -8 13 26 28 -12 21 23 25 -16 -17 -18 24 -20 20 -22 -23 -24 -25 -26 -27 -28 -29 -30 -31
leaf_value=0.034484757004720888 -0.14680096388887459 -0.099619070886715733 0.11716240329269204 0.025158980015139477 -0.17974937022574253 0.19006208077843578 0.12249290051009719 -0.14210960893337843 0.14124744926065119 0.16060140997566821 -0.11767383990342871 -0.070565180456233695 -0.10517250447430544 0.018494022668744545 0.2593455441814137 -0.058916306930776513 0.017128526265374745 -0.096254819925525231 -0.096437623657063765 -0.4177075077921657 -0.096749339492835151 -0.20179440233296628 -0.28068030567281521 0.098863867079540577 0.024849553934388584 -0.072695274693526074 0.18958530724940409 0.035968816527731644 0.069901302442893665 -0.23664328980075436
leaf_weight=1162 3154 263 4633 5546 1198 3671 997 839 2721 532 1178 580 162 655 3423 1504 741 1840 335 59 3754 502 327 287 310 1514 3911 732 2260 7932
leaf_count=1162 3154 263 4633 5546 1198 3671 997 839 2721 532 1178 580 162 655 3423 1504 741 1840 335 59 3754 502 327 287 310 1514 3911 732 2260 7932
internal_value=0 0.0715271 0.146423 -0.0199643 -0.175921 0.171035 -0.00649766 -0.0790289 0.140039 0.0299064 -0.212658 -0.0684156 -0.107958 -0.097482 0.223493 0.00722292 0.103369 -0.119234 -0.22448 -0.120276 -0.101716 -0.13145 -0.180971 0.0252472 -0.0787933 -0.0451577 0.169753 0.000130008 0.0871837 -0.229178
internal_weight=0 40326 22174 18152 16396 19100 3074 8310 12006 9842 10643 2077 5753 7148 7094 7050 5374 5304 9465 4979 3813 1082 1166 449 2150 2169 6632 995 2792 9130
internal_count=56722 40326 22174 18152 16396 19100 3074 8310 12006 9842 10643 2077 5753 7148 7094 7050 5374 5304 9465 4979 3813 1082 1166 449 2150 2169 6632 995 2792 9130
is_linear=0
shrinkage=0.05


Tree=14
num_leaves=31
num_cat=0
split_feature=2 0 2 1 0 2 0 3 3 3 3 0 3 0 3 0 0 1 0 1 2 1 3 3 3 3 2 3 0 1
split_gain=258364 89148.1 28193.9 23683.7 15168.5 11761 8913.53 7607.91 6108.7 5653.37 5411.59 5379.01 4432.69 3356.71 3127.15 2341.73 2337.85 2166.47 1857.91 1754.69 1699.86 1647.61 1639.28 1561.45 1445.32 1403.57 1342.86 1312.35 1306.9 1229.4
threshold=0.34175577126025919 -0.42128329041346257 1.1015281849116794 1.5284712010253121 0.74439041832524455 -0.83170754895150434 0.79801635538163129 1.0000000180025095e-35 1.0000000180025095e-35 -0.39956630189298409 -0.39956630189298409 -0.018747916707950809 -0.39956630189298409 1.4591475508053693 -1.2533517037841075 1.4591475508053693 1.1820230654917008 1.4204401034562448 0.075566231331778214 0.17868939769044964 -0.82057824900097198 1.7111063149795864 1.0234093679255554 -1.2533517037841075 0.73881423396184742 1.3080045018892632 -1.746371074542526 1.0234093679255554 0.12239517461790612 1.7111063149795864
decision_type=2 2 2 2 2 2 2 2 2 2 2 2 2 2 2 2 2 2 2 2 2 2 2 2 2 2 2 2 2 2
left_child=1 5 6 4 7 17 10 18 20 15 21 -12 16 27 -8 -6 19 25 -3 -4 -7 -2 -10 26 28 -1 -5 -11 -9 -22
right_child=2 3 12 23 9 8 14 24 22 13 11 -13 -14 -15 -16 -17 -18 -19 -20 -21 29 -23 -24 -25 -26 -27 -28 -29 -30 -31
leaf_value=0.02294213130573633 -0.11743269033264064 -0.04604959309710692 -0.16211565652718529 0.0017299593045997123 0.07865223285217271 -0.35083906273874971 -0.095353700798527119 0.059985763040385859 -0.049396635096614544 0.15882104429957422 -0.081290211394795212 0.07425502453069438 -0.11122397763832921 0.24012929961922788 0.12395659548866965 0.16223448347883895 -0.010995710382444991 -0.04477751136380681 0.051880572447986474 -0.22269265192252005 -0.088818152438188205 -0.19175788911706804 0.012464652131757722 -0.025635536874469834 0.14538672443788558 0.076601001842663344 -0.18591762848774157 0.21508946247787006 0.12758193818350505 -0.15827639680656214
leaf_weight=3492 3049 694 1397 120 1267 72 214 1211 2428 3033 2841 691 1256 4128 676 2475 144 838 1603 8285 2667 987 1916 480 4265 1872 464 1574 1746 837
leaf_count=3492 3049 694 1397 120 1267 72 214 1211 2428 3033 2841 691 1256 4128 676 2475 144 838 1603 8285 2667 987 1916 480 4265 1872 464 1574 1746 837
internal_value=0 0.0773581 -0.147202 0.137945 0.14909 -0.0215749 -0.078454 0.101553 -0.0619531 0.185356 -0.0960561 -0.0508594 -0.199672 0.207385 0.0712236 0.133934 -0.210978 0.0299883 0.0222926 -0.213952 -0.110351 -0.135609 -0.0221116 -0.0924467 0.126762 0.0416687 -0.14736 0.178045 0.0998988 -0.10541
internal_weight=0 37182 19540 23060 21996 14122 8458 9519 7920 12477 7568 3532 11082 8735 890 3742 9826 6202 2297 9682 3576 4036 4344 1064 7222 5364 584 4607 2957 3504
internal_count=56722 37182 19540 23060 21996 14122 8458 9519 7920 12477 7568 3532 11082 8735 890 3742 9826 6202 2297 9682 3576 4036 4344 1064 7222 5364 584 4607 2957 3504
is_linear=0
shrinkage=0.05


Tree=15
num_leaves=31
num_cat=0
split_feature=2 0 2 1 0 2 3 0 3 3 3 3 0 3 0 3 0 0 3 1 3 1 3 2 0 1 3 3 3 2
split_gain=233173 80456.2 25445 21374.6 13729.1 10614.3 8287.04 8044.46 5550.91 4977.67 4600.13 4000.5 3416.06 2848.78 2521.43 2144.91 2159.82 2110.32 2056.3 1955.24 1834.16 2074.73 1713.78 1605.28 1436.19 1434.1 1409.21 1405.93 1266.72 1213.67
threshold=0.34175577126025919 -0.42128329041346257 1.1015281849116794 1.5284712010253121 0.79801635538163129 -0.83170754895150434 -0.39956630189298409 0.79801635538163129 -0.39956630189298409 1.0000000180025095e-35 -0.39956630189298409 -0.39956630189298409 0.075566231331778214 -0.9687565698203997 1.7082108314935287 0.73881423396184742 -0.011381716562842615 0.81554791172698804 1.0234093679255554 1.4204401034562448 -1.2533517037841075 -0.85012952321567614 -1.2533517037841075 -0.70221543423609056 2.0966037789627312 1.0065232015343131 -1.2533517037841075 1.0234093679255554 1.3080045018892632 -1.5544698536587795
decision_type=2 2 2 2 2 2 2 2 2 2 2 2 2 2 2 2 2 2 2 2 2 2 2 2 2 2 2 2 2 2
left_child=1 5 7 4 6 19 -3 9 23 20 22 17 -11 -9 27 16 -8 25 -10 28 -2 -22 -6 -7 -24 -4 29 -12 -1 -5
right_child=2 3 11 26 10 8 15 13 18 12 14 -13 -14 -15 -16 -17 -18 -19 -20 -21 21 -23 24 -25 -26 -27 -28 -29 -30 -31
leaf_value=0.021795024740913611 -0.20404653026099362 -0.00083168778785427477 -0.17010737200369208 -0.013411650637334044 0.036110108344018059 -0.24395393359478837 0.03686412650155458 -0.052901432982681296 -0.052914048084779147 -0.058918171362932883 0.16033710253068625 -0.10566277856882744 0.09727091387732624 0.13403548915137925 0.23886744985801342 0.14271576931395066 0.11651166012133606 -0.080918451377339107 0.011841419432482377 -0.042538634937496628 0.0084570857252726957 -0.1166408298291971 0.12416904269963645 -0.10640581787619829 0.1987329311907885 -0.21579618413166371 -0.024353759048741874 0.21692868064393839 0.072770951795003688 -0.1810372087559631
leaf_weight=3492 546 1683 2254 143 404 233 1191 316 3404 1760 3194 1256 437 574 2871 4833 2983 356 1916 838 358 4467 2261 2367 904 7216 480 1672 1872 441
leaf_count=3492 546 1683 2254 143 404 233 1191 316 3404 1760 3194 1256 437 574 2871 4833 2983 356 1916 838 358 4467 2261 2367 904 7216 480 1672 1872 441
internal_value=0 0.0734902 -0.139842 0.131048 0.141635 -0.0204962 0.101011 -0.0745313 -0.0588554 -0.0912533 0.180046 -0.189688 -0.027851 0.0676624 0.201707 0.12004 0.0937852 -0.200429 -0.0295923 0.0284889 -0.117188 -0.107359 0.133087 -0.118732 0.145466 -0.204922 -0.0878243 0.179782 0.0395853 -0.139992
internal_weight=0 37182 19540 23060 21996 14122 10690 8458 7920 7568 11306 11082 2197 890 7737 9007 4174 9826 5320 6202 5371 4825 3569 2600 3165 9470 1064 4866 5364 584
internal_count=56722 37182 19540 23060 21996 14122 10690 8458 7920 7568 11306 11082 2197 890 7737 9007 4174 9826 5320 6202 5371 4825 3569 2600 3165 9470 1064 4866 5364 584
is_linear=0
shrinkage=0.05


Tree=16
num_leaves=31
num_cat=0
split_feature=2 0 3 3 2 0 0 2 2 3 3 0 0 0 2 0 3 1 2 2 1 0 0 3 2 3 3 2 2 1
split_gain=210513 81797.1 25351.2 16218 12197.9 9199.81 7532.81 4651.14 4550.05 4195.3 4097.38 3563.51 3301.32 3128.87 3021.85 2776.18 2514.6 2055.35 1838.53 1630.11 1575.27 1495.73 1368.3 1337.39 1304.04 1303.7 1608.74 1268.05 1624.71 1182.54
threshold=0.60776349440360977 -0.13856251034092648 -0.9687565698203997 1.0000000180025095e-35 1.4024276064999048 1.3856328733571914 1.3483697222231372 -1.1714970254384964 -0.35924594100357304 0.45421909999813953 -0.39956630189298409 0.41610343185826176 -0.72411094817338351 1.2647120103933318 -0.40489051366658674 -0.6600380046139912 0.45421909999813953 0.52584550897981175 -1.1593077817804611 0.84048560839214692 0.72803533203845128 -0.6600380046139912 0.38654041527589494 -1.5379468377478152 -0.44459558561863238 -0.68416143585669187 -0.9687565698203997 -0.37859290579949439 -0.49336014166728293 0.17868939769044964
decision_type=2 2 2 2 2 2 2 2 2 2 2 2 2 2 2 2 2 2 2 2 2 2 2 2 2 2 2 2 2 2
left_child=1 3 6 7 10 9 14 -1 12 17 13 -12 -5 19 23 18 24 -4 -9 -2 -16 -10 -11 -3 -7 26 -20 28 -27 -21
right_child=4 2 5 8 -6 16 -8 15 21 22 11 -13 -14 -15 20 -17 -18 -19 25 29 -22 -23 -24 -25 -26 27 -28 -29 -30 -31
leaf_value=0.027775386516896955 -0.093345335866692747 -0.085347824927923518 0.10286353297230443 0.016814659116934839 -0.19932786683557854 0.20169824501637948 0.11766562917105575 -0.39738034676697298 -0.05515962766882835 0.11910942962927801 -0.084743725175429385 0.095336184271346061 0.085175719076980239 0.063151207023902853 -0.059959898420039986 -0.043654512204133106 0.23642964707622319 0.014886954813671614 -0.12367591153124305 -0.12414509573884205 -0.17840012993376983 0.01483089244100585 0.16525303172407882 0.038609686096372581 0.14401188838012272 -0.12377469229673886 -0.25441546590731051 -0.080006676339490587 -0.34539579569416889 -0.17834816659174707
leaf_weight=856 1208 303 4980 5755 7279 1884 865 59 2214 2498 3041 302 2548 187 623 1685 2429 766 839 1567 511 1165 4502 772 2041 437 327 2165 102 2812
leaf_count=856 1208 303 4980 5755 7279 1884 865 59 2214 2498 3041 302 2548 187 623 1685 2429 766 839 1567 511 1165 4502 772 2041 437 327 2165 102 2812
internal_value=0 0.06142 0.12585 -0.0172857 -0.151063 0.147298 -0.00741393 -0.0807913 0.0178865 0.122797 -0.112528 -0.0684757 0.0377931 -0.138033 -0.0563926 -0.0973451 0.196446 0.0911354 -0.120371 -0.144767 -0.113331 -0.0310285 0.148786 0.00367096 0.171701 -0.116148 -0.160341 -0.0970911 -0.165714 -0.158952
internal_weight=0 40326 22174 18152 16396 19100 3074 6470 11682 12746 9117 3343 8303 5774 2209 5614 6354 5746 3929 5587 1134 3379 7000 1075 3925 3870 1166 2704 539 4379
internal_count=56722 40326 22174 18152 16396 19100 3074 6470 11682 12746 9117 3343 8303 5774 2209 5614 6354 5746 3929 5587 1134 3379 7000 1075 3925 3870 1166 2704 539 4379
is_linear=0
shrinkage=0.05


Tree=17
num_leaves=31
num_cat=0
split_feature=2 0 3 1 0 0 2 3 0 3 3 1 0 3 1 2 0 1 0 2 3 0 3 3 2 3 3 2 0 3
split_gain=190455 65615.9 20910.2 17724.3 11963.1 11390.3 8844.49 5771.78 5569.99 4529 4267.26 3844.23 2486.54 1820.11 1742.9 1634.51 1536.18 1456.96 1398.46 1316.84 1247.14 1214.29 1168.77 1107.45 1129.57 1085.51 1084.13 1065.23 1031.67 1007.41
threshold=0.34175577126025919 -0.42128329041346257 -0.68416143585669187 1.5284712010253121 0.095575509544126358 0.74439041832524455 -0.83170754895150434 1.0000000180025095e-35 1.2647120103933318 0.45421909999813953 -0.39956630189298409 0.17868939769044964 1.7082108314935287 -1.2533517037841075 1.4204401034562448 -0.82057824900097198 0.075566231331778214 1.7111063149795864 2.0966037789627312 1.421934095462013 1.0234093679255554 -0.36750676054070286 -1.2533517037841075 1.3080045018892632 -1.6768580925390548 0.45421909999813953 0.73881423396184742 -1.8123457609968443 0.83926707619423602 -0.68416143585669187
decision_type=2 2 2 2 2 2 2 2 2 2 2 2 2 2 2 2 2 2 2 2 2 2 2 2 2 2 2 2 2 2
left_child=1 6 8 5 19 7 14 16 11 15 13 21 20 -7 23 -8 -3 -17 -15 25 -12 -2 27 24 -1 -4 -9 -5 -6 -18
right_child=2 3 4 22 28 10 9 26 -10 -11 12 -13 -14 18 -16 17 29 -19 -20 -21 -22 -23 -24 -25 -26 -27 -28 -29 -30 -31
leaf_value=0.075994583413993608 -0.14514886402880234 -0.044335308865850701 -0.095407976558556248 0.0079503767188314513 0.045503202962291864 0.020591658429986916 -0.30695497290446211 0.085536495713194008 0.043285185179382853 0.00093752577050093219 0.14286106481511468 -0.18569892213375741 0.21672948162103522 0.10764068741745236 -0.040803473169175208 -0.063271020957134258 0.002599674557069141 -0.12917113239736716 0.18066179088391035 -0.20319398006999762 0.19107347529311564 -0.070368943360523781 -0.023108488663565369 0.067762165839881983 0.0056310186102809575 -0.039688169524624325 0.12493269721763689 -0.16185932945984324 0.13990151373304885 0.082020308726302837
leaf_weight=718 1246 694 4715 115 912 451 78 2957 308 2579 3787 9654 2871 2387 838 4216 753 1047 904 246 2077 962 480 1872 2774 1073 4265 469 424 850
leaf_count=718 1246 694 4715 115 912 451 78 2957 308 2579 3787 9654 2871 2387 838 4216 753 1047 904 246 2077 962 480 1872 2774 1073 4265 469 424 850
internal_value=0 0.0664181 -0.126385 0.118397 -0.0599189 0.128038 -0.0184588 0.0868448 -0.166636 -0.0534744 0.159465 -0.172086 0.178604 0.11479 0.0262564 -0.0797482 0.0178085 -0.0763809 0.127699 -0.0898939 0.159938 -0.112568 -0.0809115 0.0367329 0.0200987 -0.0850784 0.108802 -0.128421 0.0754619 0.0447129
internal_weight=0 37182 19540 23060 7370 21996 14122 9519 12170 7920 12477 11862 8735 3742 6202 5341 2297 5263 3291 6034 5864 2208 1064 5364 3492 5788 7222 584 1336 1603
internal_count=56722 37182 19540 23060 7370 21996 14122 9519 12170 7920 12477 11862 8735 3742 6202 5341 2297 5263 3291 6034 5864 2208 1064 5364 3492 5788 7222 584 1336 1603
is_linear=0
shrinkage=0.05


Tree=18
num_leaves=31
num_cat=0
split_feature=2 0 3 3 2 0 0 2 2 0 3 3 0 0 1 0 3 1 2 0 2 2 2 1 0 3 2 1 2 0
split_gain=171910 67146.8 19977.1 15270.3 10129.3 6821.46 5873.41 4326.3 3957.27 3618.24 3434 3310.75 2942.28 2548.89 2271.03 2222.91 2143.65 1571.95 1410.25 1308.25 1288.22 1250.53 1162.29 1056.08 999.923 986.67 940.084 929.172 892.706 807.861
threshold=0.60776349440360977 -0.066673754161141005 -0.9687565698203997 1.0000000180025095e-35 1.4024276064999048 1.3856328733571914 1.6419373520061773 -0.37859290579949439 -1.2410832634859108 -0.73008893711811762 0.45421909999813953 -0.39956630189298409 0.5544495993108397 1.2647120103933318 1.7111063149795864 -0.6600380046139912 0.45421909999813953 0.52584550897981175 0.84048560839214692 -0.6600380046139912 -0.17243677644969882 -0.17243677644969882 -0.44459558561863238 1.7111063149795864 1.1820230654917008 0.73881423396184742 -1.0521422008962926 0.17868939769044964 -0.69195555633463568 -0.16311824415824286
decision_type=2 2 2 2 2 2 2 2 2 2 2 2 2 2 2 2 2 2 2 2 2 2 2 2 2 2 2 2 2 2
left_child=1 3 6 8 11 10 14 9 -1 26 17 13 -13 18 21 23 22 -4 -2 -9 -17 -3 -7 -10 -6 -11 -5 -20 -16 -22
right_child=4 2 5 7 24 16 -8 19 15 25 -12 12 -14 -15 28 20 -18 -19 27 -21 29 -23 -24 -25 -26 -27 -28 -29 -30 -31
leaf_value=0.03718597561562971 -0.082571789920833111 0.030592343118728511 0.095107202495672311 0.031868223169321981 -0.18248403202084387 0.18325040016077151 0.11403064349250365 -0.049724967072093791 -0.094851231974637004 0.043903684531033133 0.13849831868872492 -0.075390989696596425 0.10006707308950571 0.057261056996344088 -0.046543375624936413 0.0034712489978399111 0.21469425048392321 0.015810123814365886 -0.11274029325783591 0.012411176667672413 -0.062763499915438711 -0.064174147691543101 0.1287893805028629 -0.15572518200566288 -0.0079402181228723778 0.10352283819862076 -0.0095498914247293745 -0.1607869754671245 -0.15583398157075098 -0.1927221275218155
leaf_weight=708 1208 873 4824 3408 7196 1884 795 2249 3090 1067 6451 3084 259 187 308 832 2429 718 1567 1359 896 579 2041 926 83 1985 2291 2812 475 138
leaf_count=708 1208 873 4824 3408 7196 1884 795 2249 3090 1067 6451 3084 259 187 308 832 2429 718 1567 1359 896 579 2041 926 83 1985 2291 2812 475 138
internal_value=0 0.0555036 0.116249 -0.0130248 -0.136511 0.135891 -0.00269038 0.0197509 -0.0744928 0.038746 0.1137 -0.101396 -0.0617973 -0.124322 -0.0442086 -0.0879353 0.177777 0.0848338 -0.1304 -0.0263206 -0.0428423 -0.00719677 0.154931 -0.108887 -0.180494 0.0826796 0.0152181 -0.143594 -0.112844 -0.0801081
internal_weight=0 40326 21377 18949 16396 18347 3030 12359 6590 8751 11993 9117 3343 5774 2235 5882 6354 5542 5587 3608 1866 1452 3925 4016 7279 3052 5699 4379 783 1034
internal_count=56722 40326 21377 18949 16396 18347 3030 12359 6590 8751 11993 9117 3343 5774 2235 5882 6354 5542 5587 3608 1866 1452 3925 4016 7279 3052 5699 4379 783 1034
is_linear=0
shrinkage=0.05


Tree=19
num_leaves=31
num_cat=0
split_feature=2 0 2 3 3 0 0 3 2 3 0 3 3 3 0 3 2 3 1 2 2 0 2 0 1 2 2 3 1 2
split_gain=155440 53576.9 17280.5 15582.7 10911 7746.03 5802.34 5061.92 4350.2 3689.53 2968.41 2587.93 2580.29 2562.5 2538.28 2102.82 1663.07 1630.22 1792.66 1589.18 1466.26 1429.03 1379.76 1340.64 1171.85 1130.84 1067.67 1065.03 1063.61 984.684
threshold=0.34175577126025919 -0.10303063945915981 1.1519384843863771 -1.2533517037841075 0.45421909999813953 0.92176851781944646 0.79801635538163129 -0.39956630189298409 -1.1714970254384964 1.0000000180025095e-35 -0.56683376927210383 -0.39956630189298409 -0.39956630189298409 0.16962396603443161 -0.6433308400717308 -1.2533517037841075 -1.633340797529238 -1.2533517037841075 -0.85012952321567614 -1.1593077817804611 -1.0396060742275761 0.81554791172698804 -0.69195555633463568 1.2208362437108338 -0.34307185833024828 -0.48283775700151516 -0.5370984067994099 0.16962396603443161 -0.11300390291954691 -1.633340797529238
decision_type=2 2 2 2 2 2 2 2 2 2 2 2 2 2 2 2 2 2 2 2 2 2 2 2 2 2 2 2 2 2
left_child=1 4 6 16 8 7 9 24 29 17 20 19 21 22 -11 -8 -3 -2 -19 -10 -6 -4 -7 -18 -5 27 -13 -9 -21 -1
right_child=2 3 12 5 10 13 15 25 11 14 -12 26 -14 -15 -16 -17 23 18 -20 28 -22 -23 -24 -25 -26 -27 -28 -29 -30 -31
leaf_value=0.061391297233266522 -0.17291650895145175 0.03858687245377717 -0.16957498217534928 0.063955603106598008 0.047075349412985738 0.17536622964805043 -0.074396455003272577 0.077922406915617609 -0.33921886152946035 -0.070404145599105863 0.090430809982632809 0.0017358425239877269 -0.087383576773809896 0.18864989024476808 0.03666281907871495 0.10030355561166476 -0.12283401822241354 0.01687458539090585 -0.096555618714867522 -0.046514695316133031 -0.0051603155440328044 -0.064428952225108652 0.11718635931700117 0.021615952684162727 -0.024225826014015007 0.091365832719306483 -0.05332774531503346 0.13898587624735559 -0.10897908829907843 -0.0072559656508469385
leaf_weight=838 639 342 9130 647 2543 1464 230 880 65 1222 2029 1363 1178 4100 1012 686 717 376 4732 991 2848 335 3353 207 902 4051 2486 3787 2182 1387
leaf_count=838 639 342 9130 647 2543 1464 230 880 65 1222 2029 1363 1178 4100 1012 686 717 376 4732 991 2848 335 3353 207 902 4051 2486 3787 2182 1387
internal_value=0 0.0600028 -0.114177 0.114293 -0.00635085 0.125505 -0.0627497 0.0958958 -0.0423929 -0.0764292 0.0388814 -0.0615415 -0.157168 0.159597 -0.0219029 0.0564378 -0.0556088 -0.0976248 -0.088206 -0.0944835 0.0194799 -0.165853 0.134869 -0.0904735 0.0126066 0.110694 -0.0338287 0.127472 -0.08947 0.0185986
internal_weight=0 37182 19540 20450 16732 19184 8897 10267 9312 7981 7420 7087 10643 8917 2234 916 1266 5747 5108 3238 5391 9465 4817 924 1549 8718 3849 4667 3173 2225
internal_count=56722 37182 19540 20450 16732 19184 8897 10267 9312 7981 7420 7087 10643 8917 2234 916 1266 5747 5108 3238 5391 9465 4817 924 1549 8718 3849 4667 3173 2225
is_linear=0
shrinkage=0.05


Tree=20
num_leaves=31
num_cat=0
split_feature=2 0 3 3 3 0 3 2 0 3 0 3 0 1 1 0 2 1 2 2 2 3 1 2 0 3 1 2 0 2
split_gain=140507 56887.7 17705.8 15777.9 6576.44 6186.67 5288.84 4716.66 4324.68 2713.81 2602 2560.83 2231.97 1821.26 1819 1659.06 1467.74 1408.08 1364.7 1297.82 1266.66 1257.22 1269.03 1256.97 1192.14 1105.22 1095.94 955.725 1529.99 896.852
threshold=0.71044724377984025 0.075566231331778214 -1.2533517037841075 0.45421909999813953 -0.68416143585669187 0.92176851781944646 -0.39956630189298409 -0.92202416935450582 -0.73008893711811762 -0.39956630189298409 1.1820230654917008 1.0000000180025095e-35 0.46700878566105519 1.7111063149795864 0.17868939769044964 -0.6433308400717308 -1.2660630900167036 -0.34307185833024828 -0.69195555633463568 -0.69195555633463568 -0.1830067035665712 -1.5379468377478152 -0.74928559210226797 -1.633340797529238 -0.68370044708740296 0.45421909999813953 -0.475392945857739 -0.69195555633463568 -0.80720202728174184 1.5369001683355721
decision_type=2 2 2 2 2 2 2 2 2 2 2 2 2 2 2 2 2 2 2 2 2 2 2 2 2 2 2 2 2 2
left_child=1 3 13 7 10 6 17 23 16 21 14 19 29 -3 -2 -11 -5 -4 -10 -7 -19 -9 -23 -1 -25 -8 -13 28 -24 -6
right_child=4 2 5 8 12 11 25 9 18 15 -12 26 -14 -15 -16 -17 -18 20 -20 -21 -22 22 27 24 -26 -27 -28 -29 -30 -31
leaf_value=0.058679412359089439 -0.10624987337299843 -0.0076704163883631639 0.063815095026835078 0.044443964697121779 -0.082905058769762202 0.16267836226128651 0.087181796928728308 -0.24312531109343272 0.10488585354681679 -0.060773062085001876 0.014494262352331073 0.18858574319211374 0.061468437023904025 -0.11931480359317664 -0.16300136473434904 0.0012664238358720404 -0.011576427787772096 0.026257681536886048 0.046730459823729552 0.10226026536427853 -0.090394968263015824 0.017766253258720208 -0.26602130673595309 -0.042047895067878927 0.032842408574751944 0.12552381209167493 0.13784958075654255 -0.087425364293374747 -0.045355740298647577 -0.21439775861104701
leaf_weight=851 1676 792 720 1870 4018 1285 3189 134 2251 2891 234 3618 269 678 8962 1718 3120 489 1828 2883 444 268 194 1358 873 4577 1508 3758 132 134
leaf_count=851 1676 792 720 1870 4018 1285 3189 134 2251 2891 234 3618 269 678 8962 1718 3120 489 1828 2883 444 268 194 1358 873 4577 1508 3758 132 134
internal_value=0 0.0478121 0.107926 -0.00929382 -0.129524 0.121051 0.0924935 -0.0464786 0.0406344 -0.0645933 -0.150432 0.149993 -0.078106 -0.0591635 -0.15406 -0.0376479 0.00941719 0.0112834 0.0788236 0.120887 -0.0292555 -0.0922775 -0.0876329 0.00697812 -0.012743 0.109779 0.17366 -0.0945494 -0.176672 -0.0871488
internal_weight=0 41429 20183 21246 15293 18713 9419 12177 9069 9095 10872 9294 4421 1470 10638 4609 4990 1653 4079 4168 933 4486 4352 3082 2231 7766 5126 4084 326 4152
internal_count=56722 41429 20183 21246 15293 18713 9419 12177 9069 9095 10872 9294 4421 1470 10638 4609 4990 1653 4079 4168 933 4486 4352 3082 2231 7766 5126 4084 326 4152
is_linear=0
shrinkage=0.05


Tree=21
num_leaves=31
num_cat=0
split_feature=2 0 2 1 0 2 0 3 3 3 3 3 3 0 0 1 0 3 1 3 2 0 3 0 0 2 0 2 2 3
split_gain=127069 43751.6 14094 12243.4 7833.4 5954.27 4768.43 3796.16 3301.8 3133.13 2637.27 2154.79 2121.01 2101.92 1794.45 1513.53 1430.88 1401.33 1585.51 1290.52 1207.85 1196.44 1174.72 1070.85 954.92 897.334 889.489 885.329 834.029 807.087
threshold=0.34175577126025919 -0.42128329041346257 1.1519384843863771 1.5284712010253121 0.7294026564299978 -0.83170754895150434 0.71963998583768118 1.0000000180025095e-35 -0.68416143585669187 -0.39956630189298409 1.0000000180025095e-35 -1.2533517037841075 -0.39956630189298409 1.7082108314935287 -0.67875944970963253 1.4204401034562448 1.0290203919322198 -1.2533517037841075 -0.85012952321567614 1.0234093679255554 -0.70221543423609056 0.81554791172698804 1.0234093679255554 0.075566231331778214 -0.6880573598044456 -0.42458507741910267 -0.77362753160297226 0.81614786534229078 -0.1830067035665712 1.3080045018892632
decision_type=2 2 2 2 2 2 2 2 2 2 2 2 2 2 2 2 2 2 2 2 2 2 2 2 2 2 2 2 2 2
left_child=1 5 6 4 7 15 10 23 16 20 17 -8 21 22 -12 24 -6 -2 -19 -11 26 -4 -10 -3 29 -15 -7 -16 -18 -1
right_child=2 3 12 -5 8 9 11 -9 13 19 14 -13 -14 25 27 -17 28 18 -20 -21 -22 -23 -24 -25 -26 -27 -28 -29 -30 -31
leaf_value=0.0041165129555284456 -0.16415593881361781 -0.038828012771315347 -0.15333803526996287 -0.068954587465106632 -0.0035282471352988741 -0.25104945572561393 -0.077054654169184569 0.087678661178645478 0.11189475590495977 -0.040277324481059806 -0.065122064047803491 0.07697432975604096 -0.078788479447743504 0.19953654307395119 0.05308630324516516 -0.040859277515287618 0.11171575323354591 0.021118292458454743 -0.088656080409792226 0.011022510795500656 -0.078079269429252515 -0.057128456393951803 0.15617639692808438 0.035992874650298878 0.074081011429709423 0.14884327569208808 -0.01952608104766114 -0.060210068482491712 0.032048157594484712 0.048741870068269098
leaf_weight=2683 562 694 9130 1064 439 179 307 6950 4599 3404 1194 872 1178 1734 738 838 1653 354 4645 1916 2367 335 2221 1538 1053 1758 54 225 410 1628
leaf_count=2683 562 694 9130 1064 439 179 307 6950 4599 3404 1194 872 1178 1734 738 838 1653 354 4645 1916 2367 335 2221 1538 1053 1758 54 225 410 1628
internal_value=0 0.0542514 -0.103233 0.0966956 0.104709 -0.0150564 -0.0567884 0.0694595 0.129967 -0.0437867 -0.0710952 0.0368667 -0.142058 0.142468 -0.0241657 0.0216323 0.07844 -0.0892982 -0.0808825 -0.0218017 -0.0887715 -0.149933 0.126316 0.0127287 0.0313952 0.174016 -0.197392 0.0266152 0.0958826 0.0209688
internal_weight=0 37182 19540 23060 21996 14122 8897 9182 12814 7920 7718 1179 10643 10312 2157 6202 2502 5561 4999 5320 2600 9465 6820 2232 5364 3492 233 963 2063 4311
internal_count=56722 37182 19540 23060 21996 14122 8897 9182 12814 7920 7718 1179 10643 10312 2157 6202 2502 5561 4999 5320 2600 9465 6820 2232 5364 3492 233 963 2063 4311
is_linear=0
shrinkage=0.05


Tree=22
num_leaves=31
num_cat=0
split_feature=2 0 2 1 0 3 3 0 3 3 2 3 0 1 0 3 1 0 3 0 1 2 0 3 3 1 2 3 1 2
split_gain=114727 39142.9 13733.7 10887 6881.73 5256.59 4760.4 4431.05 3661.19 3348.87 2784.72 2505.62 1865.28 1586.28 1554.25 1433.3 1370.71 1290.94 1240.89 1209.52 980.234 937.125 915.325 1156.19 857.112 805.654 795.295 765.421 762.768 868.582
threshold=0.31214431294744988 -0.42128329041346257 0.84048560839214692 1.5284712010253121 1.0290203919322198 0.16962396603443161 -0.39956630189298409 0.17138040558287479 -0.68416143585669187 -0.9687565698203997 -1.3701264665761139 1.0000000180025095e-35 1.1820230654917008 1.7111063149795864 0.30478898675636829 1.5925996358529713 0.17868939769044964 -0.6600380046139912 0.73881423396184742 0.60565049399218251 -0.475392945857739 -0.68057675874541534 -0.59467459652308829 -0.9687565698203997 1.0000000180025095e-35 -0.85012952321567614 -0.4145005971691374 0.45421909999813953 -0.34307185833024828 0.55431043109175338
decision_type=2 2 2 2 2 2 2 2 2 2 2 2 2 2 2 2 2 2 2 2 2 2 2 2 2 2 2 2 2 2
left_child=1 5 7 4 6 10 -3 22 12 -9 -1 21 16 17 18 25 -4 -12 -8 -10 -13 -6 -2 -24 28 26 -7 -5 -11 -30
right_child=2 3 8 27 11 15 14 9 19 24 13 20 -14 -15 -16 -17 -18 -19 -20 -21 -22 -23 23 -25 -26 -27 -28 -29 29 -31
leaf_value=0.040104289024500687 -0.079351461581179727 0.0076906904273676829 -0.097725488869735921 -0.075115386537405349 0.13842904319337754 -0.0047061139431616092 0.037367891285011466 -0.073837084315090007 -0.08486261094573673 0.074167196143760675 -0.061195481866022305 0.17499844846039081 0.010991169016626549 -0.11296313136099119 0.10664642540851005 0.048638292214195834 -0.14896139063913491 0.0046957759518195825 0.089580609572169359 0.071756789974460847 0.12414595812832073 0.087987211971067167 -0.12689970305646092 -0.010301789309899414 0.11262555390255763 0.012311535715050349 -0.081253019545134808 0.1254035919290036 0.036383557623960609 -0.16284068986522349
leaf_weight=788 2678 2056 1534 988 1438 1010 1886 539 3337 392 3354 3266 205 1138 6372 2154 8759 955 2869 128 1335 2560 257 1231 689 4012 511 50 142 89
leaf_count=788 2678 2056 1534 988 1438 1010 1886 539 3337 392 3354 3266 205 1138 6372 2154 8759 955 2869 128 1335 2560 257 1231 689 4012 511 50 142 89
internal_value=0 0.0524376 -0.0964295 0.0927471 0.100286 -0.0136351 0.0775882 -0.0332807 -0.123642 0.0310902 -0.047749 0.135084 -0.138351 -0.0604585 0.0905036 0.014035 -0.141326 -0.0465921 0.0688712 -0.079077 0.160243 0.10613 -0.0618814 -0.03044 0.0741968 0.000563964 -0.0304231 -0.0654565 0.0316969 -0.0403738
internal_weight=0 36742 19980 22820 21782 13922 13183 6017 13963 1851 6235 8599 10498 5447 11127 7687 10293 4309 4755 3465 4601 3998 4166 1488 1312 5533 1521 1038 623 231
internal_count=56722 36742 19980 22820 21782 13922 13183 6017 13963 1851 6235 8599 10498 5447 11127 7687 10293 4309 4755 3465 4601 3998 4166 1488 1312 5533 1521 1038 623 231
is_linear=0
shrinkage=0.05


Tree=23
num_leaves=31
num_cat=0
split_feature=2 0 3 3 3 0 0 0 2 0 3 1 3 2 3 2 1 0 3 2 3 0 2 0 2 2 3 2 2 3
split_gain=103541 35372.7 12414.9 11140.5 9407.26 7727.37 3675.22 3433.92 2894.33 2878.4 2388.46 2297.2 2217.48 1511.8 1432.42 1402.42 1094.58 1079.38 1184.27 1070.11 968.36 897.558 894.554 867.778 837.453 796.696 791.246 786.98 781.787 706.87
threshold=0.31214431294744988 0.075566231331778214 -0.68416143585669187 -1.2533517037841075 0.45421909999813953 0.095575509544126358 1.4591475508053693 1.2647120103933318 -1.1714970254384964 -0.56683376927210383 0.16962396603443161 0.17868939769044964 -0.39956630189298409 -1.1593077817804611 0.45421909999813953 -1.8991390330698958 -0.11300390291954691 0.79014121777195179 -1.5379468377478152 -1.0396060742275761 0.45421909999813953 -0.6600380046139912 -0.2310525759953265 -0.40512678222821003 -0.24627166644334461 -0.92202416935450582 -0.9687565698203997 1.5369001683355721 -1.633340797529238 0.16962396603443161
decision_type=2 2 2 2 2 2 2 2 2 2 2 2 2 2 2 2 2 2 2 2 2 2 2 2 2 2 2 2 2 2
left_child=1 4 7 15 8 20 10 11 28 19 -5 23 13 -10 24 -3 -15 -17 -19 -6 27 -14 -23 -2 -8 -11 -25 -4 -1 -7
right_child=2 3 5 6 9 29 14 -9 12 25 -12 -13 21 16 -16 17 -18 18 -20 -21 -22 22 -24 26 -26 -27 -28 -29 -30 -31
leaf_value=0.05413649100293192 -0.11011495287172801 0.050585119435170051 -0.072528590523738778 0.061776540901031129 0.039853486503666505 0.032751245622523129 0.13595854733311905 0.038312428613100781 -0.31696224467112466 0.10512409009948871 0.10972210267183716 -0.13771373962312092 -0.041436408364998317 -0.031337825404108281 0.17098858385881671 -0.13733198020535595 -0.093070579388038241 -0.09713734408405704 0.054775586952896915 -0.0050627129081584907 -0.025072369733687545 0.039172783915515604 -0.038708352442785574 -0.07748739389211623 0.086370716627117594 0.054500755213831048 0.016990427956008136 -0.20159428550069 -0.006421452197723017 0.10342421582637368
leaf_weight=851 1225 278 4943 4235 2543 875 2896 322 65 1385 6718 9705 2572 1052 2255 416 2262 287 232 2771 1166 893 628 706 1206 1771 323 121 1426 594
leaf_count=851 1225 278 4943 4235 2543 875 2896 322 65 1385 6718 9705 2572 1052 2255 416 2262 287 232 2771 1166 893 628 706 1206 1771 323 121 1426 594
internal_value=0 0.0498157 -0.0916081 0.0984709 0.000348643 -0.0418294 0.108736 -0.122814 -0.0331403 0.0388945 0.0911839 -0.127153 -0.0481795 -0.0781579 0.138977 -0.0480115 -0.0734741 -0.0773268 -0.0292302 0.0164318 -0.0661535 -0.0234307 0.00701673 -0.081681 0.12138 0.0767166 -0.0478311 -0.0756125 0.0162113 0.0613283
internal_weight=0 36742 19980 18523 18219 7699 17310 12281 9749 8470 10953 11959 7472 3379 6357 1213 3314 935 519 5314 6230 4093 1521 2254 4102 3156 1029 5064 2277 1469
internal_count=56722 36742 19980 18523 18219 7699 17310 12281 9749 8470 10953 11959 7472 3379 6357 1213 3314 935 519 5314 6230 4093 1521 2254 4102 3156 1029 5064 2277 1469
is_linear=0
shrinkage=0.05


Tree=24
num_leaves=31
num_cat=0
split_feature=2 0 3 3 2 0 0 2 0 3 1 2 3 0 0 0 2 3 1 1 2 1 1 3 2 1 2 0 2 2
split_gain=93818 38554.8 12442.6 9224.7 4266.62 4062.06 3694.52 3403.31 2573.75 2267.28 1712.38 1652.32 1452.23 1319.25 1270.1 1229.11 1179.82 1173.03 1017.69 985.164 900.25 886.89 885.775 882.854 802.058 798.599 782.295 742.166 717.556 703.928
threshold=0.72380372811667026 -0.066673754161141005 -0.9687565698203997 0.45421909999813953 1.4393168301607264 1.4591475508053693 1.6642814924463387 -0.92202416935450582 -0.76009489031010047 0.16962396603443161 1.7111063149795864 -0.45488965122537067 -0.39956630189298409 0.46700878566105519 -0.6433308400717308 1.2647120103933318 -1.2660630900167036 0.45421909999813953 1.2759940291785032 0.72803533203845128 -0.24627166644334461 -0.74928559210226797 0.43555948736243183 -1.5379468377478152 -1.0685194367759403 1.7111063149795864 -0.48283775700151516 0.86971403679401604 -0.73303770055470763 -1.8991390330698958
decision_type=2 2 2 2 2 2 2 2 2 2 2 2 2 2 2 2 2 2 2 2 2 2 2 2 2 2 2 2 2 2
left_child=1 3 6 7 12 9 11 18 16 25 14 23 15 -14 22 21 -5 28 29 -13 -16 -2 -9 -3 -10 -4 -11 -28 -7 -1
right_child=4 2 5 8 -6 17 -8 10 24 26 -12 19 13 -15 20 -17 -18 -19 -20 -21 -22 -23 -24 -25 -26 -27 27 -29 -30 -31
leaf_value=0.087899907591758641 -0.02487520612454 -0.065433598839880605 0.059706324935189174 0.037423254147185302 -0.13605638838141165 0.15505557290044286 0.085971891781679022 -0.074063690125294207 0.097137715643716774 0.11475525011618359 -0.103059364585788 -0.03751649917305537 -0.062177907069936138 0.075120792713789075 0.031263029445040461 0.041459225459444915 -0.013049409914649738 0.16250168196429537 -0.063006288058974833 -0.12483847801306325 -0.03641532771788164 -0.10676533932832927 -0.026121086256704503 0.036528086990251507 0.045187924987365374 -0.047251486685638742 0.071602561415912924 0.12188371206240095 0.10425947232508122 0.0079371919600297897
leaf_weight=314 354 294 4246 1852 6845 925 800 3396 1125 4207 1600 737 2522 188 719 155 3089 2266 460 575 1552 5009 1345 764 2188 182 3015 970 2799 2229
leaf_count=314 354 294 4246 1852 6845 925 800 3396 1125 4207 1600 737 2522 188 719 155 3089 2266 460 575 1552 5009 1345 764 2188 182 3015 970 2799 2229
internal_value=0 0.0386843 0.0846323 -0.0116829 -0.106891 0.10023 -0.00693511 -0.0404027 0.0287314 0.0841361 -0.0563849 -0.0382961 -0.0826273 -0.0526531 -0.0457347 -0.0973482 0.0058689 0.134136 0.00543113 -0.0757864 -0.0149883 -0.10136 -0.0604626 0.00819469 0.0628286 0.0553101 0.0997173 0.0838416 0.116877 0.0178107
internal_weight=0 41649 21780 19869 15073 18610 3170 11615 8254 12620 8612 2370 8228 2710 7012 5518 4941 5990 3003 1312 2271 5363 4741 1058 3313 4428 8192 3985 3724 2543
internal_count=56722 41649 21780 19869 15073 18610 3170 11615 8254 12620 8612 2370 8228 2710 7012 5518 4941 5990 3003 1312 2271 5363 4741 1058 3313 4428 8192 3985 3724 2543
is_linear=0
shrinkage=0.05


Tree=25
num_leaves=31
num_cat=0
split_feature=2 0 3 3 0 3 0 1 2 2 2 3 1 2 0 2 0 0 3 2 2 3 1 1 1 3 1 1 2 3
split_gain=84708.5 35536 12052.6 9807.31 4012.13 3535.38 3276.98 3167.99 2107.33 1946.7 1681.45 1680.56 1540.81 1369.3 1366.36 1117.51 1081.99 1066.01 1062.74 1023.5 995.659 958.325 832.896 825.2 800.516 745.659 675.487 848.215 2310.07 819.208
threshold=0.78240190617733085 0.075566231331778214 -1.2533517037841075 1.0000000180025095e-35 0.90195343942910566 -0.68416143585669187 -0.6600380046139912 1.0065232015343131 -1.2839894722162828 -0.20538303653522394 -0.28512258719422645 1.0000000180025095e-35 1.7111063149795864 -1.633340797529238 -0.6600380046139912 1.9740905880110342 0.46700878566105519 1.2647120103933318 0.45421909999813953 -0.83170754895150434 -0.94629618066999288 -0.68416143585669187 -0.18667420195324966 -0.475392945857739 -0.34307185833024828 1.8771947698166789 0.52584550897981175 -0.11300390291954691 -0.30547118495253484 -0.68416143585669187
decision_type=2 2 2 2 2 2 2 2 2 2 2 2 2 2 2 2 2 2 2 2 2 2 2 2 2 2 2 2 2 2
left_child=1 3 13 8 5 19 9 15 -1 25 -8 20 14 -3 26 16 -2 -15 -7 -4 -6 -9 -11 -13 -21 -5 27 -10 -29 -30
right_child=7 2 4 6 11 18 10 21 12 22 -12 23 -14 17 -16 -17 -18 -19 -20 24 -22 -23 -24 -25 -26 -27 -28 28 29 -31
leaf_value=0.029944031311962056 -0.081171974398219243 0.036357714431918618 0.070254281936711682 0.0022854216624449224 0.1500116976672301 0.062210001778068291 0.066743665424758944 -0.12965297692600866 -0.061505546152796221 -0.071621692559845865 0.0062660969250564399 0.14876605817028213 -0.10373236463354735 -0.10160487995332559 -0.016213117587775074 -0.22067742791564135 -0.017268672309971103 0.014774328887642151 0.098289418710360468 0.023878136243734319 0.083387345982908326 -0.077601892256576627 -0.0091466229834200451 0.10515969207501551 -0.079236665501330905 0.0428243125997812 -0.034377202607529689 -0.24262548283883456 -0.16893745029690088 -0.025985184995634698
leaf_weight=704 4817 342 271 5002 664 3712 3643 7701 1694 1181 1679 3706 1615 938 2087 130 768 249 4534 295 3607 999 973 1534 520 1467 1095 271 135 389
leaf_count=704 4817 342 271 5002 664 3712 3643 7701 1694 1181 1679 3706 1615 938 2087 130 768 249 4534 295 3607 999 973 1534 520 1467 1095 271 135 389
internal_value=0 0.0356664 0.0832163 -0.00849536 0.0941716 0.0708795 0.0168116 -0.104678 -0.0526638 -0.00223008 0.047664 0.117025 -0.0606457 -0.0517935 -0.0483753 -0.0757578 -0.0723846 -0.0771917 0.082048 -0.0139227 0.0937452 -0.123676 -0.0434006 0.136 -0.0419129 0.0114786 -0.0671037 -0.0815013 -0.124109 -0.0628145
internal_weight=0 42307 20372 21935 18843 9332 13945 14415 7990 8623 5322 9511 7286 1529 5671 5715 5585 1187 8246 1086 4271 8700 2154 5240 815 6469 3584 2489 795 524
internal_count=56722 42307 20372 21935 18843 9332 13945 14415 7990 8623 5322 9511 7286 1529 5671 5715 5585 1187 8246 1086 4271 8700 2154 5240 815 6469 3584 2489 795 524
is_linear=0
shrinkage=0.05


Tree=26
num_leaves=31
num_cat=0
split_feature=2 0 3 3 3 0 1 0 2 0 1 3 0 0 3 2 1 2 2 1 2 3 0 1 3 2 0 2 1 0
split_gain=76550.3 26104.2 9390.47 8397.44 7030.42 4815.68 3336.47 2772.1 2250.29 2176.53 1996.53 1825.61 1731.76 1315.11 1305.34 1161 1116.15 1081.55 947.459 871.765 861.651 816.235 773.149 767.847 749.075 712.845 694.651 621.418 620.124 615.261
threshold=0.31214431294744988 0.075566231331778214 -0.39956630189298409 -1.2533517037841075 0.45421909999813953 0.25350684065524326 0.72803533203845128 0.96714431071331208 -1.633340797529238 -0.76009489031010047 1.7111063149795864 -0.68416143585669187 -0.27829798621485541 -0.6600380046139912 0.45421909999813953 -0.43544427299472538 -0.34307185833024828 -0.2310525759953265 -0.36963723022797029 -1.0234733304721724 -0.92202416935450582 1.0000000180025095e-35 0.79014121777195179 0.43555948736243183 -1.5379468377478152 1.9740905880110342 1.777139233746466 -0.59012273608975752 -0.34307185833024828 0.94027241258395777
decision_type=2 2 2 2 2 2 2 2 2 2 2 2 2 2 2 2 2 2 2 2 2 2 2 2 2 2 2 2 2 2
left_child=1 4 6 15 8 -4 12 11 -1 19 13 -5 25 21 18 -3 24 -15 -9 -6 -11 -10 -17 27 -14 -2 -8 -13 -16 -18
right_child=2 3 5 7 9 -7 26 14 10 20 -12 23 16 17 28 22 29 -19 -20 -21 -22 -23 -24 -25 -26 -27 -28 -29 -30 -31
leaf_value=0.049064476597128322 -0.086818624812000089 -0.0043792217535112516 -0.045329334504063803 0.0045885107387343459 -0.037014412876817747 0.075258966205844727 -0.11877113826801587 0.11675730405355239 -0.059978808589633725 0.086256725602042145 -0.087269240576729981 0.10311115118316938 -0.11021762190232656 0.028380583473233818 0.14991353563183435 -0.16431359136959472 -0.089133996623682321 -0.037767747145059177 0.074159226652940141 0.020026733570728688 0.039766998296047594 -0.018176772192133994 -0.033955085367107618 0.030345382412449846 0.019214708249769421 -0.23272948134257351 0.076013255742904934 0.073350664069452981 0.097094523507907302 0.014655701869606286
leaf_weight=851 3139 754 4434 862 823 1018 9227 3027 2559 1775 1567 3060 127 1628 2570 251 796 996 2295 3599 2273 2148 208 677 933 86 46 4110 709 174
leaf_count=851 3139 754 4434 862 823 1018 9227 3027 2559 1775 1567 3060 127 1628 2570 251 796 996 2295 3599 2273 2148 208 677 933 86 46 4110 709 174
internal_value=0 0.0428336 -0.0787683 0.084631 0.000338648 -0.022813 -0.0997669 0.0935429 -0.0286121 0.0336611 -0.0360411 0.0736583 -0.0679371 -0.0250911 0.113677 -0.0425452 -0.0317591 0.00327245 0.0983878 0.00941053 0.0601522 -0.0409028 -0.10524 0.0812457 0.00370725 -0.0907096 -0.117805 0.0860518 0.138493 -0.0705161
internal_weight=0 36742 19980 18523 18219 5452 14528 17310 9749 8470 8898 8709 5255 7331 8601 1213 2030 2624 5322 4422 4048 4707 459 7847 1060 3225 9273 7170 3279 970
internal_count=56722 36742 19980 18523 18219 5452 14528 17310 9749 8470 8898 8709 5255 7331 8601 1213 2030 2624 5322 4422 4048 4707 459 7847 1060 3225 9273 7170 3279 970
is_linear=0
shrinkage=0.05


Tree=27
num_leaves=31
num_cat=0
split_feature=2 0 3 3 0 2 3 2 0 1 0 3 2 0 2 0 1 1 3 2 2 1 3 3 0 0 1 2 3 3
split_gain=69437.3 28891.9 9829.93 8137.24 3309.82 2698.58 2640.45 2535.66 2496.15 1811.78 1486.92 1422.44 1180.88 1137.37 1037.66 1005.99 983.185 905.568 931.968 855.37 830.517 800.413 697.662 639.625 633.966 623.744 599.364 1464.08 1543.94 710.637
threshold=0.78240190617733085 0.075566231331778214 -1.2533517037841075 0.45421909999813953 0.83926707619423602 1.4393168301607264 -0.39956630189298409 -1.1714970254384964 -0.77362753160297226 1.7111063149795864 -0.6600380046139912 0.73881423396184742 -1.8991390330698958 1.9526240309264484 -1.2660630900167036 1.2208362437108338 -0.34307185833024828 -1.0234733304721724 -0.39956630189298409 -0.75188727777607267 -0.69195555633463568 0.43555948736243183 -0.9687565698203997 0.73881423396184742 1.1820230654917008 0.46700878566105519 -0.11300390291954691 -0.4145005971691374 1.0000000180025095e-35 -0.68416143585669187
decision_type=2 2 2 2 2 2 2 2 2 2 2 2 2 2 2 2 2 2 2 2 2 2 2 2 2 2 2 2 2 2
left_child=1 3 12 7 6 17 16 -1 14 10 21 13 -3 -6 -5 -14 -4 -2 24 -18 -10 26 -12 -8 -19 -20 -9 28 -28 -29
right_child=5 2 4 8 11 -7 23 9 20 -11 22 -13 15 -15 -16 -17 19 18 25 -21 -22 -23 -24 -25 -26 -27 27 29 -30 -31
leaf_value=0.014137834504199268 -0.010061680800217925 0.046452627383865984 0.049432695688637784 0.033762403464549423 0.079012967486201291 -0.11752460225580974 0.061138994997282203 -0.051339603522586534 0.075783548402377235 -0.088472249612894002 -0.078745182700323435 0.1327167624856076 -0.091052225220791649 0.12128588463127554 -0.013412538378594152 0.017790000036193878 0.048847804997330234 -0.093646659551209294 -0.058398806442165586 -0.060389642148008786 0.031527441944107275 -0.019738461820340177 3.6497893165134049e-05 0.091959199622008575 0.043332870672781798 0.05925857165844 -0.24932358301145602 -0.15653733055486724 0.013924781906686418 -0.02758053255191726
leaf_weight=2277 513 278 662 1848 5158 6845 3717 2804 2370 1885 311 3022 980 2301 3157 271 246 4743 2109 660 1918 1495 2915 3077 86 119 235 135 73 512
leaf_count=2277 513 278 662 1848 5158 6845 3717 2804 2370 1885 311 3022 980 2301 3157 271 246 4743 2109 660 1918 1495 2915 3077 86 119 235 135 73 512
internal_value=0 0.0322918 0.0751668 -0.00752811 0.0850604 -0.0947741 0.0615996 -0.0336383 0.0279916 -0.0441338 -0.0342779 0.103778 -0.0467601 0.0920536 0.0040059 -0.0674741 0.00311469 -0.0742024 -0.0788651 -0.0307291 0.055988 -0.050684 -0.00755839 0.0750975 -0.0912072 -0.0521146 -0.0629914 -0.0972024 -0.18693 -0.0544881
internal_weight=0 42307 20372 21935 18843 14415 8362 12642 9293 10365 8480 10481 1529 7459 5005 1251 1568 7570 7057 906 4288 5254 3226 6794 4829 2228 3759 955 308 647
internal_count=56722 42307 20372 21935 18843 14415 8362 12642 9293 10365 8480 10481 1529 7459 5005 1251 1568 7570 7057 906 4288 5254 3226 6794 4829 2228 3759 955 308 647
is_linear=0
shrinkage=0.05


Tree=28
num_leaves=31
num_cat=0
split_feature=2 0 3 3 0 2 0 1 3 2 0 2 3 2 1 3 0 0 0 3 2 1 3 3 2 1 1 2 0 0
split_gain=62667.2 26093.1 9062.17 7668 2686.99 2435.47 2423.04 2407.54 2267.8 2003.84 1337.83 1082.96 1070.37 936.488 858.051 820.555 784.247 719.77 716.094 714.713 703.49 687.4 683.731 666.731 645.786 701.76 629.6 623.091 703.44 589.713
threshold=0.78240190617733085 0.17138040558287479 -1.2533517037841075 0.45421909999813953 1.4921909853472071 1.4393168301607264 -0.77362753160297226 1.7111063149795864 1.0000000180025095e-35 -0.92202416935450582 -0.6433308400717308 -1.633340797529238 -0.39956630189298409 -1.2660630900167036 1.7111063149795864 -0.39956630189298409 1.2647120103933318 2.3605936597631132 0.5544495993108397 -0.9687565698203997 -0.92202416935450582 0.43555948736243183 1.0234093679255554 -1.5379468377478152 0.27785481408234303 -0.34307185833024828 -0.34307185833024828 -1.8991390330698958 -0.68370044708740296 0.76961682066833748
decision_type=2 2 2 2 2 2 2 2 2 2 2 2 2 2 2 2 2 2 2 2 2 2 2 2 2 2 2 2 2 2
left_child=1 3 11 7 8 15 13 9 24 27 21 -3 17 -5 -13 16 -2 -6 -17 26 -8 -11 -10 -9 -4 -26 -12 -1 -29 -16
right_child=5 2 4 6 12 -7 20 23 22 10 19 14 -14 -15 29 18 -18 -19 -20 -21 -22 -23 -24 -25 25 -27 -28 28 -30 -31
leaf_value=0.081325929917968234 -0.084767800222455766 0.033452238995385797 0.045744278364412305 0.032074282967387971 0.072224330755207539 -0.11164837892872906 0.077287935581738909 -0.18715130170977867 0.072628072137569485 -0.061555282687732998 0.041954216805297415 -0.025901428653927128 0.12433571993639225 -0.012741911454791572 -0.15869892975831168 -0.052734082502004898 0.037782435855869934 0.16661745726762872 0.067971731854172865 0.00055290263052296194 0.037747216783131254 -0.020425870871015456 0.10304313881774396 -0.070943658863841658 0.043154919492856908 -0.058294347852382356 -0.11292342558478735 -0.013104017364751093 0.043596911993346907 -0.056575213763809529
leaf_weight=325 5065 342 2909 1848 2052 6845 1904 131 5338 3508 87 598 4067 3157 307 2241 134 224 130 2793 2749 1430 2826 2136 336 346 267 1506 859 262
leaf_count=325 5065 342 2909 1848 2052 6845 1904 131 5338 3508 87 598 4067 3157 307 2241 134 224 130 2793 2749 1430 2826 2136 336 346 267 1506 859 262
internal_value=0 0.0306772 0.0729279 -0.00581662 0.0827433 -0.0900354 0.027953 -0.0308241 0.0685911 -0.0209703 -0.0334077 -0.0447924 0.108971 0.00380561 -0.0677226 -0.0704923 -0.0816092 0.0815143 -0.0461159 -0.00793018 0.0539272 -0.0496446 0.0831564 -0.0776588 0.0354777 -0.00831348 -0.0748603 0.0164112 0.00749053 -0.111675
internal_weight=0 42307 19607 22700 18098 14415 9658 13042 11755 10775 8085 1509 6343 5005 1167 7570 5199 2276 2371 3147 4653 4938 8164 2267 3591 682 354 2690 2365 569
internal_count=56722 42307 19607 22700 18098 14415 9658 13042 11755 10775 8085 1509 6343 5005 1167 7570 5199 2276 2371 3147 4653 4938 8164 2267 3591 682 354 2690 2365 569
is_linear=0
shrinkage=0.05


Tree=29
num_leaves=31
num_cat=0
split_feature=2 0 2 1 0 3 0 3 2 3 3 0 2 0 3 3 2 3 1 1 3 0 1 2 3 0 2 1 3 0
split_gain=56649.4 19149.7 6943.19 6013.81 3848.77 3066.05 2624.08 1820.66 1712.69 1704.34 1585.52 1292.42 1214.51 1185.91 992.5 935.967 871.102 869.992 1014.76 847.732 783.602 748.351 649.961 628.028 615.875 621.26 613.836 611.08 638.745 596.209
threshold=0.31214431294744988 -0.48524085048031529 1.1519384843863771 1.5284712010253121 0.7294026564299978 -0.39956630189298409 0.79801635538163129 -0.68416143585669187 -0.55262856876012945 0.45421909999813953 1.0000000180025095e-35 1.777139233746466 -1.8991390330698958 -0.6600380046139912 -0.39956630189298409 -1.5379468377478152 -0.10253126121785029 -1.2533517037841075 -0.85012952321567614 1.0065232015343131 1.0234093679255554 0.81554791172698804 -0.11300390291954691 -0.44459558561863238 -0.9687565698203997 0.12239517461790612 -0.48283775700151516 -0.82036619859929816 1.0234093679255554 -0.76009489031010047
decision_type=2 2 2 2 2 2 2 2 2 2 2 2 2 2 2 2 2 2 2 2 2 2 2 2 2 2 2 2 2 2
left_child=1 5 6 4 9 12 10 16 19 24 17 20 -1 -12 21 -8 -6 -2 -19 29 -9 -4 -14 -13 -3 -26 -11 -10 -29 -7
right_child=2 3 14 -5 7 8 15 11 27 26 13 23 22 -15 -16 -17 -18 18 -20 -21 -22 -23 -24 -25 25 -27 -28 28 -30 -31
leaf_value=0.06883776329702844 -0.11384851592187045 -0.020219305408106226 -0.1034473134951308 -0.048727708823082944 0.062800670087548 0.017602610894955885 -0.092620759599415944 0.074214157261970184 -0.052791786668903988 0.07875991991677235 -0.0439483612116566 0.14837870793840424 -0.025734397604043908 0.026387891843433483 -0.052087259942616086 0.057203049468859971 -0.015763659650206287 0.024373079193755986 -0.058957046152913861 -0.016635935591309502 0.1091070262282433 -0.027357752924479214 -0.076601985035887693 0.10231585958636212 0.0084674030245699416 0.049289549980423564 0.043045438523950284 -0.030073592946776313 0.025160070313343216 0.057812543030004881
leaf_weight=190 654 690 9130 1126 2054 3913 118 4878 1302 3225 1293 1452 893 1117 1178 894 426 395 4866 1416 2401 335 2116 1509 1677 2098 1919 1423 828 1206
leaf_count=190 654 690 9130 1126 2054 3913 118 4878 1302 3225 1293 1452 893 1117 1178 894 426 395 4866 1416 2401 335 2116 1509 1677 2098 1919 1423 828 1206
internal_value=0 0.0368475 -0.0677604 0.064016 0.0697014 -0.0111119 -0.0362916 0.0877437 0.0024135 0.0458178 -0.0455333 0.097053 -0.0537641 -0.0113485 -0.0953676 0.0397335 0.0493053 -0.0594615 -0.0527006 0.0176044 0.0857237 -0.100754 -0.0615057 0.124904 0.0232157 0.0311548 0.0654364 -0.0255269 -0.00975663 0.0270758
internal_weight=0 36742 19980 23455 22329 13287 9337 12720 10088 9609 8325 10240 3199 2410 10643 1012 2480 5915 5261 6535 7279 9465 3009 2961 4465 3775 5144 3553 2251 5119
internal_count=56722 36742 19980 23455 22329 13287 9337 12720 10088 9609 8325 10240 3199 2410 10643 1012 2480 5915 5261 6535 7279 9465 3009 2961 4465 3775 5144 3553 2251 5119
is_linear=0
shrinkage=0.05


Tree=30
num_leaves=31
num_cat=0
split_feature=2 0 3 3 0 0 1 2 2 0 2 3 1 1 2 0 3 3 1 3 2 0 3 2 0 2 2 0 3 1
split_gain=51208.4 21444.2 7489.43 5261.41 3470.25 2641.99 2101.89 1931.85 1349.09 1204.49 1174.31 1042.81 940.425 874.196 853.662 731.585 704.043 671.988 670.278 667.687 644.847 599.624 578.067 572.426 567.172 1124.58 1524.16 898.504 597.4 578.437
threshold=0.78240190617733085 -0.066673754161141005 -0.68416143585669187 1.0000000180025095e-35 1.3483697222231372 1.6642814924463387 1.0065232015343131 -0.2652008544470103 -1.2839894722162828 -0.46219316544345573 -0.43544427299472538 0.73881423396184742 -0.85012952321567614 -0.34307185833024828 1.9740905880110342 0.46700878566105519 -1.5379468377478152 -1.5379468377478152 0.43555948736243183 1.5925996358529713 -0.44459558561863238 0.79801635538163129 -0.68416143585669187 -1.1060267259308718 -0.6600380046139912 -0.4145005971691374 -0.49336014166728293 -0.16803469226765663 -0.68416143585669187 -0.11300390291954691
decision_type=2 2 2 2 2 2 2 2 2 2 2 2 2 2 2 2 2 2 2 2 2 2 2 2 2 2 2 2 2 2
left_child=1 3 4 8 10 11 14 9 -1 19 16 18 -10 -12 15 -2 -3 -14 -4 -5 -7 -15 -8 -6 25 26 29 -26 -27 -19
right_child=6 2 5 7 23 20 22 -9 12 -11 13 -13 17 21 -16 -17 -18 24 -20 -21 -22 -23 -24 -25 27 28 -28 -29 -30 -31
leaf_value=0.025001520696185678 -0.062109196105122347 -0.057320169627982122 0.059795205083083447 0.0031729995603381844 0.11897611398793136 0.13509794780154252 -0.1015051253892946 -0.021035436015768419 0.022294015353565039 0.056034189537256932 0.00079449088932181304 0.082819572066310979 -0.16863074704259634 -0.098343195027137134 -0.18449321664296664 -0.0095625339438508202 0.030810300751265236 -0.025928267167829391 0.012417192142004121 0.037152170264098255 0.094518507398409946 -0.015960093636262124 -0.061078980192780963 0.046983171783056527 -0.017000581323883695 -0.083522880448493583 -0.31160272929160038 -0.12473228389243468 -0.035740965397780537 -0.11580830332261743
leaf_weight=676 4817 298 6645 5183 336 1834 7701 3561 433 2058 504 5726 125 888 130 768 946 252 841 2005 2100 294 999 1549 1725 883 85 218 2524 618
leaf_count=676 4817 298 6645 5183 336 1834 7701 3561 433 2058 504 5726 125 888 130 768 946 252 841 2005 2100 294 999 1549 1725 883 85 218 2524 618
internal_value=0 0.027731 0.0619946 -0.00925223 0.00689459 0.0774679 -0.0813886 0.0102559 -0.0423919 0.0223074 -0.027152 0.066758 -0.0490301 -0.054342 -0.0578317 -0.0548834 0.00969866 -0.0538331 0.0544726 0.0126511 0.113436 -0.077852 -0.0968631 0.0598159 -0.0515572 -0.0615659 -0.109518 -0.0290878 -0.0481247 -0.0897741
internal_weight=0 42307 21961 20346 4815 17146 14415 12807 7539 9246 2930 13212 6863 1686 5715 5585 1244 6430 7486 7188 3934 1182 8700 1885 6305 4362 955 1943 3407 870
internal_count=56722 42307 21961 20346 4815 17146 14415 12807 7539 9246 2930 13212 6863 1686 5715 5585 1244 6430 7486 7188 3934 1182 8700 1885 6305 4362 955 1943 3407 870
is_linear=0
shrinkage=0.05


Tree=31
num_leaves=31
num_cat=0
split_feature=2 0 3 1 0 0 3 1 2 3 3 0 2 0 1 1 3 3 2 1 3 3 3 0 1 2 2 1 2 3
split_gain=46267.2 15632.9 6398 4751.87 3527.02 3026.66 2453.01 2286.3 1369.3 1352.78 1340.05 1323.78 1013.31 1001.64 819.106 758.025 681.713 674.144 620.209 576.491 554.478 551.371 549.027 584.285 603.755 546.116 540.178 531.703 544.05 1015.91
threshold=0.25780508716411077 -0.48524085048031529 -0.39956630189298409 1.5284712010253121 0.30478898675636829 0.74439041832524455 -0.39956630189298409 0.72803533203845128 -0.55262856876012945 -0.68416143585669187 -0.39956630189298409 -0.28410410219038418 -1.8991390330698958 1.8210342315342385 -0.34307185833024828 1.0065232015343131 1.0234093679255554 -1.2533517037841075 -0.17243677644969882 -0.82036619859929816 1.0234093679255554 1.0234093679255554 2.1617899037803872 -0.76009489031010047 -0.18667420195324966 -1.0878784551717746 1.9740905880110342 -0.11300390291954691 -0.29518606784669349 -0.68416143585669187
decision_type=2 2 2 2 2 2 2 2 2 2 2 2 2 2 2 2 2 2 2 2 2 2 2 2 2 2 2 2 2 2
left_child=1 6 7 5 -4 10 12 11 15 18 25 26 -1 16 17 22 -11 -13 -7 -10 -12 -21 23 24 -8 -3 -2 -14 -29 -30
right_child=2 3 4 -5 -6 9 8 -9 19 13 20 14 27 -15 -16 -17 -18 -19 -20 21 -22 -23 -24 -25 -26 -27 -28 28 29 -31
leaf_value=0.06414579812437296 -0.068235241391317744 0.05623341238047417 -0.034395651040719129 -0.043287041468753236 0.064227159757506674 0.059238800066634269 -0.0059918111102663339 -0.092288682659315113 -0.050248060782358495 0.068759272449324463 0.040904990758355422 -0.056421929403964899 -0.022296457699126648 0.11556676686776622 -0.053754568557707799 -0.016225152110844052 0.10162558924502668 0.030854112541685293 -0.0055648037025157627 -0.027120849303832007 0.06771084722510054 0.024889734422947032 0.064024737114908845 0.049869882520238128 0.041685288866823468 -0.015261882862888564 -0.19523733003541482 -0.095564499112231804 -0.10377319652120449 -0.0056937328979618724
leaf_weight=190 3165 343 4775 1082 1119 1940 2328 9337 1234 4927 4980 300 878 2579 1016 1416 2321 843 456 1346 3149 820 770 1092 929 1207 86 990 437 667
leaf_count=190 3165 343 4775 1082 1119 1940 2328 9337 1234 4927 4980 300 878 2579 1016 1416 2321 843 456 1346 3149 820 770 1092 929 1207 86 990 437 667
internal_value=0 0.0341552 -0.0597042 0.0589993 -0.0156717 0.0640525 -0.00944387 -0.0773029 0.00276373 0.0805925 0.0431651 -0.0514392 -0.0478001 0.088806 -0.021089 0.0161528 0.0792839 0.00794701 0.0469056 -0.0229709 0.051289 -0.00743079 0.0251091 0.018219 0.00760721 0.000559334 -0.0715949 -0.0549568 -0.0686511 -0.0445169
internal_weight=0 36081 20641 22984 5894 21902 13097 14747 9935 12223 9679 5410 3162 9827 2159 6535 7248 1143 2396 3400 8129 2166 5119 4349 3257 1550 3251 2972 2094 1104
internal_count=56722 36081 20641 22984 5894 21902 13097 14747 9935 12223 9679 5410 3162 9827 2159 6535 7248 1143 2396 3400 8129 2166 5119 4349 3257 1550 3251 2972 2094 1104
is_linear=0
shrinkage=0.05


Tree=32
num_leaves=31
num_cat=0
split_feature=2 0 3 3 0 1 2 3 0 2 0 2 0 2 3 1 1 0 2 1 2 3 3 1 2 0 3 1 0 0
split_gain=41973 17652.5 6525.35 5225.1 1824.44 1804.68 1726.51 1651.15 1637.99 1416.85 934.723 897.364 783.574 751.951 709.972 668.867 667.413 590.816 571.601 571.205 657.481 551.632 549.328 516.069 495.907 629.514 491.469 472.407 456.366 445.853
threshold=0.78240190617733085 0.17138040558287479 -1.2533517037841075 0.45421909999813953 1.6083867657452586 1.7111063149795864 1.4393168301607264 0.16962396603443161 -0.78266939294174132 -0.92202416935450582 -0.6433308400717308 -2.0854708700957292 1.2208362437108338 -1.2660630900167036 0.45421909999813953 0.43555948736243183 -1.0234733304721724 2.3605936597631132 -1.4156685501966551 -0.59984412999397774 0.52204992925621185 -0.39956630189298409 -0.9687565698203997 0.72803533203845128 -1.6768580925390548 -0.68370044708740296 -1.5379468377478152 -0.67076218597729342 1.1820230654917008 1.751508016637356
decision_type=2 2 2 2 2 2 2 2 2 2 2 2 2 2 2 2 2 2 2 2 2 2 2 2 2 2 2 2 2 2
left_child=1 3 11 5 7 9 16 19 13 24 15 -3 -13 -5 17 -11 -2 -6 -10 -4 -21 28 23 -12 -1 -26 -7 -9 -18 -8
right_child=6 2 4 8 14 26 29 27 18 10 22 12 -14 -15 -16 -17 21 -19 -20 20 -22 -23 -24 -25 25 -27 -28 -29 -30 -31
leaf_value=0.050607839185844307 -0.0021658765030462025 0.05112278672589974 0.053153552476099986 0.028312047451182515 0.073911392063549117 -0.16010894073948323 -0.092943182738874475 0.086281281408376598 0.10651902330416607 -0.052801488399978593 -0.031451842892997489 -0.077376058501306799 0.016423213898239964 -0.011937866713740169 0.1166814768381393 -0.012230321133926095 -0.072798265812331509 0.1521171071038053 0.039290599397844093 0.027208007224826032 -0.063939746490484756 -0.040652612347382162 0.0012526864361948273 -0.17394761363695188 -0.021427694969788594 0.035905194738199135 -0.060337193658275001 0.06063488907857284 0.043421317196212887 0.061586914385886905
leaf_weight=700 513 229 2490 1844 3574 131 6798 3441 341 3508 271 993 287 3130 1884 1430 4743 259 4343 2480 215 2228 2793 83 1188 802 2136 3755 86 47
leaf_count=700 513 229 2490 1844 3574 131 6798 3441 341 3508 271 993 287 3130 1884 1430 4743 259 4343 2480 215 2228 2793 83 1188 802 2136 3755 86 47
internal_value=0 0.0251062 0.0598577 -0.00491033 0.0681868 -0.0255535 -0.0736848 0.0573992 0.0229658 -0.0170222 -0.0274804 -0.0400357 -0.0563445 0.00298389 0.091549 -0.0410524 -0.0572303 0.0791958 0.0441849 0.0358884 0.0199365 -0.0612331 -0.00618441 -0.0648619 0.0144109 0.00167832 -0.0661026 0.0728985 -0.0707285 -0.0918821
internal_weight=0 42307 19607 22700 18098 13042 14415 12381 9658 10775 8085 1509 1280 4974 5717 4938 7570 3833 4684 5185 2695 7057 3147 354 2690 1990 2267 7196 4829 6845
internal_count=56722 42307 19607 22700 18098 13042 14415 12381 9658 10775 8085 1509 1280 4974 5717 4938 7570 3833 4684 5185 2695 7057 3147 354 2690 1990 2267 7196 4829 6845
is_linear=0
shrinkage=0.05


Tree=33
num_leaves=31
num_cat=0
split_feature=2 0 3 1 0 3 0 0 1 3 3 3 0 2 2 3 1 2 1 3 1 2 0 3 2 3 2 0 3 0
split_gain=37890.4 12766.6 5376.12 4244.6 3091.89 2308.24 2202.7 1985.28 1389.09 1235.14 1186.26 1056.15 869.983 853.433 789.803 734.479 733.164 945.206 1123.19 1048.53 870.109 719.901 716.877 823.305 625.668 615.957 579.398 555.852 524.425 523.994
threshold=0.23788201500567077 -0.58960056971300301 -0.39956630189298409 0.52584550897981175 0.30478898675636829 1.0000000180025095e-35 1.1527725543700351 1.1820230654917008 0.17868939769044964 1.0234093679255554 -1.2533517037841075 0.73881423396184742 0.7294026564299978 -1.8991390330698958 -0.22281754082690217 1.8771947698166789 -0.11300390291954691 -0.28512258719422645 0.52584550897981175 -0.68416143585669187 1.7111063149795864 -0.70221543423609056 0.01947775124506337 -0.68416143585669187 -1.1714970254384964 -0.9687565698203997 -1.633340797529238 0.65776390461877365 -1.2533517037841075 -0.67875944970963253
decision_type=2 2 2 2 2 2 2 2 2 2 2 2 2 2 2 2 2 2 2 2 2 2 2 2 2 2 2 2 2 2
left_child=1 5 7 6 -4 13 9 8 -2 21 27 14 -12 -1 -8 26 29 18 24 25 -20 28 -23 -24 -18 -19 -7 -5 -3 -15
right_child=2 3 4 10 -6 15 11 -9 -10 -11 12 -13 -14 16 -16 -17 17 19 20 -21 -22 22 23 -25 -26 -27 -28 -29 -30 -31
