{"learner":{"attributes":{"best_iteration":"49","best_score":"0.13602031631829867"},"feature_names":[],"feature_types":[],"gradient_booster":{"model":{"gbtree_model_param":{"num_parallel_tree":"1","num_trees":"50"},"iteration_indptr":[0,1,2,3,4,5,6,7,8,9,10,11,12,13,14,15,16,17,18,19,20,21,22,23,24,25,26,27,28,29,30,31,32,33,34,35,36,37,38,39,40,41,42,43,44,45,46,47,48,49,50],"tree_info":[0,0,0,0,0,0,0,0,0,0,0,0,0,0,0,0,0,0,0,0,0,0,0,0,0,0,0,0,0,0,0,0,0,0,0,0,0,0,0,0,0,0,0,0,0,0,0,0,0,0],"trees":[{"base_weights":[1.0506979E-9,8.273109E-1,-1.0133618E0,6.1535215E-1,1.1739308E0,-1.1687094E0,-7.787053E-1,8.277109E-1,3.7433425E-1,1.047038E0,1.3467282E0,-1.2075619E0,-9.542137E-1,-8.6208713E-1,-6.195768E-1,7.9259205E-1,1.1333985E0,3.134319E-1,9.270262E-1,9.353134E-1,1.2630291E0,1.2444905E0,1.4664059E0,-1.2330133E0,-9.291838E-1,-1.0246481E0,-8.321005E-1,-9.396347E-1,-7.3640186E-1,-6.9358695E-1,-5.174345E-1,8.923725E-1,6.8122137E-1,1.2111807E0,1.0217643E0,6.2976927E-1,2.6571012E-1,1.1279209E0,8.293093E-1,1.1383319E0,8.312767E-1,1.2228574E0,1.3676828E0,1.1156148E0,1.3155149E0,1.4046116E0,1.5367093E0,-1.1299112E0,-1.2865174E0,-1.0002029E0,-8.3029896E-1,-1.0728427E0,-8.796319E-1,-8.5202605E-1,-5.415334E-1,-1.0043734E0,-8.645699E-1,-7.5574434E-1,-5.247433E-1,-7.205962E-1,-5.8205783E-1,-5.67983E-1,-4.634538E-1,8.649805E-1,1.1101636E0,8.4718055E-1,6.2119776E-1,1.1558156E0,1.3685082E0,9.515339E-1,1.2500877E0,9.185156E-1,5.150418E-1,6.063167E-1,2.3178023E-1,2.4543169E-1,1.0850793E0,7.4993896E-1,1.005232E0,1.0128167E0,1.223018E0,1.0262494E0,6.9404465E-1,1.1884388E0,1.307808E0,2.687151E-1,2.9400602E-1,1.0492675E0,1.2997828E0,1.2831513E0,1.4788814E0,1.3244122E0,1.4428419E0,2.624186E-1,3.0847785E-1,-1.1476921E0,-8.904558E-1,-1.3158864E0,-1.1723142E0,-7.9127365E-1,-1.013313E0,-7.031193E-1,-8.454786E-1,-1.0943893E0,-8.541285E-1,-8.868779E-1,-8.5920446E-2,-8.8063484E-1,-7.104476E-1,-5.8362156E-1,-8.1931464E-2,-1.0243088E0,-8.403208E-1,-8.8853097E-1,-6.886655E-1,-7.826529E-1,-6.7835927E-1,-5.805087E-1,-4.6491945E-1,-7.3463976E-1,-5.3045726E-1,-6.023557E-1,-5.155625E-1,-6.448659E-1,-5.391696E-1,-5.058578E-1,-4.421125E-1,8.512156E-1,1.0970536E0,1.198403E0,9.985793E-1,8.337749E-1,1.1459482E0,5.9145147E-1,1.0045799E0,1.0189857E0,1.1791296E0,2.4278712E-1,2.887042E-1,7.9730916E-1,1.0452732E0,6.3926816E-1,2.5196785E-1,8.786452E-1,2.3434539E-1,3.971952E-1,6.900933E-1,8.972454E-1,5.328764E-1,3.6578977E-1,1.5217084E-1,2.0679794E-1,2.2915414E-1,8.1794053E-1,6.7242664E-1,2.2789411E-1,1.8950312E-1,9.489159E-1,1.1378144E0,1.1578867E0,1.3126866E0,9.7395676E-1,1.1750201E0,6.2414247E-1,1.058802E0,1.1730663E0,2.8194508E-1,1.28538E0,2.8717223E-1,1.1132199E0,8.285244E-1,2.3771773E-1,2.7285132E-1,1.2253265E0,1.3221133E0,2.7656037E-1,3.0742604E-1,1.2439675E0,2.7655584E-1,1.4052432E0,3.0289248E-1,-1.1568168E0,-8.9287126E-1,-9.478051E-1,-8.045562E-1,-1.2897106E0,-2.8038847E-1,-1.1885085E0,-8.878447E-1,-1.8671465E-1,-1.4345524E-1,-1.0842308E0,-9.529287E-1,-6.953088E-2,-7.107655E-1,-8.577602E-1,-1.4705269E-1,-1.0206056E0,-1.1317357E0,-7.3741454E-1,-9.407631E-1,-9.20354E-1,-8.174016E-1,-8.4164715E-1,-9.851187E-1,-4.668531E-1,-7.2251105E-1,-6.388566E-1,-9.86702E-2,-1.0824742E0,-9.732214E-1,-8.734226E-1,-7.7212566E-1,-9.3265074E-1,-8.4756845E-1,-7.3803735E-1,-6.115012E-1,-8.900586E-1,-7.6784575E-1,-6.976916E-1,-4.83546E-1,-1.2912838E-1,-5.3380585E-1,-3.933097E-2,-9.33307E-2,-8.0786407E-1,-7.0388657E-1,-5.8656275E-1,-4.7205883E-1,-6.276672E-1,-5.3834546E-1,-1.2000358E-1,-9.8357014E-2,-7.4620825E-1,-6.152552E-1,-4.5758095E-1,-5.5729526E-1,-5.244761E-1,-4.5029426E-1,-4.69296E-1,-4.2585665E-1,1.7775814E-1,1.5441035E-1,2.4102767E-1,1.9949874E-1,2.2927094E-1,2.6533374E-1,2.1809907E-1,1.7391615E-1,1.7543717E-1,1.503141E-1,2.313625E-1,8.905551E-2,1.14838675E-1,1.955236E-1,2.3511855E-1,1.8458289E-1,2.0656808E-1,6.279315E-2,2.2886203E-1,2.4981785E-1,2.0061739E-1,1.2305813E-1,1.9887595E-1,2.360092E-1,3.0682936E-2,1.4447558E-1,1.8794747E-1,1.641481E-1,9.0163805E-2,3.2516044E-2,1.30194E-1,1.8683247E-1,1.8510726E-1,1.4554136E-1,8.4987916E-2,1.288545E-1,6.786907E-2,1.9924413E-1,2.6007107E-2,6.358047E-2,1.6061944E-1,2.3672226E-1,1.19309925E-1,1.4639787E-1,2.0468266E-1,1.7415093E-1,2.4268197E-1,2.1661125E-1,2.0708703E-1,2.378821E-1,2.6292828E-1,8.354046E-2,1.6941705E-1,2.1001409E-1,2.2340111E-1,2.5127468E-1,1.7875475E-1,1.0968292E-1,2.0158708E-1,2.4898577E-1,2.1895333E-1,2.4029219E-1,2.814187E-1,2.5269282E-1,2.2958302E-1,2.0467103E-1,1.3942562E-1,2.1030663E-1,1.6331464E-1,2.4634285E-1,2.6216397E-1,3.0715504E-1,2.3672049E-1,2.7173144E-1,2.7251336E-1,2.924038E-1,-2.3326528E-1,-1.8952313E-1,-1.8518534E-1,-1.4067958E-1,-1.9381861E-1,-1.4782088E-1,-1.7008002E-1,-1.3909611E-1,-2.593792E-1,-1.9318287E-1,-2.4097314E-1,-1.9580151E-1,-1.8851118E-1,-1.5225695E-1,-1.8204923E-1,-2.2056468E-1,-3.7733544E-2,-1.9077665E-1,-1.44424E-1,-8.477556E-2,-1.7226295E-1,-1.2563169E-1,-2.081816E-1,-1.666051E-1,-2.2895984E-1,-1.6448276E-1,-1.2362733E-1,-1.6143031E-1,-2.0892243E-1,-1.6256623E-1,-1.8574418E-1,-1.3589495E-1,-3.0131713E-2,-1.6392714E-1,-1.7244342E-1,-1.4261964E-1,-2.0414482E-1,-1.6570507E-1,-1.0012658E-1,-3.2971267E-2,-1.478387E-1,-1.0601503E-1,-1.2908879E-1,-3.490149E-2,-2.22736E-1,-1.8452676E-1,-1.7671542E-1,-1.9985841E-1,-1.8022184E-1,-1.5087883E-1,-1.0230749E-1,-1.5692005E-1,-1.9074665E-1,-1.6261403E-1,-1.7250198E-1,-1.4932594E-1,-1.5654375E-1,-1.3142024E-1,-1.3631034E-1,-1.0705956E-1,-1.8405136E-1,-1.4172529E-1,-1.707366E-1,-1.5198545E-1,-1.6781905E-1,-1.3769586E-1,-7.9010405E-2,-1.0305585E-1,-1.4704466E-2,-1.07390046E-1,-1.6689868E-1,-1.3682373E-1,-1.1571672E-1,-1.4323193E-1,-2.424402E-2,-1.17980756E-1,-9.49888E-2,-1.6045965E-2,-8.50296E-2,-1.2780303E-1,-1.0868058E-1,-3.953346E-2,-1.5669018E-1,-1.1198304E-1,-1.2589604E-1,-1.0019735E-1,-1.0083745E-2,-9.18878E-2,-1.1672153E-1,-1.0195949E-1,-1.0510021E-1,-1.9548772E-2,-9.110565E-2,-4.8389606E-2,-9.5089205E-2,-6.423853E-2,-2.041709E-2,-8.547848E-2],"categories":[],"categories_nodes":[],"categories_segments":[],"categories_sizes":[],"default_left":[0,0,0,0,0,0,0,0,0,0,0,0,0,0,0,0,0,0,0,0,0,0,0,0,0,0,0,0,0,0,0,0,0,0,0,0,0,0,0,0,0,0,0,0,0,0,0,0,0,0,0,0,0,0,0,0,0,0,0,0,0,0,0,0,0,0,0,0,0,0,0,0,0,0,0,0,0,0,0,0,0,0,0,0,0,0,0,0,0,0,0,0,0,0,0,0,0,0,0,0,0,0,0,0,0,0,0,0,0,0,0,0,0,0,0,0,0,0,0,0,0,0,0,0,0,0,0,0,0,0,0,0,0,0,0,0,0,0,0,0,0,0,0,0,0,0,0,0,0,0,0,0,0,0,0,0,0,0,0,0,0,0,0,0,0,0,0,0,0,0,0,0,0,0,0,0,0,0,0,0,0,0,0,0,0,0,0,0,0,0,0,0,0,0,0,0,0,0,0,0,0,0,0,0,0,0,0,0,0,0,0,0,0,0,0,0,0,0,0,0,0,0,0,0,0,0,0,0,0,0,0,0,0,0,0,0,0,0,0,0,0,0,0,0,0,0,0,0,0,0,0,0,0,0,0,0,0,0,0,0,0,0,0,0,0,0,0,0,0,0,0,0,0,0,0,0,0,0,0,0,0,0,0,0,0,0,0,0,0,0,0,0,0,0,0,0,0,0,0,0,0,0,0,0,0,0,0,0,0,0,0,0,0,0,0,0,0,0,0,0,0,0,0,0,0,0,0,0,0,0,0,0,0,0,0,0,0,0,0,0,0,0,0,0,0,0,0,0,0,0,0,0,0,0,0,0,0,0,0,0,0,0,0,0,0,0,0,0,0,0,0,0,0,0,0,0,0,0,0,0,0,0,0,0,0,0,0,0,0,0,0,0,0,0,0,0,0,0,0,0,0,0,0,0,0,0,0,0,0,0,0,0,0,0,0],"id":0,"left_children":[1,3,5,7,9,11,13,15,17,19,21,23,25,27,29,31,33,35,37,39,41,43,45,47,49,51,53,55,57,59,61,63,65,67,69,71,73,75,77,79,81,83,85,87,89,91,93,95,97,99,101,103,105,107,109,111,113,115,117,119,121,123,125,127,129,131,133,135,137,139,141,143,145,147,149,-1,151,153,155,157,159,161,163,165,167,-1,-1,169,171,173,175,177,179,-1,-1,181,183,185,187,189,191,193,195,197,199,201,-1,203,205,207,-1,209,211,213,215,217,219,221,223,225,227,229,231,233,235,237,239,241,243,245,247,249,251,253,255,257,259,-1,-1,261,263,265,-1,267,-1,269,271,273,275,277,279,-1,-1,281,283,-1,-1,285,287,289,291,293,295,297,299,301,-1,303,-1,305,307,-1,-1,309,311,-1,-1,313,-1,315,-1,317,319,321,323,325,-1,327,329,-1,-1,331,333,-1,335,337,-1,339,341,343,345,347,349,351,353,355,357,359,-1,361,363,365,367,369,371,373,375,377,379,381,383,-1,385,-1,-1,387,389,391,393,395,397,-1,-1,399,401,403,405,407,409,411,413,-1,-1,-1,-1,-1,-1,-1,-1,-1,-1,-1,-1,-1,-1,-1,-1,-1,-1,-1,-1,-1,-1,-1,-1,-1,-1,-1,-1,-1,-1,-1,-1,-1,-1,-1,-1,-1,-1,-1,-1,-1,-1,-1,-1,-1,-1,-1,-1,-1,-1,-1,-1,-1,-1,-1,-1,-1,-1,-1,-1,-1,-1,-1,-1,-1,-1,-1,-1,-1,-1,-1,-1,-1,-1,-1,-1,-1,-1,-1,-1,-1,-1,-1,-1,-1,-1,-1,-1,-1,-1,-1,-1,-1,-1,-1,-1,-1,-1,-1,-1,-1,-1,-1,-1,-1,-1,-1,-1,-1,-1,-1,-1,-1,-1,-1,-1,-1,-1,-1,-1,-1,-1,-1,-1,-1,-1,-1,-1,-1,-1,-1,-1,-1,-1,-1,-1,-1,-1,-1,-1,-1,-1,-1,-1,-1,-1,-1,-1,-1,-1,-1,-1,-1,-1,-1,-1,-1,-1,-1,-1,-1,-1,-1,-1,-1,-1,-1,-1,-1,-1,-1,-1,-1,-1],"loss_changes":[8.8533055E4,4.270621E3,1.7293047E3,1.8462949E3,4.8229102E2,2.3682422E2,2.503584E2,2.049961E2,5.686013E2,3.0586816E2,1.1241992E2,1.70125E2,3.6854004E1,1.2021484E2,4.8815918E1,1.905957E2,1.5903076E1,2.2967188E2,3.1985474E1,1.762622E2,1.6552246E1,4.4683105E1,1.6503906E1,1.2070703E2,1.3418579E1,1.8457764E1,8.85437E0,3.639453E1,1.9000977E1,1.093396E1,7.205078E0,5.3161133E1,8.0510254E1,8.504883E0,1.1911255E1,6.561554E1,1.5276685E2,9.897461E-1,1.5052368E1,2.894873E1,1.4781274E2,7.6328125E0,9.7094727E-1,2.0605713E1,1.5259277E1,5.1347656E0,5.2685547E-1,3.1226562E1,4.733203E1,2.4193115E0,1.0541992E0,8.862793E0,1.8951416E0,5.4660645E0,3.4926033E-1,1.2583984E1,1.4384766E1,8.50415E0,1.0645523E0,7.70105E0,6.882324E-1,2.77359E0,9.790344E-1,2.4823242E1,8.747925E0,7.687622E0,6.758008E1,1.5516357E0,1.6797485E0,8.26001E0,3.2034302E-1,4.684601E0,2.9225677E1,2.5118195E1,1.2832806E2,0E0,2.4536133E-2,3.582428E0,1.6243286E0,8.105957E0,8.355957E0,1.667871E1,8.2486084E1,5.98999E0,7.277832E-1,0E0,0E0,1.7811035E1,1.7622681E0,4.4990234E0,8.405762E-1,1.8200684E0,2.0322266E0,0E0,0E0,1.53515625E1,1.8385315E0,2.4283203E1,1.2719238E1,1.09573364E-1,3.6901855E0,1.6540527E-2,3.9538574E-1,4.050049E0,1.2375488E0,8.432007E-1,0E0,4.2506104E0,4.2085266E-1,7.373619E-2,0E0,9.825195E0,3.4365845E-1,4.862549E0,1.1906891E0,4.4265137E0,3.9071045E0,2.7285767E-1,3.3950806E-4,5.779541E0,4.1771698E-1,5.710144E-1,6.638718E-2,6.782074E-1,1.2696838E0,2.169342E-1,1.9432068E-1,2.1968262E1,3.6187744E0,2.2110596E0,4.4111023E0,6.724121E0,1.7001343E-1,3.6426758E1,4.906372E0,9.7483826E-1,3.513794E-1,0E0,0E0,8.447006E0,1.4879456E0,9.107232E-2,0E0,9.727478E-1,0E0,1.0708588E1,4.8728943E0,4.7761536E-1,1.1257019E1,7.4416504E1,2.7659622E1,0E0,0E0,1.2911072E0,1.2445679E0,0E0,0E0,3.5749512E0,2.753296E-1,2.5821533E0,6.824951E-1,1.5536499E1,1.3859253E0,5.543628E1,3.6967773E0,3.3691406E0,0E0,2.8137207E-1,0E0,2.02417E0,8.116287E0,0E0,0E0,1.8846436E0,1.8718262E0,0E0,0E0,6.5579224E-1,0E0,4.963379E-1,0E0,1.2422852E1,9.019623E-1,6.654358E-1,4.986725E-1,1.944043E1,0E0,8.504639E0,4.2495728E-1,0E0,0E0,6.135864E-1,2.6068115E-1,0E0,1.1444092E-4,1.0650635E-2,0E0,1.5892944E0,4.0893555E0,2.1642303E-1,5.5918884E-1,2.859497E-1,2.2209167E-1,1.8046265E0,1.0109558E0,7.0488214E-2,3.9148712E-1,2.5011063E-2,0E0,7.466919E0,3.6954346E0,2.9570007E-1,1.0575867E-1,2.9960938E0,1.8188477E0,4.1870117E-1,5.64003E-1,1.4463196E0,1.2755127E0,7.5491333E-1,9.129906E-2,0E0,1.3999176E-1,0E0,0E0,2.1542358E0,2.6505127E0,9.018326E-2,8.5121155E-2,6.384125E-1,1.785965E-1,0E0,0E0,1.2331772E-1,1.7064667E-1,1.22844696E-1,7.510376E-1,8.946228E-2,1.7370224E-2,1.4239502E-1,2.3929596E-1,0E0,0E0,0E0,0E0,0E0,0E0,0E0,0E0,0E0,0E0,0E0,0E0,0E0,0E0,0E0,0E0,0E0,0E0,0E0,0E0,0E0,0E0,0E0,0E0,0E0,0E0,0E0,0E0,0E0,0E0,0E0,0E0,0E0,0E0,0E0,0E0,0E0,0E0,0E0,0E0,0E0,0E0,0E0,0E0,0E0,0E0,0E0,0E0,0E0,0E0,0E0,0E0,0E0,0E0,0E0,0E0,0E0,0E0,0E0,0E0,0E0,0E0,0E0,0E0,0E0,0E0,0E0,0E0,0E0,0E0,0E0,0E0,0E0,0E0,0E0,0E0,0E0,0E0,0E0,0E0,0E0,0E0,0E0,0E0,0E0,0E0,0E0,0E0,0E0,0E0,0E0,0E0,0E0,0E0,0E0,0E0,0E0,0E0,0E0,0E0,0E0,0E0,0E0,0E0,0E0,0E0,0E0,0E0,0E0,0E0,0E0,0E0,0E0,0E0,0E0,0E0,0E0,0E0,0E0,0E0,0E0,0E0,0E0,0E0,0E0,0E0,0E0,0E0,0E0,0E0,0E0,0E0,0E0,0E0,0E0,0E0,0E0,0E0,0E0,0E0,0E0,0E0,0E0,0E0,0E0,0E0,0E0,0E0,0E0,0E0,0E0,0E0,0E0,0E0,0E0,0E0,0E0,0E0,0E0,0E0,0E0,0E0,0E0,0E0,0E0,0E0,0E0,0E0,0E0,0E0,0E0,0E0,0E0,0E0],"parents":[2147483647,0,0,1,1,2,2,3,3,4,4,5,5,6,6,7,7,8,8,9,9,10,10,11,11,12,12,13,13,14,14,15,15,16,16,17,17,18,18,19,19,20,20,21,21,22,22,23,23,24,24,25,25,26,26,27,27,28,28,29,29,30,30,31,31,32,32,33,33,34,34,35,35,36,36,37,37,38,38,39,39,40,40,41,41,42,42,43,43,44,44,45,45,46,46,47,47,48,48,49,49,50,50,51,51,52,52,53,53,54,54,55,55,56,56,57,57,58,58,59,59,60,60,61,61,62,62,63,63,64,64,65,65,66,66,67,67,68,68,69,69,70,70,71,71,72,72,73,73,74,74,76,76,77,77,78,78,79,79,80,80,81,81,82,82,83,83,84,84,87,87,88,88,89,89,90,90,91,91,92,92,95,95,96,96,97,97,98,98,99,99,100,100,101,101,102,102,103,103,104,104,105,105,107,107,108,108,109,109,111,111,112,112,113,113,114,114,115,115,116,116,117,117,118,118,119,119,120,120,121,121,122,122,123,123,124,124,125,125,126,126,127,127,128,128,129,129,130,130,131,131,132,132,133,133,134,134,135,135,136,136,139,139,140,140,141,141,143,143,145,145,146,146,147,147,148,148,149,149,150,150,153,153,154,154,157,157,158,158,159,159,160,160,161,161,162,162,163,163,164,164,165,165,167,167,169,169,170,170,173,173,174,174,177,177,179,179,181,181,182,182,183,183,184,184,185,185,187,187,188,188,191,191,192,192,194,194,195,195,197,197,198,198,199,199,200,200,201,201,202,202,203,203,204,204,205,205,206,206,207,207,209,209,210,210,211,211,212,212,213,213,214,214,215,215,216,216,217,217,218,218,219,219,220,220,222,222,225,225,226,226,227,227,228,228,229,229,230,230,233,233,234,234,235,235,236,236,237,237,238,238,239,239,240,240],"right_children":[2,4,6,8,10,12,14,16,18,20,22,24,26,28,30,32,34,36,38,40,42,44,46,48,50,52,54,56,58,60,62,64,66,68,70,72,74,76,78,80,82,84,86,88,90,92,94,96,98,100,102,104,106,108,110,112,114,116,118,120,122,124,126,128,130,132,134,136,138,140,142,144,146,148,150,-1,152,154,156,158,160,162,164,166,168,-1,-1,170,172,174,176,178,180,-1,-1,182,184,186,188,190,192,194,196,198,200,202,-1,204,206,208,-1,210,212,214,216,218,220,222,224,226,228,230,232,234,236,238,240,242,244,246,248,250,252,254,256,258,260,-1,-1,262,264,266,-1,268,-1,270,272,274,276,278,280,-1,-1,282,284,-1,-1,286,288,290,292,294,296,298,300,302,-1,304,-1,306,308,-1,-1,310,312,-1,-1,314,-1,316,-1,318,320,322,324,326,-1,328,330,-1,-1,332,334,-1,336,338,-1,340,342,344,346,348,350,352,354,356,358,360,-1,362,364,366,368,370,372,374,376,378,380,382,384,-1,386,-1,-1,388,390,392,394,396,398,-1,-1,400,402,404,406,408,410,412,414,-1,-1,-1,-1,-1,-1,-1,-1,-1,-1,-1,-1,-1,-1,-1,-1,-1,-1,-1,-1,-1,-1,-1,-1,-1,-1,-1,-1,-1,-1,-1,-1,-1,-1,-1,-1,-1,-1,-1,-1,-1,-1,-1,-1,-1,-1,-1,-1,-1,-1,-1,-1,-1,-1,-1,-1,-1,-1,-1,-1,-1,-1,-1,-1,-1,-1,-1,-1,-1,-1,-1,-1,-1,-1,-1,-1,-1,-1,-1,-1,-1,-1,-1,-1,-1,-1,-1,-1,-1,-1,-1,-1,-1,-1,-1,-1,-1,-1,-1,-1,-1,-1,-1,-1,-1,-1,-1,-1,-1,-1,-1,-1,-1,-1,-1,-1,-1,-1,-1,-1,-1,-1,-1,-1,-1,-1,-1,-1,-1,-1,-1,-1,-1,-1,-1,-1,-1,-1,-1,-1,-1,-1,-1,-1,-1,-1,-1,-1,-1,-1,-1,-1,-1,-1,-1,-1,-1,-1,-1,-1,-1,-1,-1,-1,-1,-1,-1,-1,-1,-1,-1,-1,-1,-1],"split_conditions":[1E0,4.3E0,3.5E0,9.915512E-4,6.7E0,1E-1,9.2E0,8.4E0,9.9E0,1E1,8.6E0,9.2E0,7.8E0,3E0,7.8E0,9.384014E-4,5.2625634E-4,5.2506826E-4,4.2645514E-4,9.947005E-4,1.23E1,9E-1,8.1E0,9.6824695E-4,4.9E0,4.5E0,1.06E1,6.8E0,1.07E1,1.29E1,7.9E0,7.4E0,3.6560794E-4,4.6E0,9E0,2.9540842E-4,5.1321177E-4,2.0449278E-4,1.07E1,4.1E0,5.142306E-4,1.28E1,1.31E1,1.11E1,1.05E1,1.09E1,3.1E0,4.5E0,2E-1,7.3932594E-4,4.783305E-4,7E0,1.32E1,1.11E1,9.7E0,9.4E0,1.11E1,7.3E0,8.5E0,9.1E0,1.3E1,1.05E1,7.3E0,7.4E0,5.0849974E-4,9.4E0,9.5E0,9.6E0,4E-1,1.05E1,8.9E0,1.13E1,2E-1,2.1127393E-4,9.907823E-4,2.4543169E-1,9.1E0,7.391529E-4,3.8133297E-4,1E1,3.7E0,1.12E1,9.9E0,8.4E0,1.42E1,2.687151E-1,2.9400602E-1,7.391529E-4,9E0,8E-1,6.9E0,1.09E1,9.3E0,2.624186E-1,3.0847785E-1,6.9E0,1.1E1,9.979404E-4,6E0,9.6E0,1.26E1,3.05926E-4,1.47E1,9.461126E-4,6.089515E-4,8E-1,-8.5920446E-2,9.6824695E-4,3.2318235E-4,2.9E0,-8.1931464E-2,6E0,1.13E1,7.2E0,1.1E1,4E0,1.06E1,8.9E0,2.3684152E-4,1E1,7.8E0,1.36E1,1.31E1,7.2E0,3.4419895E-4,1.34E1,6.2E0,5.5234507E-4,4.914278E-4,6.4E0,4.978254E-4,2.6900196E-4,3.1E0,8.8E0,3.6483657E-4,9.5E0,1.2E0,2.4278712E-1,2.887042E-1,8.885771E-4,8.5E0,9.6E0,2.5196785E-1,1.7372066E-4,2.3434539E-1,1E0,1.03E1,1.8992643E-4,5.8E0,1.01E1,7.5E0,2.0679794E-1,2.2915414E-1,9.4E0,1.26E1,2.2789411E-1,1.8950312E-1,8.649103E-4,5.334898E-4,6.1E0,9.786997E-4,5.5E0,1.05E1,5.195064E-4,8.4E0,1E1,2.8194508E-1,1.8603356E-4,2.8717223E-1,5.299881E-4,7.6E0,2.3771773E-1,2.7285132E-1,1E-1,1.04E1,2.7656037E-1,3.0742604E-1,1.2E0,2.7655584E-1,1.22E1,3.0289248E-1,4.2E0,1.15E1,1.05E1,3.1E0,8.4E0,-2.8038847E-1,9.3E0,9.4E0,-1.8671465E-1,-1.4345524E-1,6.155399E-4,3.295231E-4,-6.953088E-2,1.28E1,1.11E1,-1.4705269E-1,1.1E0,9.3E0,6.2523666E-4,1.3E0,1.05E1,2.2179763E-4,9.7E0,7.7E0,2E0,8.5E0,9.805894E-4,-9.86702E-2,9.9E0,3.9082425E-4,1.36E1,3.5263135E-4,1.12E1,1.09E1,1.26E1,5.8E0,1.12E1,3.9E0,3E0,3.899157E-4,-1.2912838E-1,1.1E1,-3.933097E-2,-9.33307E-2,1.11E1,3.1560424E-4,2.4752063E-4,1.43E1,2.817928E-4,1.51E1,-1.2000358E-1,-9.8357014E-2,1.17E1,1.38E1,2.4295298E-4,1.31E1,1.6E1,1.46E1,1.5E1,6.5E0,1.7775814E-1,1.5441035E-1,2.4102767E-1,1.9949874E-1,2.2927094E-1,2.6533374E-1,2.1809907E-1,1.7391615E-1,1.7543717E-1,1.503141E-1,2.313625E-1,8.905551E-2,1.14838675E-1,1.955236E-1,2.3511855E-1,1.8458289E-1,2.0656808E-1,6.279315E-2,2.2886203E-1,2.4981785E-1,2.0061739E-1,1.2305813E-1,1.9887595E-1,2.360092E-1,3.0682936E-2,1.4447558E-1,1.8794747E-1,1.641481E-1,9.0163805E-2,3.2516044E-2,1.30194E-1,1.8683247E-1,1.8510726E-1,1.4554136E-1,8.4987916E-2,1.288545E-1,6.786907E-2,1.9924413E-1,2.6007107E-2,6.358047E-2,1.6061944E-1,2.3672226E-1,1.19309925E-1,1.4639787E-1,2.0468266E-1,1.7415093E-1,2.4268197E-1,2.1661125E-1,2.0708703E-1,2.378821E-1,2.6292828E-1,8.354046E-2,1.6941705E-1,2.1001409E-1,2.2340111E-1,2.5127468E-1,1.7875475E-1,1.0968292E-1,2.0158708E-1,2.4898577E-1,2.1895333E-1,2.4029219E-1,2.814187E-1,2.5269282E-1,2.2958302E-1,2.0467103E-1,1.3942562E-1,2.1030663E-1,1.6331464E-1,2.4634285E-1,2.6216397E-1,3.0715504E-1,2.3672049E-1,2.7173144E-1,2.7251336E-1,2.924038E-1,-2.3326528E-1,-1.8952313E-1,-1.8518534E-1,-1.4067958E-1,-1.9381861E-1,-1.4782088E-1,-1.7008002E-1,-1.3909611E-1,-2.593792E-1,-1.9318287E-1,-2.4097314E-1,-1.9580151E-1,-1.8851118E-1,-1.5225695E-1,-1.8204923E-1,-2.2056468E-1,-3.7733544E-2,-1.9077665E-1,-1.44424E-1,-8.477556E-2,-1.7226295E-1,-1.2563169E-1,-2.081816E-1,-1.666051E-1,-2.2895984E-1,-1.6448276E-1,-1.2362733E-1,-1.6143031E-1,-2.0892243E-1,-1.6256623E-1,-1.8574418E-1,-1.3589495E-1,-3.0131713E-2,-1.6392714E-1,-1.7244342E-1,-1.4261964E-1,-2.0414482E-1,-1.6570507E-1,-1.0012658E-1,-3.2971267E-2,-1.478387E-1,-1.0601503E-1,-1.2908879E-1,-3.490149E-2,-2.22736E-1,-1.8452676E-1,-1.7671542E-1,-1.9985841E-1,-1.8022184E-1,-1.5087883E-1,-1.0230749E-1,-1.5692005E-1,-1.9074665E-1,-1.6261403E-1,-1.7250198E-1,-1.4932594E-1,-1.5654375E-1,-1.3142024E-1,-1.3631034E-1,-1.0705956E-1,-1.8405136E-1,-1.4172529E-1,-1.707366E-1,-1.5198545E-1,-1.6781905E-1,-1.3769586E-1,-7.9010405E-2,-1.0305585E-1,-1.4704466E-2,-1.07390046E-1,-1.6689868E-1,-1.3682373E-1,-1.1571672E-1,-1.4323193E-1,-2.424402E-2,-1.17980756E-1,-9.49888E-2,-1.6045965E-2,-8.50296E-2,-1.2780303E-1,-1.0868058E-1,-3.953346E-2,-1.5669018E-1,-1.1198304E-1,-1.2589604E-1,-1.0019735E-1,-1.0083745E-2,-9.18878E-2,-1.1672153E-1,-1.0195949E-1,-1.0510021E-1,-1.9548772E-2,-9.110565E-2,-4.8389606E-2,-9.5089205E-2,-6.423853E-2,-2.041709E-2,-8.547848E-2],"split_indices":[30,2,2,15,5,5,1,5,0,1,3,0,5,7,5,18,15,11,10,17,3,7,7,16,1,7,9,3,5,3,7,7,13,8,0,11,10,10,1,4,12,2,4,5,5,2,1,8,1,19,13,1,9,4,1,0,4,9,9,8,4,0,8,3,17,3,0,5,3,5,5,1,1,10,12,0,1,10,11,2,9,2,0,8,1,0,0,12,1,9,8,5,6,0,0,7,8,10,4,0,0,18,0,18,12,1,0,16,12,0,0,1,2,0,5,4,2,7,19,0,9,0,3,3,13,7,9,16,13,4,16,13,2,6,10,5,1,0,0,18,6,0,0,11,0,22,1,10,0,3,0,0,0,3,0,0,0,19,12,3,15,3,0,13,4,0,0,12,0,12,0,0,0,6,9,0,0,9,0,4,0,9,1,1,6,4,0,1,3,0,0,13,12,0,0,3,0,2,4,17,4,3,13,1,0,3,8,19,0,2,12,0,18,2,3,3,0,2,0,3,16,0,5,0,0,4,11,10,0,13,1,0,0,4,4,12,5,0,1,5,9,0,0,0,0,0,0,0,0,0,0,0,0,0,0,0,0,0,0,0,0,0,0,0,0,0,0,0,0,0,0,0,0,0,0,0,0,0,0,0,0,0,0,0,0,0,0,0,0,0,0,0,0,0,0,0,0,0,0,0,0,0,0,0,0,0,0,0,0,0,0,0,0,0,0,0,0,0,0,0,0,0,0,0,0,0,0,0,0,0,0,0,0,0,0,0,0,0,0,0,0,0,0,0,0,0,0,0,0,0,0,0,0,0,0,0,0,0,0,0,0,0,0,0,0,0,0,0,0,0,0,0,0,0,0,0,0,0,0,0,0,0,0,0,0,0,0,0,0,0,0,0,0,0,0,0,0,0,0,0,0,0,0,0,0,0,0,0,0,0,0,0,0,0,0],"split_type":[0,0,0,0,0,0,0,0,0,0,0,0,0,0,0,0,0,0,0,0,0,0,0,0,0,0,0,0,0,0,0,0,0,0,0,0,0,0,0,0,0,0,0,0,0,0,0,0,0,0,0,0,0,0,0,0,0,0,0,0,0,0,0,0,0,0,0,0,0,0,0,0,0,0,0,0,0,0,0,0,0,0,0,0,0,0,0,0,0,0,0,0,0,0,0,0,0,0,0,0,0,0,0,0,0,0,0,0,0,0,0,0,0,0,0,0,0,0,0,0,0,0,0,0,0,0,0,0,0,0,0,0,0,0,0,0,0,0,0,0,0,0,0,0,0,0,0,0,0,0,0,0,0,0,0,0,0,0,0,0,0,0,0,0,0,0,0,0,0,0,0,0,0,0,0,0,0,0,0,0,0,0,0,0,0,0,0,0,0,0,0,0,0,0,0,0,0,0,0,0,0,0,0,0,0,0,0,0,0,0,0,0,0,0,0,0,0,0,0,0,0,0,0,0,0,0,0,0,0,0,0,0,0,0,0,0,0,0,0,0,0,0,0,0,0,0,0,0,0,0,0,0,0,0,0,0,0,0,0,0,0,0,0,0,0,0,0,0,0,0,0,0,0,0,0,0,0,0,0,0,0,0,0,0,0,0,0,0,0,0,0,0,0,0,0,0,0,0,0,0,0,0,0,0,0,0,0,0,0,0,0,0,0,0,0,0,0,0,0,0,0,0,0,0,0,0,0,0,0,0,0,0,0,0,0,0,0,0,0,0,0,0,0,0,0,0,0,0,0,0,0,0,0,0,0,0,0,0,0,0,0,0,0,0,0,0,0,0,0,0,0,0,0,0,0,0,0,0,0,0,0,0,0,0,0,0,0,0,0,0,0,0,0,0,0,0,0,0,0,0,0,0,0,0,0,0,0,0,0,0,0,0,0,0,0],"sum_hessian":[1.056E5,5.8137E4,4.7463E4,3.6078E4,2.2059E4,2.8555E4,1.8908E4,1.9178E4,1.69E4,1.2723E4,9.336E3,2.4172E4,4.383E3,1.2404E4,6.504E3,1.7205E4,1.973E3,1.5224E4,1.676E3,8.389E3,4.334E3,5.041E3,4.295E3,2.2144E4,2.028E3,2.775E3,1.608E3,7.667E3,4.737E3,3.768E3,2.736E3,9.071E3,8.134E3,1.157E3,8.16E2,1.994E3,1.323E4,5.45E2,1.131E3,2.839E3,5.55E3,3.141E3,1.193E3,1.797E3,3.244E3,2.297E3,1.998E3,7.573E3,1.4571E4,1.175E3,8.53E2,2.078E3,6.97E2,1.503E3,1.05E2,4.11E3,3.557E3,4.338E3,3.99E2,3.029E3,7.39E2,1.408E3,1.328E3,8.062E3,1.009E3,2.157E3,5.977E3,8.62E2,2.95E2,6.28E2,1.88E2,5.65E2,1.429E3,1.197E3,1.2033E4,1.56E2,3.89E2,7.83E2,3.48E2,1.149E3,1.69E3,2.29E3,3.26E3,2.246E3,8.95E2,9.77E2,2.16E2,1.326E3,4.71E2,2.715E3,5.29E2,7.53E2,1.544E3,5.5E1,1.943E3,7.046E3,5.27E2,1.1582E4,2.989E3,7.3E1,1.102E3,9.6E1,7.57E2,1.888E3,1.9E2,6.85E2,1.2E1,1.246E3,2.57E2,7.7E1,2.8E1,3.66E3,4.5E2,3.127E3,4.3E2,3.212E3,1.126E3,2.02E2,1.97E2,2.818E3,2.11E2,5.6E2,1.79E2,3.78E2,1.03E3,4.37E2,8.91E2,7.615E3,4.47E2,5.58E2,4.51E2,2.068E3,8.9E1,5.549E3,4.28E2,1.32E2,7.3E2,1.02E2,1.93E2,2.41E2,3.87E2,4E0,1.84E2,4.92E2,7.3E1,8.56E2,5.73E2,2.39E2,9.58E2,4.483E3,7.55E3,2.21E2,1.68E2,4.12E2,3.71E2,9.9E1,2.49E2,7.66E2,3.83E2,9.87E2,7.03E2,1.7E3,5.9E2,2.738E3,5.22E2,2.106E3,1.4E2,7.71E2,1.24E2,1.025E3,3.01E2,1.8E2,2.91E2,1.106E3,1.609E3,2.09E2,3.2E2,3.26E2,4.27E2,1.026E3,5.18E2,6.799E3,2.47E2,3.1E2,2.17E2,8.893E3,2.689E3,2.825E3,1.64E2,2.1E1,5.2E1,4.99E2,6.03E2,3E0,9.3E1,6.75E2,8.2E1,6.44E2,1.244E3,8.5E1,1.05E2,4.54E2,2.31E2,9.14E2,3.32E2,1.4E1,2.43E2,4.4E1,3.3E1,1.702E3,1.958E3,2.95E2,1.55E2,1.495E3,1.632E3,2.57E2,1.73E2,3.82E2,2.83E3,1.022E3,1.04E2,7.9E1,1.23E2,2E0,1.95E2,8.26E2,1.992E3,1.03E2,1.08E2,3.95E2,1.65E2,3.4E1,1.45E2,8E1,2.98E2,1.92E2,8.38E2,3.21E2,1.16E2,3.23E2,5.68E2,5.157E3,2.458E3,2.09E2,2.38E2,4.04E2,1.54E2,2.59E2,1.92E2,1.347E3,7.21E2,8.7E1,2E0,5.314E3,2.35E2,1.34E2,2.94E2,1.29E2,3E0,4.99E2,2.31E2,1.11E2,1.3E2,2.87E2,1E2,1E0,3E0,2.32E2,2.6E2,6.96E2,1.6E2,4.97E2,7.6E1,2.01E2,3.8E1,4.89E2,4.69E2,4.304E3,1.79E2,6.662E3,8.88E2,3.99E2,1.3E1,1.68E2,2.03E2,3.86E2,3.8E2,1.52E2,2.31E2,2.09E2,7.78E2,7.01E2,2E0,6.42E2,1.058E3,3.53E2,2.37E2,5.98E2,2.14E3,4.15E2,1.07E2,5.71E2,1.535E3,1.08E2,6.63E2,7.31E2,2.94E2,1.92E2,1.09E2,1.9E1,1.087E3,1.535E3,7.4E1,2.21E2,1.05E2,6E2,4.26E2,6.499E3,3E2,2.07E2,4E1,2.78E2,3.2E1,1.48E2,6.9E1,8.697E3,1.96E2,2.616E3,2.09E2,1.1E2,5.4E1,5.3E1,4.46E2,1E0,6.02E2,8.8E1,5E0,6.62E2,1.3E1,5.77E2,6.7E1,1.191E3,5.3E1,3.5E1,5E1,5.4E1,5.1E1,4.36E2,1.8E1,1E0,2.3E2,7.83E2,1.31E2,2.66E2,6.6E1,1.2E1,2E0,2.21E2,2.2E1,4.3E1,1E0,1.419E3,2.83E2,4.49E2,1.509E3,2.34E2,6.1E1,9E0,1.46E2,1.265E3,2.3E2,1.415E3,2.17E2,1.6E2,9.7E1,8.6E1,8.7E1,3.24E2,5.8E1,2.3E2,2.6E3,5.7E1,9.65E2,3.1E1,7.3E1,1E0,1.22E2,6.75E2,1.51E2,1.82E2,1.81E3,1E0,1.02E2,1.07E2,1E0,2.3E1,3.72E2,1.62E2,3E0,6.4E1,1.6E1,2.61E2,3.7E1,1E0,1.91E2,5.32E2,3.06E2,3.2E2,1E0,1.12E2,4E0,3.08E2,1.5E1,3E0,5.65E2],"tree_param":{"num_deleted":"0","num_feature":"31","num_nodes":"415","size_leaf_vector":"1"}},{"base_weights":[4.469976E-5,6.621862E-1,-8.1100327E-1,5.023648E-1,9.657428E-1,-9.3273467E-1,-6.192492E-1,6.889971E-1,3.6448258E-1,8.786766E-1,1.1120126E0,-9.66737E-1,-7.614414E-1,-6.857095E-1,-4.9530664E-1,6.636459E-1,9.706696E-1,2.8985903E-1,8.0368745E-1,7.7023184E-1,1.0114379E0,1.0347046E0,1.1973984E0,-9.876172E-1,-7.42841E-1,-7.9880655E-1,-6.096577E-1,-7.5878304E-1,-6.02963E-1,-5.4438597E-1,-3.9459094E-1,7.293022E-1,5.920593E-1,9.478822E-1,1.2231215E0,5.611625E-1,2.4049726E-1,6.822204E-1,9.2449707E-1,8.8934416E-1,6.5654397E-1,8.091516E-1,1.0441049E0,1.0063064E0,2.3015301E-1,1.1515467E0,2.511058E-1,-9.01829E-1,-1.0380973E0,-7.926857E-1,-6.7386156E-1,-8.421053E-1,-6.514901E-1,-6.4347595E-1,-4.438402E-1,-7.823404E-1,-6.1481607E-1,-6.1962384E-1,-4.3262032E-1,-5.815722E-1,-4.7951832E-1,-4.2706808E-1,-3.589702E-1,7.1366173E-1,9.8292196E-1,5.7053083E-1,8.700892E-1,9.1939527E-1,2.1191405E-1,9.2713825E-2,2.4663484E-1,4.417758E-1,7.1822846E-1,5.287058E-1,2.0806831E-1,8.515964E-1,5.53736E-1,8.4226054E-1,9.8123306E-1,8.3880836E-1,9.9513006E-1,6.0131574E-1,8.67021E-1,6.9170946E-1,9.340451E-1,1.0257864E0,2.4905792E-1,9.70498E-1,1.0879846E0,1.0947343E0,1.1920856E0,-9.16143E-1,-7.1116555E-1,-1.0631022E0,-9.398362E-1,-8.0615085E-1,-5.7449985E-1,-6.8178934E-1,-5.2306867E-1,-8.7053597E-1,-6.8081206E-1,-6.91343E-1,-5.7510346E-1,-6.6313344E-1,-5.1302034E-1,-4.9395105E-1,-6.572515E-2,-8.241993E-1,-7.3481846E-1,-6.364617E-1,-5.041097E-1,-6.68171E-1,-5.7878363E-1,-4.83171E-1,-3.705681E-1,-6.076667E-1,-4.907782E-1,-5.031809E-1,-4.1887555E-1,-4.7475204E-1,-4.0224913E-1,-3.7351435E-1,-3.2890877E-1,6.9907993E-1,9.062857E-1,9.4358814E-1,2.3193483E-1,6.51149E-1,4.9085677E-1,1.8784522E-1,7.786486E-1,8.7593865E-1,1.9757298E-1,6.34805E-1,3.6322734E-1,6.763524E-1,8.835122E-1,4.0819883E-1,6.776309E-1,4.763001E-1,1.8050025E-1,9.4733137E-1,7.711243E-1,4.8431668E-1,6.166874E-1,1.9092084E-1,7.917188E-1,2.4267554E-1,9.689697E-1,7.4303424E-1,8.9162016E-1,9.4390184E-1,1.0611206E0,4.8140103E-1,7.2853136E-1,8.134008E-1,9.7030103E-1,8.62088E-1,5.456252E-1,8.4540075E-1,2.0159447E-1,1.0143453E0,2.3493584E-1,9.21195E-1,1.0146966E0,2.1219146E-1,2.314943E-1,1.0339428E0,1.1389915E0,2.0836453E-1,2.4010856E-1,-9.327457E-1,-7.9115963E-1,-7.263468E-1,-4.888197E-1,-1.0733807E0,-9.33069E-1,-9.516289E-1,-7.6867324E-1,-8.4545106E-1,-7.5281966E-1,-5.852936E-1,-2.419844E-1,-1.0494123E-1,-6.8826693E-1,-1.064018E-1,-4.232555E-2,-8.854731E-1,-6.3764375E-1,-5.323517E-1,-7.039881E-1,-7.053913E-1,-5.014592E-1,-2.2064044E-1,-5.862578E-1,-7.217417E-1,-6.1946154E-1,-5.4072684E-1,-7.281513E-2,-5.2922606E-1,-6.069222E-2,-7.657709E-1,-8.5766095E-1,-7.012836E-1,-7.9700965E-1,-5.7739305E-1,-6.7211103E-1,-2.5591698E-1,-5.1432645E-1,-7.0846254E-1,-6.359075E-1,-5.870591E-1,-3.9286083E-1,-1.08486965E-1,-4.4990742E-1,-3.3923453E-1,-7.915645E-2,-6.3052565E-1,-5.443815E-1,-5.39457E-1,-4.4777152E-1,-5.1260597E-1,-3.9096308E-1,-4.415214E-1,-3.7203017E-1,-5.0657207E-1,-4.1925436E-1,-4.36857E-1,-3.7708816E-1,-3.7575957E-1,-1.3906705E-1,-2.551838E-1,-3.3602557E-1,1.368809E-1,1.6640429E-1,1.961349E-1,1.6436432E-1,1.7872737E-1,2.1022432E-1,1.5228526E-1,1.23083286E-1,1.2297981E-1,8.99453E-2,1.4217713E-1,1.7377667E-1,1.6818793E-1,1.9717166E-1,1.3674791E-1,1.0903889E-1,1.1609533E-1,6.528061E-2,1.496477E-1,1.1735002E-1,1.833506E-1,1.5176284E-1,1.14929914E-1,7.037049E-2,1.5415624E-1,1.1243906E-1,1.5300594E-1,8.377073E-2,5.2999485E-2,2.3722533E-2,2.2043507E-1,1.8201451E-1,1.4949815E-1,1.8836658E-1,1.5321055E-1,8.998652E-2,1.3497408E-1,1.1832484E-1,1.8747048E-1,1.5092967E-1,1.8569522E-1,2.059089E-1,1.3180076E-1,1.5929775E-1,1.5276073E-1,1.8106411E-1,1.8269561E-1,2.080191E-1,1.9977987E-1,2.2170053E-1,1.4481507E-1,8.3128974E-2,1.7042322E-1,1.2717976E-1,1.5130818E-1,1.7882577E-1,2.0300595E-1,1.747276E-1,1.5502973E-1,1.9166374E-1,8.918484E-2,1.555094E-1,1.9488792E-1,1.5637209E-1,1.8974511E-1,2.088559E-1,1.6650477E-1,1.9033127E-1,1.9603227E-1,2.1475469E-1,2.0254758E-1,2.4224341E-1,1.11260846E-1,2.283001E-1,-1.8802665E-1,-1.4214812E-1,-1.6245256E-1,-1.1734506E-1,-1.5448402E-1,-1.3383408E-1,-4.205663E-2,-1.027854E-1,-2.1515079E-1,-1.443755E-1,-1.9358437E-1,-1.4587133E-1,-1.9328825E-1,-1.6621469E-1,-1.296402E-1,-1.7695327E-1,-1.7256327E-1,-1.2826979E-1,-1.3435958E-1,-1.5545212E-1,-7.4964374E-2,-1.2128115E-1,-5.529169E-2,-1.3856229E-2,-1.385696E-1,-9.535953E-2,-1.799141E-1,-1.4041202E-1,-3.6068905E-2,-1.2908633E-1,-1.1207517E-1,-3.2676887E-2,-1.5173094E-1,-1.3308018E-1,-1.1789868E-1,-1.439962E-1,-1.01991475E-1,-1.4453508E-2,-8.072599E-2,-2.0313127E-2,-1.2061725E-1,-9.619137E-2,-1.4659953E-1,-9.013962E-2,-1.2804072E-1,-9.973508E-2,-2.4222014E-2,-1.0882379E-1,-1.1714262E-1,-9.307937E-2,-1.3006338E-1,-1.5489754E-1,-1.4170885E-1,-1.7540275E-1,-1.4221387E-1,-1.1683371E-1,-1.638339E-1,-1.3374938E-1,-8.795302E-2,-1.1786535E-1,-1.4863445E-1,-1.252062E-1,-6.902718E-3,-6.479317E-2,-1.1635362E-1,-9.383013E-2,-1.4346482E-1,-1.0951759E-1,-1.27881E-1,-8.6195536E-2,-1.206637E-1,-1.10091746E-1,-1.0676014E-1,-7.199844E-2,-7.468471E-3,-9.03961E-2,-6.826488E-2,-1.1144008E-2,-1.2850116E-1,-1.0360354E-1,-1.1117132E-1,-8.662085E-2,-6.55505E-2,-1.0967405E-1,-8.4805086E-2,-1.09829E-1,-8.762068E-2,-1.05407216E-1,-7.94487E-2,-1.4445822E-2,-7.062222E-2,-9.100901E-2,-2.8700957E-2,-7.482133E-2,-1.14541054E-1,-9.555965E-2,-9.075372E-3,-8.432016E-2,-7.265271E-2,-9.036683E-2,-6.485973E-2,-7.938908E-2,-6.357851E-2,-7.686403E-2,-4.5622416E-2,1.7075736E-2,-5.5491604E-2,-2.0998888E-2,-7.0509515E-3,-6.737922E-2],"categories":[],"categories_nodes":[],"categories_segments":[],"categories_sizes":[],"default_left":[0,0,0,0,0,0,0,0,0,0,0,0,0,0,0,0,0,0,0,0,0,0,0,0,0,0,0,0,0,0,0,0,0,0,0,0,0,0,0,0,0,0,0,0,0,0,0,0,0,0,0,0,0,0,0,0,0,0,0,0,0,0,0,0,0,0,0,0,0,0,0,0,0,0,0,0,0,0,0,0,0,0,0,0,0,0,0,0,0,0,0,0,0,0,0,0,0,0,0,0,0,0,0,0,0,0,0,0,0,0,0,0,0,0,0,0,0,0,0,0,0,0,0,0,0,0,0,0,0,0,0,0,0,0,0,0,0,0,0,0,0,0,0,0,0,0,0,0,0,0,0,0,0,0,0,0,0,0,0,0,0,0,0,0,0,0,0,0,0,0,0,0,0,0,0,0,0,0,0,0,0,0,0,0,0,0,0,0,0,0,0,0,0,0,0,0,0,0,0,0,0,0,0,0,0,0,0,0,0,0,0,0,0,0,0,0,0,0,0,0,0,0,0,0,0,0,0,0,0,0,0,0,0,0,0,0,0,0,0,0,0,0,0,0,0,0,0,0,0,0,0,0,0,0,0,0,0,0,0,0,0,0,0,0,0,0,0,0,0,0,0,0,0,0,0,0,0,0,0,0,0,0,0,0,0,0,0,0,0,0,0,0,0,0,0,0,0,0,0,0,0,0,0,0,0,0,0,0,0,0,0,0,0,0,0,0,0,0,0,0,0,0,0,0,0,0,0,0,0,0,0,0,0,0,0,0,0,0,0,0,0,0,0,0,0,0,0,0,0,0,0,0,0,0,0,0,0,0,0,0,0,0,0,0,0,0,0,0,0,0,0,0,0,0,0,0,0,0,0,0,0,0,0,0,0,0,0,0,0,0,0,0,0,0,0,0,0,0,0,0,0,0,0,0,0,0,0,0,0,0,0,0,0,0,0,0,0],"id":1,"left_children":[1,3,5,7,9,11,13,15,17,19,21,23,25,27,29,31,33,35,37,39,41,43,45,47,49,51,53,55,57,59,61,63,65,67,69,71,73,75,77,79,81,83,85,87,-1,89,-1,91,93,95,97,99,101,103,105,107,109,111,113,115,117,119,121,123,125,127,129,131,-1,-1,-1,133,135,137,139,141,143,145,147,149,151,153,155,157,159,161,-1,163,165,167,169,171,173,175,177,179,181,183,185,187,189,191,193,195,197,199,-1,201,203,205,207,209,211,213,215,217,219,221,223,225,227,229,231,233,235,237,-1,239,241,-1,243,245,-1,247,249,251,253,255,257,259,261,263,265,267,269,-1,271,-1,273,275,277,279,281,283,285,287,289,291,293,295,-1,297,-1,299,301,-1,-1,303,305,-1,-1,307,309,311,313,315,317,319,321,323,325,327,329,-1,331,-1,-1,333,335,337,339,341,343,345,347,349,351,353,-1,355,-1,357,359,361,363,365,367,369,371,373,375,377,379,-1,381,383,-1,385,387,389,391,393,395,397,399,401,403,405,407,409,411,413,415,-1,-1,-1,-1,-1,-1,-1,-1,-1,-1,-1,-1,-1,-1,-1,-1,-1,-1,-1,-1,-1,-1,-1,-1,-1,-1,-1,-1,-1,-1,-1,-1,-1,-1,-1,-1,-1,-1,-1,-1,-1,-1,-1,-1,-1,-1,-1,-1,-1,-1,-1,-1,-1,-1,-1,-1,-1,-1,-1,-1,-1,-1,-1,-1,-1,-1,-1,-1,-1,-1,-1,-1,-1,-1,-1,-1,-1,-1,-1,-1,-1,-1,-1,-1,-1,-1,-1,-1,-1,-1,-1,-1,-1,-1,-1,-1,-1,-1,-1,-1,-1,-1,-1,-1,-1,-1,-1,-1,-1,-1,-1,-1,-1,-1,-1,-1,-1,-1,-1,-1,-1,-1,-1,-1,-1,-1,-1,-1,-1,-1,-1,-1,-1,-1,-1,-1,-1,-1,-1,-1,-1,-1,-1,-1,-1,-1,-1,-1,-1,-1,-1,-1,-1,-1,-1,-1,-1,-1,-1,-1,-1,-1,-1,-1,-1,-1,-1,-1,-1,-1,-1,-1,-1,-1,-1,-1,-1,-1,-1,-1,-1,-1,-1,-1],"loss_changes":[5.671129E4,2.8200703E3,1.1073516E3,9.798779E2,2.54375E2,1.6834961E2,1.5150537E2,1.1490723E2,7.177693E2,1.8025195E2,4.8123047E1,1.1248828E2,2.680957E1,7.2083496E1,3.1608643E1,6.936035E1,6.5148926E0,2.5065735E2,4.6048584E1,9.3191895E1,3.649121E1,1.180127E1,8.008789E0,9.498828E1,6.58313E0,2.4066406E1,5.0696716E0,2.1112305E1,1.5713013E1,1.015625E1,2.2911377E0,3.0004883E1,4.205493E1,2.9328613E0,2.4534607E-1,5.3724792E1,1.4799146E2,3.413031E1,6.6014404E0,1.7229248E1,4.070996E1,1.0941406E1,1.6637695E1,8.206787E0,0E0,3.289795E0,0E0,2.1763184E1,3.3246094E1,3.050537E0,6.893921E-1,1.3068115E1,2.2843628E0,1.6882629E0,7.903023E-1,1.02717285E1,1.835846E0,9.778442E0,1.4050217E0,6.2053223E0,2.0593262E0,1.1108398E0,3.2048035E-1,1.9856934E1,2.0134277E0,4.207959E1,2.4865723E0,2.0684814E0,0E0,0E0,0E0,2.4635345E1,8.005798E0,2.8473724E1,1.0525055E2,4.5390625E0,3.6649475E0,2.974701E0,1.4889526E0,1.0935547E1,2.6730957E0,4.2561646E1,3.281128E0,9.759262E0,1.638092E0,6.407715E0,0E0,3.8833008E0,5.6933594E-1,1.0904541E0,2.1447754E-1,1.5106934E1,1.5960083E0,1.3837891E1,4.992676E0,1.7193604E0,1.2037277E-1,4.8135376E-1,2.1062851E-2,8.233032E0,1.177002E0,1.1774292E0,1.0884247E0,1.3036194E0,2.4881935E-1,5.987072E-1,0E0,5.0109863E0,4.8009033E0,1.189148E0,2.5380707E-1,2.5861816E0,4.0650635E0,2.9807281E-1,4.8238754E-2,2.7352295E0,1.0522308E0,9.979248E-1,3.131256E-1,4.4277954E-1,4.70932E-1,3.0358124E-1,9.2121124E-2,1.2669678E1,2.398468E0,1.0534973E0,0E0,1.2448242E1,1.668219E1,0E0,7.5808716E-1,1.5253601E0,0E0,1.7013397E0,9.154587E0,5.976349E0,3.3233643E-1,8.1262665E0,7.2549744E0,2.168985E1,6.7526245E1,7.7389526E-1,8.1695557E-1,3.8789597E0,2.8904724E-1,0E0,1.7706299E0,0E0,1.2369385E0,3.1628723E0,1.8879395E0,8.673096E-1,2.694702E-1,2.285315E1,1.5061707E1,1.5727539E0,1.7684937E-1,8.3000183E-1,4.8327866E0,7.057724E-1,0E0,7.161133E0,0E0,2.0599365E0,1.3060303E0,0E0,0E0,1.4920044E-1,6.378174E-2,0E0,0E0,1.037793E1,3.414856E0,9.029846E-1,1.7166233E-1,7.801758E0,5.123169E0,3.927002E0,2.0558624E0,1.7114258E0,4.4021606E-1,8.375168E-2,4.661754E-3,0E0,4.3692017E-1,0E0,0E0,5.506836E0,4.3917847E-1,5.805454E-1,3.115387E-1,4.751587E-1,1.1998367E-1,1.9868886E-1,2.3800659E-1,5.421753E-1,6.803894E-1,6.0783386E-2,0E0,6.633186E-2,0E0,5.6811523E-1,4.6740723E0,1.5077515E0,1.9903564E0,2.1548462E-1,1.0442963E0,1.09348714E-1,1.688385E-1,1.0756226E0,6.612549E-1,1.2573853E0,3.729992E-1,0E0,1.387825E-1,4.6156883E-2,0E0,1.7657471E0,4.8965454E-1,3.5806274E-1,5.7115936E-1,8.8934326E-1,1.5547085E-1,1.9561386E-1,1.8917084E-2,1.659317E-1,1.04566574E-1,1.6762924E-1,3.2202148E-1,2.0922852E-1,1.793621E-1,8.461046E-2,6.8244934E-2,0E0,0E0,0E0,0E0,0E0,0E0,0E0,0E0,0E0,0E0,0E0,0E0,0E0,0E0,0E0,0E0,0E0,0E0,0E0,0E0,0E0,0E0,0E0,0E0,0E0,0E0,0E0,0E0,0E0,0E0,0E0,0E0,0E0,0E0,0E0,0E0,0E0,0E0,0E0,0E0,0E0,0E0,0E0,0E0,0E0,0E0,0E0,0E0,0E0,0E0,0E0,0E0,0E0,0E0,0E0,0E0,0E0,0E0,0E0,0E0,0E0,0E0,0E0,0E0,0E0,0E0,0E0,0E0,0E0,0E0,0E0,0E0,0E0,0E0,0E0,0E0,0E0,0E0,0E0,0E0,0E0,0E0,0E0,0E0,0E0,0E0,0E0,0E0,0E0,0E0,0E0,0E0,0E0,0E0,0E0,0E0,0E0,0E0,0E0,0E0,0E0,0E0,0E0,0E0,0E0,0E0,0E0,0E0,0E0,0E0,0E0,0E0,0E0,0E0,0E0,0E0,0E0,0E0,0E0,0E0,0E0,0E0,0E0,0E0,0E0,0E0,0E0,0E0,0E0,0E0,0E0,0E0,0E0,0E0,0E0,0E0,0E0,0E0,0E0,0E0,0E0,0E0,0E0,0E0,0E0,0E0,0E0,0E0,0E0,0E0,0E0,0E0,0E0,0E0,0E0,0E0,0E0,0E0,0E0,0E0,0E0,0E0,0E0,0E0,0E0,0E0,0E0,0E0,0E0,0E0,0E0,0E0,0E0,0E0,0E0,0E0,0E0,0E0,0E0,0E0,0E0,0E0,0E0,0E0],"parents":[2147483647,0,0,1,1,2,2,3,3,4,4,5,5,6,6,7,7,8,8,9,9,10,10,11,11,12,12,13,13,14,14,15,15,16,16,17,17,18,18,19,19,20,20,21,21,22,22,23,23,24,24,25,25,26,26,27,27,28,28,29,29,30,30,31,31,32,32,33,33,34,34,35,35,36,36,37,37,38,38,39,39,40,40,41,41,42,42,43,43,45,45,47,47,48,48,49,49,50,50,51,51,52,52,53,53,54,54,55,55,56,56,57,57,58,58,59,59,60,60,61,61,62,62,63,63,64,64,65,65,66,66,67,67,71,71,72,72,73,73,74,74,75,75,76,76,77,77,78,78,79,79,80,80,81,81,82,82,83,83,84,84,85,85,87,87,88,88,89,89,90,90,91,91,92,92,93,93,94,94,95,95,96,96,97,97,98,98,99,99,100,100,101,101,102,102,103,103,104,104,105,105,107,107,108,108,109,109,110,110,111,111,112,112,113,113,114,114,115,115,116,116,117,117,118,118,119,119,120,120,121,121,122,122,123,123,124,124,125,125,127,127,128,128,130,130,131,131,133,133,134,134,135,135,136,136,137,137,138,138,139,139,140,140,141,141,142,142,143,143,144,144,146,146,148,148,149,149,150,150,151,151,152,152,153,153,154,154,155,155,156,156,157,157,158,158,159,159,161,161,163,163,164,164,167,167,168,168,171,171,172,172,173,173,174,174,175,175,176,176,177,177,178,178,179,179,180,180,181,181,182,182,184,184,187,187,188,188,189,189,190,190,191,191,192,192,193,193,194,194,195,195,196,196,197,197,199,199,201,201,202,202,203,203,204,204,205,205,206,206,207,207,208,208,209,209,210,210,211,211,212,212,214,214,215,215,217,217,218,218,219,219,220,220,221,221,222,222,223,223,224,224,225,225,226,226,227,227,228,228,229,229,230,230,231,231,232,232],"right_children":[2,4,6,8,10,12,14,16,18,20,22,24,26,28,30,32,34,36,38,40,42,44,46,48,50,52,54,56,58,60,62,64,66,68,70,72,74,76,78,80,82,84,86,88,-1,90,-1,92,94,96,98,100,102,104,106,108,110,112,114,116,118,120,122,124,126,128,130,132,-1,-1,-1,134,136,138,140,142,144,146,148,150,152,154,156,158,160,162,-1,164,166,168,170,172,174,176,178,180,182,184,186,188,190,192,194,196,198,200,-1,202,204,206,208,210,212,214,216,218,220,222,224,226,228,230,232,234,236,238,-1,240,242,-1,244,246,-1,248,250,252,254,256,258,260,262,264,266,268,270,-1,272,-1,274,276,278,280,282,284,286,288,290,292,294,296,-1,298,-1,300,302,-1,-1,304,306,-1,-1,308,310,312,314,316,318,320,322,324,326,328,330,-1,332,-1,-1,334,336,338,340,342,344,346,348,350,352,354,-1,356,-1,358,360,362,364,366,368,370,372,374,376,378,380,-1,382,384,-1,386,388,390,392,394,396,398,400,402,404,406,408,410,412,414,416,-1,-1,-1,-1,-1,-1,-1,-1,-1,-1,-1,-1,-1,-1,-1,-1,-1,-1,-1,-1,-1,-1,-1,-1,-1,-1,-1,-1,-1,-1,-1,-1,-1,-1,-1,-1,-1,-1,-1,-1,-1,-1,-1,-1,-1,-1,-1,-1,-1,-1,-1,-1,-1,-1,-1,-1,-1,-1,-1,-1,-1,-1,-1,-1,-1,-1,-1,-1,-1,-1,-1,-1,-1,-1,-1,-1,-1,-1,-1,-1,-1,-1,-1,-1,-1,-1,-1,-1,-1,-1,-1,-1,-1,-1,-1,-1,-1,-1,-1,-1,-1,-1,-1,-1,-1,-1,-1,-1,-1,-1,-1,-1,-1,-1,-1,-1,-1,-1,-1,-1,-1,-1,-1,-1,-1,-1,-1,-1,-1,-1,-1,-1,-1,-1,-1,-1,-1,-1,-1,-1,-1,-1,-1,-1,-1,-1,-1,-1,-1,-1,-1,-1,-1,-1,-1,-1,-1,-1,-1,-1,-1,-1,-1,-1,-1,-1,-1,-1,-1,-1,-1,-1,-1,-1,-1,-1,-1,-1,-1,-1,-1,-1,-1,-1],"split_conditions":[1E0,3.7E0,4.3E0,9.899085E-4,9.2E0,1E-1,9.2E0,9.8E0,9.2E0,1E-1,2.9E0,9.2E0,2.3E0,3.3E0,7.9E0,9.953135E-4,1.03E1,5.014953E-4,9.1E0,5.23524E-4,3.9E0,1.26E1,8.7E0,9.850505E-4,2.1E0,9.9E0,1.11E1,1E1,1.1E1,8.2E0,7.5E0,1.08E1,9.8E0,1.09E1,1.01E1,3.8E0,5.3537893E-4,5.219736E-4,6.7E0,1.06E1,1.03E1,7.8E0,1.1E1,1.27E1,2.3015301E-1,1.13E1,2.511058E-1,6.7E0,6.2E0,8E0,9.1E0,7.2E0,1.7E0,1.23E1,6.7E0,7E0,1.28E1,6.2E0,3E0,1.34E1,1.29E1,1.15E1,1.2E1,8.4E0,7.5E0,5.405589E-4,5.704319E-4,1E1,2.1191405E-1,9.2713825E-2,2.4663484E-1,2.9190793E-4,1.03E1,6E-1,5.1321177E-4,2.8148326E-4,1.26E1,3.5927078E-4,1.525759E-4,5.1E0,1.11E1,6.3E0,1.09E1,5.2625634E-4,1.07E1,1.05E1,2.4905792E-1,1.13E1,1.32E1,9.4E0,5.2E0,1E-1,1.15E1,5E0,1E0,1.3E1,8.442586E-4,3.0256258E-4,4.5E0,1.13E1,3.7293785E-4,1E0,3.133645E-4,2E-1,2E-1,1.11E1,-6.572515E-2,5.178579E-4,9.953631E-4,9.0026343E-4,3.1288047E-4,6.8E0,9.2E0,1.02E1,5.3071085E-4,1.15E1,1.3E1,8.1E0,1.32E1,1.2E1,1.18E1,1.59E1,1.23E1,5.9E0,5.05483E-4,1.27E1,2.3193483E-1,1.9701301E-4,5.1737786E-4,1.8784522E-1,1E-1,9.1E0,1.9757298E-1,3.5859563E-4,2.7901394E-4,3.192675E-4,3.8568958E-4,4.2256268E-4,3.4318882E-4,1.9772997E-4,9.97069E-4,1.55091E-4,1.17E1,5.7279627E-4,6.645014E-4,1.9092084E-1,3.1123278E-4,2.4267554E-1,1.29E1,5.3E0,9E-1,1.16E1,4.2E0,9.377351E-4,5.2630797E-4,1.05E1,5.227897E-4,1.1E0,6.7E0,2.7536802E-4,2.0159447E-1,5.5E0,2.3493584E-1,8.2E0,1.27E1,2.1219146E-1,2.314943E-1,9.1E0,9.5E0,2.0836453E-1,2.4010856E-1,8.3E0,1.18E1,1.05E1,3.2318235E-4,1.03E1,1.17E1,7.5E0,7.333499E-4,4.5E0,4.299568E-4,2.9833114E-4,1.21E1,-1.0494123E-1,8.3E0,-1.064018E-1,-4.232555E-2,8.7E0,3.0385138E-4,1E0,1E-1,4.2962484E-4,1.31E1,7.8954507E-4,1.14E1,1.06E1,8.9E0,2.7598988E-4,-7.281513E-2,6.9E0,-6.069222E-2,2.9991003E-4,9.756688E-4,1.13E1,1.13E1,3.165697E-4,4.5E0,5.7E0,4.7E0,1.11E1,1.12E1,7.3E0,8E-1,-1.08486965E-1,2.1801585E-4,9.3308784E-4,-7.915645E-2,7E0,1.38E1,2.7484528E-4,1E0,3.5606645E-4,9.6516527E-4,3.1417055E-4,2.0745912E-4,1.08E1,2.4295298E-4,3.1939227E-4,3.632438E-4,3.0952404E-4,5.3079677E-4,9.0479647E-4,2.0993088E-4,1.368809E-1,1.6640429E-1,1.961349E-1,1.6436432E-1,1.7872737E-1,2.1022432E-1,1.5228526E-1,1.23083286E-1,1.2297981E-1,8.99453E-2,1.4217713E-1,1.7377667E-1,1.6818793E-1,1.9717166E-1,1.3674791E-1,1.0903889E-1,1.1609533E-1,6.528061E-2,1.496477E-1,1.1735002E-1,1.833506E-1,1.5176284E-1,1.14929914E-1,7.037049E-2,1.5415624E-1,1.1243906E-1,1.5300594E-1,8.377073E-2,5.2999485E-2,2.3722533E-2,2.2043507E-1,1.8201451E-1,1.4949815E-1,1.8836658E-1,1.5321055E-1,8.998652E-2,1.3497408E-1,1.1832484E-1,1.8747048E-1,1.5092967E-1,1.8569522E-1,2.059089E-1,1.3180076E-1,1.5929775E-1,1.5276073E-1,1.8106411E-1,1.8269561E-1,2.080191E-1,1.9977987E-1,2.2170053E-1,1.4481507E-1,8.3128974E-2,1.7042322E-1,1.2717976E-1,1.5130818E-1,1.7882577E-1,2.0300595E-1,1.747276E-1,1.5502973E-1,1.9166374E-1,8.918484E-2,1.555094E-1,1.9488792E-1,1.5637209E-1,1.8974511E-1,2.088559E-1,1.6650477E-1,1.9033127E-1,1.9603227E-1,2.1475469E-1,2.0254758E-1,2.4224341E-1,1.11260846E-1,2.283001E-1,-1.8802665E-1,-1.4214812E-1,-1.6245256E-1,-1.1734506E-1,-1.5448402E-1,-1.3383408E-1,-4.205663E-2,-1.027854E-1,-2.1515079E-1,-1.443755E-1,-1.9358437E-1,-1.4587133E-1,-1.9328825E-1,-1.6621469E-1,-1.296402E-1,-1.7695327E-1,-1.7256327E-1,-1.2826979E-1,-1.3435958E-1,-1.5545212E-1,-7.4964374E-2,-1.2128115E-1,-5.529169E-2,-1.3856229E-2,-1.385696E-1,-9.535953E-2,-1.799141E-1,-1.4041202E-1,-3.6068905E-2,-1.2908633E-1,-1.1207517E-1,-3.2676887E-2,-1.5173094E-1,-1.3308018E-1,-1.1789868E-1,-1.439962E-1,-1.01991475E-1,-1.4453508E-2,-8.072599E-2,-2.0313127E-2,-1.2061725E-1,-9.619137E-2,-1.4659953E-1,-9.013962E-2,-1.2804072E-1,-9.973508E-2,-2.4222014E-2,-1.0882379E-1,-1.1714262E-1,-9.307937E-2,-1.3006338E-1,-1.5489754E-1,-1.4170885E-1,-1.7540275E-1,-1.4221387E-1,-1.1683371E-1,-1.638339E-1,-1.3374938E-1,-8.795302E-2,-1.1786535E-1,-1.4863445E-1,-1.252062E-1,-6.902718E-3,-6.479317E-2,-1.1635362E-1,-9.383013E-2,-1.4346482E-1,-1.0951759E-1,-1.27881E-1,-8.6195536E-2,-1.206637E-1,-1.10091746E-1,-1.0676014E-1,-7.199844E-2,-7.468471E-3,-9.03961E-2,-6.826488E-2,-1.1144008E-2,-1.2850116E-1,-1.0360354E-1,-1.1117132E-1,-8.662085E-2,-6.55505E-2,-1.0967405E-1,-8.4805086E-2,-1.09829E-1,-8.762068E-2,-1.05407216E-1,-7.94487E-2,-1.4445822E-2,-7.062222E-2,-9.100901E-2,-2.8700957E-2,-7.482133E-2,-1.14541054E-1,-9.555965E-2,-9.075372E-3,-8.432016E-2,-7.265271E-2,-9.036683E-2,-6.485973E-2,-7.938908E-2,-6.357851E-2,-7.686403E-2,-4.5622416E-2,1.7075736E-2,-5.5491604E-2,-2.0998888E-2,-7.0509515E-3,-6.737922E-2],"split_indices":[30,3,2,16,1,4,1,0,0,7,6,0,8,6,6,19,9,11,1,13,4,4,8,16,1,4,9,3,4,4,8,9,6,6,0,1,12,10,2,3,3,3,9,2,0,3,0,7,0,5,3,0,1,8,0,0,4,8,9,2,3,2,9,6,1,12,16,1,0,0,0,14,1,2,10,10,0,10,11,4,4,0,4,15,3,6,0,0,0,5,0,9,1,1,21,0,11,10,7,3,10,28,12,1,9,1,0,12,14,15,15,4,9,6,19,3,1,7,1,3,0,0,9,7,16,9,0,12,17,0,4,2,0,12,11,11,11,13,12,10,12,10,2,12,10,0,11,0,2,0,2,2,1,17,10,2,14,5,0,17,0,8,0,3,1,0,0,9,1,0,0,6,9,7,12,3,1,1,11,7,10,12,0,0,7,0,0,6,18,24,1,11,0,16,6,3,4,13,0,5,0,11,19,2,0,14,0,5,1,6,2,9,4,0,13,15,0,8,0,11,21,14,14,13,12,6,12,12,13,16,14,12,13,0,0,0,0,0,0,0,0,0,0,0,0,0,0,0,0,0,0,0,0,0,0,0,0,0,0,0,0,0,0,0,0,0,0,0,0,0,0,0,0,0,0,0,0,0,0,0,0,0,0,0,0,0,0,0,0,0,0,0,0,0,0,0,0,0,0,0,0,0,0,0,0,0,0,0,0,0,0,0,0,0,0,0,0,0,0,0,0,0,0,0,0,0,0,0,0,0,0,0,0,0,0,0,0,0,0,0,0,0,0,0,0,0,0,0,0,0,0,0,0,0,0,0,0,0,0,0,0,0,0,0,0,0,0,0,0,0,0,0,0,0,0,0,0,0,0,0,0,0,0,0,0,0,0,0,0,0,0,0,0,0,0,0,0,0,0,0,0,0,0,0,0,0,0,0,0,0,0,0,0,0,0,0,0],"split_type":[0,0,0,0,0,0,0,0,0,0,0,0,0,0,0,0,0,0,0,0,0,0,0,0,0,0,0,0,0,0,0,0,0,0,0,0,0,0,0,0,0,0,0,0,0,0,0,0,0,0,0,0,0,0,0,0,0,0,0,0,0,0,0,0,0,0,0,0,0,0,0,0,0,0,0,0,0,0,0,0,0,0,0,0,0,0,0,0,0,0,0,0,0,0,0,0,0,0,0,0,0,0,0,0,0,0,0,0,0,0,0,0,0,0,0,0,0,0,0,0,0,0,0,0,0,0,0,0,0,0,0,0,0,0,0,0,0,0,0,0,0,0,0,0,0,0,0,0,0,0,0,0,0,0,0,0,0,0,0,0,0,0,0,0,0,0,0,0,0,0,0,0,0,0,0,0,0,0,0,0,0,0,0,0,0,0,0,0,0,0,0,0,0,0,0,0,0,0,0,0,0,0,0,0,0,0,0,0,0,0,0,0,0,0,0,0,0,0,0,0,0,0,0,0,0,0,0,0,0,0,0,0,0,0,0,0,0,0,0,0,0,0,0,0,0,0,0,0,0,0,0,0,0,0,0,0,0,0,0,0,0,0,0,0,0,0,0,0,0,0,0,0,0,0,0,0,0,0,0,0,0,0,0,0,0,0,0,0,0,0,0,0,0,0,0,0,0,0,0,0,0,0,0,0,0,0,0,0,0,0,0,0,0,0,0,0,0,0,0,0,0,0,0,0,0,0,0,0,0,0,0,0,0,0,0,0,0,0,0,0,0,0,0,0,0,0,0,0,0,0,0,0,0,0,0,0,0,0,0,0,0,0,0,0,0,0,0,0,0,0,0,0,0,0,0,0,0,0,0,0,0,0,0,0,0,0,0,0,0,0,0,0,0,0,0,0,0,0,0,0,0,0,0,0,0,0,0,0,0,0,0,0,0,0,0,0,0],"sum_hessian":[1.056E5,5.8137E4,4.7463E4,3.8087E4,2.005E4,2.903E4,1.8433E4,1.6181E4,2.1906E4,1.2573E4,7.477E3,2.4218E4,4.812E3,1.1996E4,6.437E3,1.4848E4,1.333E3,1.8726E4,3.18E3,6.924E3,5.649E3,3.931E3,3.546E3,2.2149E4,2.069E3,3.858E3,9.54E2,6.366E3,5.63E3,4.325E3,2.112E3,7.74E3,7.108E3,1.227E3,1.06E2,2.881E3,1.5845E4,1.589E3,1.591E3,3.378E3,3.546E3,7.89E2,4.86E3,3.166E3,7.65E2,1.994E3,1.552E3,8.212E3,1.3937E4,1.195E3,8.74E2,2.978E3,8.8E2,7.9E2,1.64E2,5.467E3,8.99E2,5.126E3,5.04E2,2.744E3,1.581E3,1.099E3,1.013E3,7.294E3,4.46E2,6.6E3,5.08E2,9.85E2,2.42E2,2E0,1.04E2,1.639E3,1.242E3,1.601E3,1.4244E4,6.83E2,9.06E2,6.56E2,9.35E2,2.292E3,1.086E3,2.812E3,7.34E2,4.1E2,3.79E2,4.46E3,4E2,2.21E3,9.56E2,8.42E2,1.152E3,7.635E3,5.77E2,1.1102E4,2.835E3,1.123E3,7.2E1,8.27E2,4.7E1,2.528E3,4.5E2,5.73E2,3.07E2,6.83E2,1.07E2,1.12E2,5.2E1,2.898E3,2.569E3,7.48E2,1.51E2,2.335E3,2.791E3,2.74E2,2.3E2,2.127E3,6.17E2,1.132E3,4.49E2,3.7E2,7.29E2,6.75E2,3.38E2,6.785E3,5.09E2,3.7E2,7.6E1,3.277E3,3.323E3,2.84E2,2.24E2,6.11E2,3.74E2,4.72E2,1.167E3,9.95E2,2.47E2,8.87E2,7.14E2,1.326E3,1.2918E4,3.07E2,3.76E2,4.35E2,4.71E2,1.98E2,4.58E2,4.2E1,8.93E2,8.2E2,1.472E3,6.2E2,4.66E2,1.45E3,1.362E3,4.89E2,2.45E2,1.87E2,2.23E2,1.78E2,2.01E2,4.149E3,3.11E2,1.055E3,1.155E3,7E2,2.56E2,3.65E2,4.77E2,6.8E1,1.084E3,6.734E3,9.01E2,5.38E2,3.9E1,1.0282E4,8.2E2,2.648E3,1.87E2,6.38E2,4.85E2,6.9E1,3E0,3.6E1,7.91E2,4.5E1,2E0,2.373E3,1.55E2,6.4E1,3.86E2,5.31E2,4.2E1,1E1,2.97E2,2.85E2,3.98E2,8.8E1,1.9E1,9.3E1,1.9E1,1.064E3,1.834E3,1.677E3,8.92E2,2.88E2,4.6E2,7E0,1.44E2,1.029E3,1.306E3,2.67E3,1.21E2,9.3E1,1.81E2,1.09E2,1.21E2,1.556E3,5.71E2,2.84E2,3.33E2,1.041E3,9.1E1,2.97E2,1.52E2,2.3E2,1.4E2,3E2,4.29E2,6.68E2,7E0,3.3E1,3.05E2,6.116E3,6.69E2,2.65E2,2.44E2,2.59E2,1.11E2,7.97E2,2.48E3,8.24E2,2.499E3,1.33E2,9.1E1,4.7E2,1.41E2,3.01E2,1.71E2,1.67E2,1E3,5.48E2,4.47E2,1.9E2,5.7E1,2.22E2,6.65E2,3.92E2,3.22E2,2.18E2,1.108E3,5.46E3,7.458E3,5.4E1,2.53E2,3.35E2,4.1E1,4.5E1,3.9E2,1.34E2,3.37E2,8.8E1,3.7E2,5.45E2,3.48E2,3.24E2,4.96E2,1.48E2,1.324E3,4.79E2,1.41E2,2.11E2,2.55E2,3.07E2,1.143E3,5.8E2,7.82E2,2.93E2,1.96E2,1.61E2,8.4E1,1.03E2,8.4E1,1.58E2,6.5E1,5.4E1,1.24E2,1.31E3,2.839E3,2.77E2,7.78E2,7.4E2,4.15E2,3.32E2,3.3E1,3E0,4.74E2,6.514E3,2.2E2,8.14E2,8.7E1,2.91E2,2.47E2,4E0,3.5E1,1.0211E4,7.1E1,6.97E2,1.23E2,2.352E3,2.96E2,9.5E1,9.2E1,5.85E2,5.3E1,1.19E2,3.66E2,8E0,6.1E1,2E0,1E0,7.72E2,1.9E1,2.2E3,1.73E2,3E0,1.52E2,5.9E1,5E0,1.52E2,2.34E2,6.4E1,4.67E2,4.1E1,1E0,3E0,7E0,2.52E2,4.5E1,2.72E2,1.3E1,3.36E2,6.2E1,1E0,8.7E1,4.5E1,4.8E1,8E1,9.84E2,2.15E2,1.619E3,1.543E3,1.34E2,7.56E2,1.36E2,2.6E1,2.62E2,1.75E2,2.85E2,2E0,5E0,5.3E1,9.1E1,9.72E2,5.7E1,1.282E3,2.4E1,1.838E3,8.32E2,2E1,1.01E2,1E0,1.8E2,1.08E2,1E0,1.402E3,1.54E2,5.14E2,5.7E1,1.3E1,2.71E2,2.74E2,5.9E1,1.74E2,8.67E2,8.9E1,2E0,4.3E1,2.54E2,2E0,1.5E2,6.4E1,1.66E2,1E0,1.39E2,5.5E1,2.45E2,1.22E2,3.07E2,9.1E1,5.77E2,5E0,2E0,2.8E1,5E0,1E0,3.04E2],"tree_param":{"num_deleted":"0","num_feature":"31","num_nodes":"417","size_leaf_vector":"1"}},{"base_weights":[6.7905145E-5,5.300106E-1,-6.4905155E-1,3.724928E-1,7.3152184E-1,-7.609471E-1,-5.1459837E-1,5.3354466E-1,2.443008E-1,6.1000496E-1,8.3161694E-1,-7.788842E-1,-5.878322E-1,-5.668626E-1,-3.997034E-1,5.141637E-1,7.4405205E-1,2.0748208E-1,5.9166485E-1,5.223613E-1,7.832771E-1,7.792682E-1,9.449634E-1,-7.159532E-1,-8.3756703E-1,-5.402189E-1,-6.454567E-1,-6.39958E-1,-5.0013506E-1,-4.5109722E-1,-3.3481506E-1,5.753474E-1,4.5248488E-1,8.0819005E-1,6.523321E-1,2.8567567E-1,1.1342494E-1,7.176436E-1,5.2596533E-1,6.7165315E-1,4.514239E-1,2.0231913E-1,7.7487826E-1,7.261749E-1,8.5545635E-1,9.0789527E-1,2.0079628E-1,-7.320665E-1,-5.599423E-1,-8.594485E-1,-7.5704396E-1,-5.5735594E-1,-4.1734967E-1,-6.8170416E-1,-6.0896105E-1,-6.6298443E-1,-5.092559E-1,-5.415389E-1,-4.5337027E-1,-4.7811323E-1,-3.9450526E-1,-3.8296708E-1,-3.0667445E-1,5.5689496E-1,7.729625E-1,5.109081E-1,3.8127986E-1,7.9143256E-1,9.939762E-1,5.4733276E-1,7.1063197E-1,5.841175E-1,2.5794476E-1,7.650437E-2,3.0618566E-1,1.6406551E-1,6.876782E-1,4.744882E-1,6.5541804E-1,6.364041E-1,8.0645794E-1,6.02839E-1,3.778815E-1,7.3242074E-1,8.1504184E-1,6.727555E-1,8.4034276E-1,8.353575E-1,9.796323E-1,8.491866E-1,9.4696945E-1,-7.4969405E-1,-6.197927E-1,-4.5722502E-1,-6.038423E-1,-8.1120807E-1,-8.8003135E-1,-7.677427E-1,-5.8318824E-1,-6.0475934E-1,-5.139533E-1,-4.3480483E-1,-5.328823E-2,-5.394433E-1,-6.9538206E-1,-1.11682296E-1,-6.303361E-1,-7.018418E-1,-6.153061E-1,-4.445067E-1,-5.349615E-1,-5.601638E-1,-4.439736E-1,-4.6889493E-1,-3.1253397E-1,-5.1795214E-1,-4.3687752E-1,-4.1922772E-1,-3.2894644E-1,-4.579664E-1,-3.5744125E-1,-3.3161932E-1,-2.8108418E-1,5.847726E-1,4.892976E-1,7.131145E-1,8.58934E-1,4.9899736E-1,7.080835E-1,3.6550936E-1,7.639267E-1,1.4665303E-1,1.6519175E-1,1.6269627E-1,2.1793103E-1,6.556135E-1,3.903885E-1,6.754867E-1,1.6385761E-1,5.6010246E-1,1.547659E-1,2.4479601E-1,7.278438E-1,2.6344135E-1,6.428323E-2,5.411542E-1,2.343407E-1,6.2412274E-1,1.4630066E-1,4.6444154E-1,1.4877443E-1,1.4542113E-1,1.1952503E-1,6.248083E-1,1.76914E-1,7.7128863E-1,1.8010555E-1,4.129586E-1,6.821002E-1,5.785554E-1,3.1071863E-1,7.79744E-1,6.9740975E-1,1.9969288E-1,8.0648243E-1,5.070642E-1,7.1622646E-1,7.9563403E-1,8.87756E-1,7.960985E-1,8.557353E-1,9.0607494E-1,2.0152228E-1,7.8406614E-1,8.7429994E-1,9.1857135E-1,1.9737843E-1,-6.993629E-1,-7.7802294E-1,-6.506045E-1,-5.1513624E-1,-4.8457384E-1,-3.3427975E-1,-6.462703E-1,-5.414812E-1,-8.238039E-1,-1.0006134E-1,-8.86114E-1,-6.755769E-1,-7.7593434E-1,-5.5196583E-1,-7.645593E-1,-5.218948E-1,-7.0455253E-1,-5.7765263E-1,-4.2290357E-1,-5.264904E-1,-4.393375E-1,-6.7769825E-2,-5.527345E-1,-2.762185E-2,-9.0279095E-2,-7.0159674E-1,-6.3140714E-1,-2.2121817E-2,-6.074808E-1,-7.340982E-1,-5.4507613E-1,-6.342182E-1,-2.9713073E-1,-4.6231267E-1,-5.802931E-1,-4.8321524E-1,-5.9560025E-1,-5.220759E-1,-4.9369532E-1,-3.980976E-1,-4.7445142E-1,-3.3481765E-1,-3.6694095E-1,-2.8974444E-1,-3.1355613E-1,-5.2459556E-1,-2.9531297E-1,-4.4703943E-1,-4.895033E-1,-4.0028384E-1,-2.792941E-1,-3.6205837E-1,-5.000901E-1,-4.0022135E-1,-4.4381106E-1,-3.4349385E-1,-3.5849166E-1,-3.0582073E-1,-2.5446498E-1,-2.8985977E-1,1.1491417E-1,1.4771962E-1,1.18394814E-1,9.217175E-2,1.3483827E-1,1.6266215E-1,1.8232612E-1,1.5780467E-1,1.181229E-1,9.531715E-2,1.5326993E-1,1.2770903E-1,7.038347E-2,1.4314203E-1,1.3927731E-1,1.9265367E-1,1.3993895E-1,1.0684519E-1,6.272297E-2,1.2948446E-1,1.2790489E-1,1.5472771E-1,1.2397819E-1,1.03025876E-1,9.981219E-2,4.5760006E-2,1.6872744E-1,1.300817E-1,4.7326095E-2,1.10193245E-1,2.0730184E-2,8.544671E-3,1.19842045E-1,8.974401E-2,5.7854373E-2,3.7725292E-2,1.4803918E-1,1.1796707E-1,8.116942E-2,1.0097819E-1,1.1875063E-1,1.4077878E-1,1.7563868E-1,1.4608876E-1,1.1795695E-1,7.677883E-2,1.2689935E-1,1.5604526E-1,7.824475E-2,1.2522075E-1,1.0463698E-1,5.1812913E-2,1.5234105E-1,1.8725318E-1,1.547503E-1,1.325106E-1,1.5417443E-1,1.6786872E-1,1.314266E-1,8.1297494E-2,1.5041617E-1,1.3404858E-1,1.6678052E-1,1.491532E-1,1.7209868E-1,1.923372E-1,1.2961829E-1,1.6121356E-1,1.6927595E-1,1.9829224E-1,1.817906E-1,4.5133997E-2,1.2546553E-1,1.597932E-1,1.6363545E-1,1.8015878E-1,1.7804909E-1,1.9217525E-1,-1.4160186E-1,-1.0716418E-1,-1.5622166E-1,-6.9257416E-2,-1.2428307E-1,-1.5006994E-1,-8.876192E-2,-1.1566037E-1,-7.432034E-2,-1.04924634E-1,-7.615642E-2,-4.895702E-2,-1.33731E-1,-1.0548569E-1,-1.092127E-1,-1.1571308E-2,-1.4918458E-1,-1.6874492E-1,-4.5041475E-3,-1.3557248E-1,-1.7815666E-1,-1.5344761E-1,-6.840174E-2,-1.4063482E-1,-1.361655E-1,-1.5771793E-1,-1.2687768E-1,-6.759422E-2,-1.5831971E-1,-6.87172E-2,-1.1129369E-1,-6.68106E-2,-1.2350213E-1,-1.521337E-1,-2.023077E-2,-1.15917735E-1,-8.560229E-2,-1.9382596E-3,-1.1164594E-1,-9.725776E-2,-7.184918E-2,-9.27927E-2,-2.774474E-2,7.413793E-3,-1.1235874E-1,-4.4708554E-2,-1.4235972E-1,-1.1375435E-1,-1.2643379E-1,-3.4115102E-2,-1.2853722E-1,-9.761181E-2,-1.5190578E-1,-1.2631176E-1,-1.24778114E-1,-1.06752835E-1,-1.2896252E-1,-1.03231706E-1,-6.693264E-2,5.0062896E-4,-6.0942765E-2,-9.418773E-2,-1.2761085E-1,-1.09643556E-1,-9.981819E-2,-6.803112E-2,-1.3606805E-1,-1.148232E-1,-1.1069732E-1,-9.839848E-2,-8.778179E-2,-1.04975656E-1,-9.335189E-2,-7.4434206E-2,-1.131925E-1,-9.376874E-2,-7.941478E-2,-5.5138644E-2,-5.7663437E-2,-8.052882E-2,-4.8762046E-2,-6.037875E-2,3.968228E-3,-6.9651894E-2,-1.0813397E-1,-9.100636E-2,-9.327657E-3,-6.0123093E-2,-9.170085E-2,-6.341326E-2,-1.9751957E-2,-9.998488E-2,-7.277878E-2,-8.51963E-2,-2.416781E-2,-5.837381E-2,-7.4453644E-2,-4.4275712E-2,-1.08944945E-1,-8.487048E-2,-4.648011E-2,-8.331298E-2,-5.956486E-2,-9.0451665E-2,-5.6575816E-2,-7.110558E-2,-6.3259445E-2,-7.442503E-2,-5.736455E-2,-6.828045E-2,-5.1138964E-2,4.0688873E-3,-5.282669E-2,-6.091736E-2],"categories":[],"categories_nodes":[],"categories_segments":[],"categories_sizes":[],"default_left":[0,0,0,0,0,0,0,0,0,0,0,0,0,0,0,0,0,0,0,0,0,0,0,0,0,0,0,0,0,0,0,0,0,0,0,0,0,0,0,0,0,0,0,0,0,0,0,0,0,0,0,0,0,0,0,0,0,0,0,0,0,0,0,0,0,0,0,0,0,0,0,0,0,0,0,0,0,0,0,0,0,0,0,0,0,0,0,0,0,0,0,0,0,0,0,0,0,0,0,0,0,0,0,0,0,0,0,0,0,0,0,0,0,0,0,0,0,0,0,0,0,0,0,0,0,0,0,0,0,0,0,0,0,0,0,0,0,0,0,0,0,0,0,0,0,0,0,0,0,0,0,0,0,0,0,0,0,0,0,0,0,0,0,0,0,0,0,0,0,0,0,0,0,0,0,0,0,0,0,0,0,0,0,0,0,0,0,0,0,0,0,0,0,0,0,0,0,0,0,0,0,0,0,0,0,0,0,0,0,0,0,0,0,0,0,0,0,0,0,0,0,0,0,0,0,0,0,0,0,0,0,0,0,0,0,0,0,0,0,0,0,0,0,0,0,0,0,0,0,0,0,0,0,0,0,0,0,0,0,0,0,0,0,0,0,0,0,0,0,0,0,0,0,0,0,0,0,0,0,0,0,0,0,0,0,0,0,0,0,0,0,0,0,0,0,0,0,0,0,0,0,0,0,0,0,0,0,0,0,0,0,0,0,0,0,0,0,0,0,0,0,0,0,0,0,0,0,0,0,0,0,0,0,0,0,0,0,0,0,0,0,0,0,0,0,0,0,0,0,0,0,0,0,0,0,0,0,0,0,0,0,0,0,0,0,0,0,0,0,0,0,0,0,0,0,0,0,0,0,0,0,0,0,0,0,0,0,0,0,0,0,0,0,0,0,0,0,0,0,0,0,0,0,0,0,0,0,0,0,0,0,0,0,0,0,0,0,0,0,0,0,0,0,0,0,0,0,0,0],"id":2,"left_children":[1,3,5,7,9,11,13,15,17,19,21,23,25,27,29,31,33,35,37,39,41,43,45,47,49,51,53,55,57,59,61,63,65,67,69,71,73,75,77,79,81,-1,83,85,87,89,-1,91,93,95,97,99,101,103,105,107,109,111,113,115,117,119,121,123,125,127,129,131,133,135,137,139,141,143,145,-1,147,149,151,153,155,157,159,161,163,165,167,169,171,173,175,177,179,181,183,185,187,189,191,193,195,197,-1,199,201,-1,203,205,207,209,211,213,215,217,219,221,223,225,227,229,231,233,235,237,239,241,243,245,247,249,251,-1,-1,-1,-1,253,255,257,-1,259,-1,261,263,265,267,269,271,273,-1,275,-1,-1,-1,277,-1,279,-1,281,283,285,287,289,291,-1,293,295,297,299,301,303,305,307,-1,309,311,313,-1,315,317,319,321,323,325,327,329,331,333,335,337,339,341,343,345,347,349,351,353,355,357,359,-1,-1,361,363,-1,365,367,369,371,373,375,377,379,381,383,385,387,389,391,393,395,397,399,401,403,405,407,409,411,413,415,417,419,421,423,425,427,-1,-1,-1,-1,-1,-1,-1,-1,-1,-1,-1,-1,-1,-1,-1,-1,-1,-1,-1,-1,-1,-1,-1,-1,-1,-1,-1,-1,-1,-1,-1,-1,-1,-1,-1,-1,-1,-1,-1,-1,-1,-1,-1,-1,-1,-1,-1,-1,-1,-1,-1,-1,-1,-1,-1,-1,-1,-1,-1,-1,-1,-1,-1,-1,-1,-1,-1,-1,-1,-1,-1,-1,-1,-1,-1,-1,-1,-1,-1,-1,-1,-1,-1,-1,-1,-1,-1,-1,-1,-1,-1,-1,-1,-1,-1,-1,-1,-1,-1,-1,-1,-1,-1,-1,-1,-1,-1,-1,-1,-1,-1,-1,-1,-1,-1,-1,-1,-1,-1,-1,-1,-1,-1,-1,-1,-1,-1,-1,-1,-1,-1,-1,-1,-1,-1,-1,-1,-1,-1,-1,-1,-1,-1,-1,-1,-1,-1,-1,-1,-1,-1,-1,-1,-1,-1,-1,-1,-1,-1,-1,-1,-1,-1,-1,-1,-1,-1,-1,-1,-1,-1,-1,-1,-1,-1,-1,-1,-1,-1,-1,-1,-1,-1,-1,-1,-1,-1,-1,-1,-1,-1,-1],"loss_changes":[3.632667E4,1.8451191E3,7.1369336E2,6.735962E2,3.097295E2,7.997461E1,1.2925098E2,5.8620117E1,2.3228796E2,1.7459668E2,8.223242E1,8.606836E1,6.334961E0,7.19541E1,2.2342651E1,4.9726562E1,6.63208E0,1.208194E2,1.403241E1,8.0776855E1,6.635254E0,3.809424E1,8.742676E0,2.8074707E1,2.0735352E1,2.5888977E0,1.0360413E0,2.0934326E1,1.4762329E1,5.5615234E0,3.9273071E0,2.3803955E1,2.7265625E1,1.4300232E0,2.7085114E0,7.410217E1,5.3075302E1,1.2635803E0,7.3391113E0,1.1195068E1,5.759839E1,0E0,5.7736816E0,3.387451E1,8.977295E0,5.4379883E0,0E0,1.9854492E1,4.526306E0,8.755371E0,4.39209E0,2.1025696E0,3.2668304E-1,6.795349E-1,2.487793E-1,1.0695068E1,1.5314941E0,7.2126465E0,7.8251343E0,3.948059E0,1.8410645E0,1.9364319E0,1.1126099E0,1.1175171E1,2.2944946E0,8.155273E0,1.7697632E1,7.158203E-1,6.341171E-2,2.887951E0,6.7622375E-1,3.038208E0,5.05542E1,1.4291405E1,2.0113869E1,0E0,8.414154E-1,1.8873138E0,9.078064E-1,5.081787E0,9.827881E-1,2.5243347E1,4.6965637E1,2.4815674E0,2.1950684E0,2.7381714E1,3.10083E0,2.0270996E0,2.0037842E-1,1.1084595E0,9.35791E-1,1.21015625E1,4.1761475E0,9.240799E-1,1.6159363E0,2.5580933E1,7.699707E0,3.8986816E0,1.3240967E0,1.0943298E0,4.839325E-1,2.1811104E-1,0E0,2.0104027E-1,4.2781067E-1,0E0,1.4334106E-1,9.604614E0,3.2470703E0,6.7087936E-1,1.4929657E0,4.3374023E0,1.3157959E0,2.286255E0,3.4624863E-1,1.5830994E0,1.6734009E0,9.7958374E-1,4.5622635E-1,4.687729E-1,8.3896637E-1,5.496597E-1,1.4559174E-1,6.3250732E0,4.9306335E0,7.7375793E-1,1.16989136E-1,6.7407837E0,3.372116E-1,1.33758545E1,9.044342E-1,0E0,0E0,0E0,0E0,2.0410538E-1,1.3361645E0,3.8414764E-1,0E0,1.5091095E0,0E0,3.2378815E1,1.4508286E0,2.8297997E0,4.9862957E0,1.2337036E0,2.255684E0,3.47435E-1,0E0,1.6864319E0,0E0,0E0,0E0,4.1846924E0,0E0,1.0003357E0,0E0,2.3535385E0,5.086975E0,7.5578613E0,2.8651245E1,1.4552612E0,2.30542E0,0E0,1.4957275E0,1.1867996E1,4.522827E0,1.1605225E0,9.1186523E-1,1.2054443E0,1.9735107E0,1.0623169E-1,0E0,2.3443604E-1,4.272461E-1,2.998047E-1,0E0,4.151245E0,7.2770996E0,2.669403E0,1.1985931E0,9.904556E-1,1.648159E-1,8.098602E-1,6.487503E-1,3.737915E0,2.2696896E0,2.911621E0,1.572998E0,2.2988281E0,1.4259281E0,1.4918137E-1,5.8694077E-1,8.71048E-2,3.4913635E-1,1.6470242E-1,4.1757202E-1,1.2325668E-1,2.74585E-2,2.3526192E-2,0E0,0E0,2.4151611E-1,2.6290894E-2,0E0,3.2473145E0,5.9245605E0,1.8496704E-1,2.3250122E0,4.0569353E-1,2.2762299E-1,3.875885E-1,6.455841E-1,2.8446045E0,1.303833E0,3.060608E-1,4.4934082E-1,1.350647E0,3.8376522E-1,1.7585087E-1,7.260704E-2,5.044193E-1,1.1461182E0,1.0069752E-1,1.5965729E0,6.958008E-1,5.005188E-1,2.4369049E-1,2.0485306E-1,2.928276E-1,2.3506927E-1,2.193451E-3,4.1951752E-1,1.4691162E-1,2.346611E-1,8.665085E-2,1.8438339E-1,0E0,0E0,0E0,0E0,0E0,0E0,0E0,0E0,0E0,0E0,0E0,0E0,0E0,0E0,0E0,0E0,0E0,0E0,0E0,0E0,0E0,0E0,0E0,0E0,0E0,0E0,0E0,0E0,0E0,0E0,0E0,0E0,0E0,0E0,0E0,0E0,0E0,0E0,0E0,0E0,0E0,0E0,0E0,0E0,0E0,0E0,0E0,0E0,0E0,0E0,0E0,0E0,0E0,0E0,0E0,0E0,0E0,0E0,0E0,0E0,0E0,0E0,0E0,0E0,0E0,0E0,0E0,0E0,0E0,0E0,0E0,0E0,0E0,0E0,0E0,0E0,0E0,0E0,0E0,0E0,0E0,0E0,0E0,0E0,0E0,0E0,0E0,0E0,0E0,0E0,0E0,0E0,0E0,0E0,0E0,0E0,0E0,0E0,0E0,0E0,0E0,0E0,0E0,0E0,0E0,0E0,0E0,0E0,0E0,0E0,0E0,0E0,0E0,0E0,0E0,0E0,0E0,0E0,0E0,0E0,0E0,0E0,0E0,0E0,0E0,0E0,0E0,0E0,0E0,0E0,0E0,0E0,0E0,0E0,0E0,0E0,0E0,0E0,0E0,0E0,0E0,0E0,0E0,0E0,0E0,0E0,0E0,0E0,0E0,0E0,0E0,0E0,0E0,0E0,0E0,0E0,0E0,0E0,0E0,0E0,0E0,0E0,0E0,0E0,0E0,0E0,0E0,0E0,0E0,0E0,0E0,0E0,0E0,0E0,0E0,0E0,0E0,0E0,0E0,0E0,0E0,0E0,0E0,0E0,0E0,0E0,0E0,0E0,0E0,0E0,0E0,0E0],"parents":[2147483647,0,0,1,1,2,2,3,3,4,4,5,5,6,6,7,7,8,8,9,9,10,10,11,11,12,12,13,13,14,14,15,15,16,16,17,17,18,18,19,19,20,20,21,21,22,22,23,23,24,24,25,25,26,26,27,27,28,28,29,29,30,30,31,31,32,32,33,33,34,34,35,35,36,36,37,37,38,38,39,39,40,40,42,42,43,43,44,44,45,45,47,47,48,48,49,49,50,50,51,51,52,52,53,53,54,54,55,55,56,56,57,57,58,58,59,59,60,60,61,61,62,62,63,63,64,64,65,65,66,66,67,67,68,68,69,69,70,70,71,71,72,72,73,73,74,74,76,76,77,77,78,78,79,79,80,80,81,81,82,82,83,83,84,84,85,85,86,86,87,87,88,88,89,89,90,90,91,91,92,92,93,93,94,94,95,95,96,96,97,97,98,98,99,99,100,100,101,101,103,103,104,104,106,106,107,107,108,108,109,109,110,110,111,111,112,112,113,113,114,114,115,115,116,116,117,117,118,118,119,119,120,120,121,121,122,122,123,123,124,124,125,125,126,126,127,127,128,128,129,129,130,130,135,135,136,136,137,137,139,139,141,141,142,142,143,143,144,144,145,145,146,146,147,147,149,149,153,153,155,155,157,157,158,158,159,159,160,160,161,161,162,162,164,164,165,165,166,166,167,167,168,168,169,169,170,170,171,171,173,173,174,174,175,175,177,177,178,178,179,179,180,180,181,181,182,182,183,183,184,184,185,185,186,186,187,187,188,188,189,189,190,190,191,191,192,192,193,193,194,194,195,195,196,196,197,197,198,198,199,199,202,202,203,203,205,205,206,206,207,207,208,208,209,209,210,210,211,211,212,212,213,213,214,214,215,215,216,216,217,217,218,218,219,219,220,220,221,221,222,222,223,223,224,224,225,225,226,226,227,227,228,228,229,229,230,230,231,231,232,232,233,233,234,234,235,235,236,236],"right_children":[2,4,6,8,10,12,14,16,18,20,22,24,26,28,30,32,34,36,38,40,42,44,46,48,50,52,54,56,58,60,62,64,66,68,70,72,74,76,78,80,82,-1,84,86,88,90,-1,92,94,96,98,100,102,104,106,108,110,112,114,116,118,120,122,124,126,128,130,132,134,136,138,140,142,144,146,-1,148,150,152,154,156,158,160,162,164,166,168,170,172,174,176,178,180,182,184,186,188,190,192,194,196,198,-1,200,202,-1,204,206,208,210,212,214,216,218,220,222,224,226,228,230,232,234,236,238,240,242,244,246,248,250,252,-1,-1,-1,-1,254,256,258,-1,260,-1,262,264,266,268,270,272,274,-1,276,-1,-1,-1,278,-1,280,-1,282,284,286,288,290,292,-1,294,296,298,300,302,304,306,308,-1,310,312,314,-1,316,318,320,322,324,326,328,330,332,334,336,338,340,342,344,346,348,350,352,354,356,358,360,-1,-1,362,364,-1,366,368,370,372,374,376,378,380,382,384,386,388,390,392,394,396,398,400,402,404,406,408,410,412,414,416,418,420,422,424,426,428,-1,-1,-1,-1,-1,-1,-1,-1,-1,-1,-1,-1,-1,-1,-1,-1,-1,-1,-1,-1,-1,-1,-1,-1,-1,-1,-1,-1,-1,-1,-1,-1,-1,-1,-1,-1,-1,-1,-1,-1,-1,-1,-1,-1,-1,-1,-1,-1,-1,-1,-1,-1,-1,-1,-1,-1,-1,-1,-1,-1,-1,-1,-1,-1,-1,-1,-1,-1,-1,-1,-1,-1,-1,-1,-1,-1,-1,-1,-1,-1,-1,-1,-1,-1,-1,-1,-1,-1,-1,-1,-1,-1,-1,-1,-1,-1,-1,-1,-1,-1,-1,-1,-1,-1,-1,-1,-1,-1,-1,-1,-1,-1,-1,-1,-1,-1,-1,-1,-1,-1,-1,-1,-1,-1,-1,-1,-1,-1,-1,-1,-1,-1,-1,-1,-1,-1,-1,-1,-1,-1,-1,-1,-1,-1,-1,-1,-1,-1,-1,-1,-1,-1,-1,-1,-1,-1,-1,-1,-1,-1,-1,-1,-1,-1,-1,-1,-1,-1,-1,-1,-1,-1,-1,-1,-1,-1,-1,-1,-1,-1,-1,-1,-1,-1,-1,-1,-1,-1,-1,-1,-1,-1],"split_conditions":[1E0,2E-1,1E-1,9.945111E-4,5.5E0,8.9E0,9.2E0,8.4E0,9.9E0,1E1,8.9E0,9.954305E-4,8.7231817E-4,3E0,7.3E0,5.2086706E-4,4.852666E-4,9.301259E-4,4.341621E-4,9.655142E-4,1.5055876E-4,1E-1,7.5E0,7.4E0,6.1E0,8.1E0,1.26E1,9E0,3.7E0,1.3E1,7.9E0,7.5E0,6.1865954E-4,1.24E1,1.04E1,2.9071962E-4,7.4E0,1.8992643E-4,1.13E1,8.5E0,5.1321177E-4,2.0231913E-1,1.14E1,1.04E1,9.2E0,1.05E1,2.0079628E-1,2E-1,9.5291407E-4,7.8092795E-4,1E0,9.4E0,6.9E0,9.4114896E-4,4.7279964E-4,6E0,9.7084604E-4,9.8E0,9.8E0,8.8E0,1.38E1,1.14E1,7.5E0,9.805894E-4,1.2E1,8.5E0,8.5E0,1.11E1,5.7E0,9.77175E-4,1.19E1,1.13E1,1.03E1,8.572451E-4,3.8333217E-4,1.6406551E-1,1.28E1,9.4E0,5.050089E-4,1.18E1,8.3E0,5.8E0,5.1177345E-4,4.3792668E-4,1.525759E-4,5.9E0,1.12E1,4.8E0,4.3E0,4.7E0,1.24E1,9.66604E-4,1.05E1,1.06E1,1.1E1,7.779376E-4,4.2E0,5E-1,8.960013E-4,1E1,7.8084395E-4,9.855686E-4,-5.328823E-2,8.2E0,2.532485E-4,-1.11682296E-1,1.13E1,9.911903E-4,3.5353156E-4,3.137806E-4,6.8E0,6.1E0,2.4E0,9.8E0,6.9E0,2.769082E-4,3.0335193E-4,1.01E1,4.979709E-4,1.12E1,2.3E0,1.21E1,3.512225E-4,7.8E0,1.9701301E-4,5.1E0,2.672177E-4,2.927246E-4,5.2630797E-4,8.8E0,1.24E1,1.4665303E-1,1.6519175E-1,1.6269627E-1,2.1793103E-1,7.594835E-4,7.6E0,5E-1,1.6385761E-1,1.7372066E-4,1.547659E-1,3.1060647E-4,3.841418E-4,7.6E0,9.601324E-4,2.532485E-4,7.5300876E-4,4.4306347E-4,1.4630066E-1,1.26E1,1.4877443E-1,1.4542113E-1,1.1952503E-1,7E0,1.76914E-1,3.2183883E-4,1.8010555E-1,2.9509905E-4,1.1E1,2.4E0,4.6875206E-4,2E-1,4.1302183E-4,1.9969288E-1,1.28E1,5.259559E-4,4.9940834E-4,5.414691E-4,1.38E1,1E-1,9.5E0,1.53E1,2.0152228E-1,6.9E0,8.7E0,1.21E1,1.9737843E-1,8.3E0,9.961444E-4,9.655142E-4,4.9509207E-4,3.7619274E-4,8.9E0,3.5E0,1.35E1,6.9474534E-4,1E-1,5.7E0,6.439651E-4,3.5927078E-4,9.372302E-4,1E-1,7.6E0,9.850505E-4,2.45243E-4,1.33E1,1.27E1,6.1185856E-4,1.25E1,8.6E0,-2.762185E-2,-9.0279095E-2,1.07E1,1.17E1,-2.2121817E-2,7.9E0,7.1E0,4.5E0,9.9E0,1.21E1,2.9655773E-4,1.13E1,1.4E1,1E0,7.1E0,7.8954507E-4,7E0,2E-1,5.8E0,4.726747E-4,3.3436753E-4,3.9183392E-4,4E-1,2.3472372E-4,9E0,2.6314397E-4,6.615191E-4,8.5595925E-4,1.47E1,6.8E0,3.075457E-4,3.0256258E-4,3.2026746E-4,3.8381148E-4,7.7519065E-4,9.938345E-4,4.4957708E-4,1.1491417E-1,1.4771962E-1,1.18394814E-1,9.217175E-2,1.3483827E-1,1.6266215E-1,1.8232612E-1,1.5780467E-1,1.181229E-1,9.531715E-2,1.5326993E-1,1.2770903E-1,7.038347E-2,1.4314203E-1,1.3927731E-1,1.9265367E-1,1.3993895E-1,1.0684519E-1,6.272297E-2,1.2948446E-1,1.2790489E-1,1.5472771E-1,1.2397819E-1,1.03025876E-1,9.981219E-2,4.5760006E-2,1.6872744E-1,1.300817E-1,4.7326095E-2,1.10193245E-1,2.0730184E-2,8.544671E-3,1.19842045E-1,8.974401E-2,5.7854373E-2,3.7725292E-2,1.4803918E-1,1.1796707E-1,8.116942E-2,1.0097819E-1,1.1875063E-1,1.4077878E-1,1.7563868E-1,1.4608876E-1,1.1795695E-1,7.677883E-2,1.2689935E-1,1.5604526E-1,7.824475E-2,1.2522075E-1,1.0463698E-1,5.1812913E-2,1.5234105E-1,1.8725318E-1,1.547503E-1,1.325106E-1,1.5417443E-1,1.6786872E-1,1.314266E-1,8.1297494E-2,1.5041617E-1,1.3404858E-1,1.6678052E-1,1.491532E-1,1.7209868E-1,1.923372E-1,1.2961829E-1,1.6121356E-1,1.6927595E-1,1.9829224E-1,1.817906E-1,4.5133997E-2,1.2546553E-1,1.597932E-1,1.6363545E-1,1.8015878E-1,1.7804909E-1,1.9217525E-1,-1.4160186E-1,-1.0716418E-1,-1.5622166E-1,-6.9257416E-2,-1.2428307E-1,-1.5006994E-1,-8.876192E-2,-1.1566037E-1,-7.432034E-2,-1.04924634E-1,-7.615642E-2,-4.895702E-2,-1.33731E-1,-1.0548569E-1,-1.092127E-1,-1.1571308E-2,-1.4918458E-1,-1.6874492E-1,-4.5041475E-3,-1.3557248E-1,-1.7815666E-1,-1.5344761E-1,-6.840174E-2,-1.4063482E-1,-1.361655E-1,-1.5771793E-1,-1.2687768E-1,-6.759422E-2,-1.5831971E-1,-6.87172E-2,-1.1129369E-1,-6.68106E-2,-1.2350213E-1,-1.521337E-1,-2.023077E-2,-1.15917735E-1,-8.560229E-2,-1.9382596E-3,-1.1164594E-1,-9.725776E-2,-7.184918E-2,-9.27927E-2,-2.774474E-2,7.413793E-3,-1.1235874E-1,-4.4708554E-2,-1.4235972E-1,-1.1375435E-1,-1.2643379E-1,-3.4115102E-2,-1.2853722E-1,-9.761181E-2,-1.5190578E-1,-1.2631176E-1,-1.24778114E-1,-1.06752835E-1,-1.2896252E-1,-1.03231706E-1,-6.693264E-2,5.0062896E-4,-6.0942765E-2,-9.418773E-2,-1.2761085E-1,-1.09643556E-1,-9.981819E-2,-6.803112E-2,-1.3606805E-1,-1.148232E-1,-1.1069732E-1,-9.839848E-2,-8.778179E-2,-1.04975656E-1,-9.335189E-2,-7.4434206E-2,-1.131925E-1,-9.376874E-2,-7.941478E-2,-5.5138644E-2,-5.7663437E-2,-8.052882E-2,-4.8762046E-2,-6.037875E-2,3.968228E-3,-6.9651894E-2,-1.0813397E-1,-9.100636E-2,-9.327657E-3,-6.0123093E-2,-9.170085E-2,-6.341326E-2,-1.9751957E-2,-9.998488E-2,-7.277878E-2,-8.51963E-2,-2.416781E-2,-5.837381E-2,-7.4453644E-2,-4.4275712E-2,-1.08944945E-1,-8.487048E-2,-4.648011E-2,-8.331298E-2,-5.956486E-2,-9.0451665E-2,-5.6575816E-2,-7.110558E-2,-6.3259445E-2,-7.442503E-2,-5.736455E-2,-6.828045E-2,-5.1138964E-2,4.0688873E-3,-5.282669E-2,-6.091736E-2],"split_indices":[30,2,2,16,4,0,1,5,0,2,5,15,11,5,5,17,15,11,10,17,12,8,8,5,0,6,0,3,8,1,6,7,13,9,5,11,0,10,1,0,10,0,1,4,7,0,0,7,19,10,21,1,8,17,10,1,17,5,7,3,2,1,8,19,7,4,9,5,7,18,6,1,4,13,10,0,0,3,11,8,6,0,11,12,11,0,0,9,9,1,2,19,7,9,5,10,3,3,12,0,17,13,0,8,10,0,6,18,12,17,0,6,1,9,2,10,11,0,10,2,4,3,16,9,12,4,17,16,14,1,9,0,0,0,0,11,0,3,0,11,0,13,14,3,10,10,10,11,0,0,0,0,0,1,0,10,0,14,0,1,12,8,10,0,2,12,12,14,4,1,8,6,0,4,3,3,0,9,10,18,17,14,1,1,1,14,0,1,12,10,12,3,1,19,11,1,0,19,0,9,0,0,1,5,0,2,0,2,2,9,13,3,0,0,4,16,3,1,0,19,16,15,6,13,7,12,13,16,3,8,12,10,13,12,10,10,17,0,0,0,0,0,0,0,0,0,0,0,0,0,0,0,0,0,0,0,0,0,0,0,0,0,0,0,0,0,0,0,0,0,0,0,0,0,0,0,0,0,0,0,0,0,0,0,0,0,0,0,0,0,0,0,0,0,0,0,0,0,0,0,0,0,0,0,0,0,0,0,0,0,0,0,0,0,0,0,0,0,0,0,0,0,0,0,0,0,0,0,0,0,0,0,0,0,0,0,0,0,0,0,0,0,0,0,0,0,0,0,0,0,0,0,0,0,0,0,0,0,0,0,0,0,0,0,0,0,0,0,0,0,0,0,0,0,0,0,0,0,0,0,0,0,0,0,0,0,0,0,0,0,0,0,0,0,0,0,0,0,0,0,0,0,0,0,0,0,0,0,0,0,0,0,0,0,0,0,0,0,0,0,0,0,0,0,0,0,0,0,0],"split_type":[0,0,0,0,0,0,0,0,0,0,0,0,0,0,0,0,0,0,0,0,0,0,0,0,0,0,0,0,0,0,0,0,0,0,0,0,0,0,0,0,0,0,0,0,0,0,0,0,0,0,0,0,0,0,0,0,0,0,0,0,0,0,0,0,0,0,0,0,0,0,0,0,0,0,0,0,0,0,0,0,0,0,0,0,0,0,0,0,0,0,0,0,0,0,0,0,0,0,0,0,0,0,0,0,0,0,0,0,0,0,0,0,0,0,0,0,0,0,0,0,0,0,0,0,0,0,0,0,0,0,0,0,0,0,0,0,0,0,0,0,0,0,0,0,0,0,0,0,0,0,0,0,0,0,0,0,0,0,0,0,0,0,0,0,0,0,0,0,0,0,0,0,0,0,0,0,0,0,0,0,0,0,0,0,0,0,0,0,0,0,0,0,0,0,0,0,0,0,0,0,0,0,0,0,0,0,0,0,0,0,0,0,0,0,0,0,0,0,0,0,0,0,0,0,0,0,0,0,0,0,0,0,0,0,0,0,0,0,0,0,0,0,0,0,0,0,0,0,0,0,0,0,0,0,0,0,0,0,0,0,0,0,0,0,0,0,0,0,0,0,0,0,0,0,0,0,0,0,0,0,0,0,0,0,0,0,0,0,0,0,0,0,0,0,0,0,0,0,0,0,0,0,0,0,0,0,0,0,0,0,0,0,0,0,0,0,0,0,0,0,0,0,0,0,0,0,0,0,0,0,0,0,0,0,0,0,0,0,0,0,0,0,0,0,0,0,0,0,0,0,0,0,0,0,0,0,0,0,0,0,0,0,0,0,0,0,0,0,0,0,0,0,0,0,0,0,0,0,0,0,0,0,0,0,0,0,0,0,0,0,0,0,0,0,0,0,0,0,0,0,0,0,0,0,0,0,0,0,0,0,0,0,0,0,0,0,0,0,0,0,0,0,0,0,0,0,0,0,0],"sum_hessian":[1.056E5,5.8137E4,4.7463E4,3.2632E4,2.5505E4,2.5902E4,2.1561E4,1.4461E4,1.8171E4,1.1523E4,1.3982E4,2.3467E4,2.435E3,1.4817E4,6.744E3,1.3245E4,1.216E3,1.6431E4,1.74E3,7.655E3,3.868E3,9.57E3,4.412E3,1.133E4,1.2137E4,1.339E3,1.096E3,7.067E3,7.75E3,3.76E3,2.984E3,6.645E3,6.6E3,7.11E2,5.05E2,8.971E3,7.46E3,5.93E2,1.147E3,2.463E3,5.192E3,1.33E2,3.735E3,5.646E3,3.924E3,2.72E3,1.692E3,1.0266E4,1.064E3,9.536E3,2.601E3,1.172E3,1.67E2,5.41E2,5.55E2,6.005E3,1.062E3,4.105E3,3.645E3,2.54E3,1.22E3,1.096E3,1.888E3,6.081E3,5.64E2,3.622E3,2.978E3,6.57E2,5.4E1,1.84E2,3.21E2,7.61E2,8.21E3,6.262E3,1.198E3,1.28E2,4.65E2,8.24E2,3.23E2,1.957E3,5.06E2,1.695E3,3.497E3,1.825E3,1.91E3,3.851E3,1.795E3,3.384E3,5.4E2,1.096E3,1.624E3,8.868E3,1.398E3,3.22E2,7.42E2,2.864E3,6.672E3,2.447E3,1.54E2,5.54E2,6.18E2,1.48E2,1.9E1,5.1E1,4.9E2,1.73E2,3.82E2,3.301E3,2.704E3,3.07E2,7.55E2,3.443E3,6.62E2,3.281E3,3.64E2,1.286E3,1.254E3,8.82E2,3.38E2,2.74E2,8.22E2,9.5E2,9.38E2,4.3E3,1.781E3,3.38E2,2.26E2,3.419E3,2.03E2,2.862E3,1.16E2,2.53E2,4.04E2,2.2E1,3.2E1,1.07E2,7.7E1,2.48E2,7.3E1,6.79E2,8.2E1,7.988E3,2.22E2,3.83E2,5.879E3,2.79E2,9.19E2,1.96E2,2.69E2,7.97E2,2.7E1,1.39E2,1.84E2,1.873E3,8.4E1,3.75E2,1.31E2,5.01E2,1.194E3,8.75E2,2.622E3,7.67E2,1.058E3,8E1,1.83E3,8.03E2,3.048E3,9.33E2,8.62E2,1.17E3,2.214E3,1.58E2,3.82E2,3.14E2,7.82E2,9.63E2,6.61E2,3.203E3,5.665E3,1.076E3,3.22E2,2.61E2,6.1E1,4.36E2,3.06E2,2.814E3,5E1,6.476E3,1.96E2,2.355E3,9.2E1,3.6E1,1.18E2,1.13E2,4.41E2,7.9E1,5.39E2,1.46E2,2E0,4.9E1,2E0,1.4E1,4.76E2,3.81E2,1E0,8.46E2,2.455E3,5.8E2,2.124E3,3.5E1,2.72E2,3.97E2,3.58E2,1.776E3,1.667E3,3.13E2,3.49E2,3.148E3,1.33E2,1.03E2,2.61E2,4.2E1,1.244E3,8.6E1,1.168E3,1.82E2,7E2,1.39E2,1.99E2,1.54E2,1.2E2,1.1E2,7.12E2,4.59E2,4.91E2,2.4E2,6.98E2,4.037E3,2.63E2,3.82E2,1.399E3,2.49E2,8.9E1,1.22E2,1.04E2,6.67E2,2.752E3,1.05E2,9.8E1,2.757E3,1.05E2,9E1,2.6E1,7.5E1,3.2E1,6.1E1,1.6E1,1.87E2,6.1E1,2.86E2,3.93E2,4.71E2,7.517E3,8.5E1,1.37E2,3.52E2,3.1E1,2.079E3,3.8E3,1.68E2,1.11E2,4.15E2,5.04E2,4E1,1.56E2,3.3E2,4.67E2,1.351E3,5.22E2,9.8E1,2.77E2,6.8E1,4.33E2,8.09E2,3.85E2,1.79E2,6.96E2,5.11E2,2.111E3,6.93E2,7.4E1,3.25E2,7.33E2,8.9E2,9.4E2,3.2E2,4.83E2,1.704E3,1.344E3,5.19E2,4.14E2,6.39E2,2.23E2,7.8E1,1.092E3,2.078E3,1.36E2,1.57E2,1E0,3.1E1,2.83E2,2.61E2,5.21E2,5.9E2,3.73E2,3.039E3,1.64E2,5.624E3,4.1E1,8.38E2,2.38E2,1.55E2,1.67E2,7.1E1,1.9E2,3.8E1,2.3E1,3.63E2,7.3E1,3.03E2,3E0,5.81E2,2.233E3,4.5E1,5E0,6.225E3,2.51E2,1.6E1,1.8E2,2.83E2,2.072E3,6.5E1,2.7E1,3.3E1,3E0,9.8E1,2E1,4.9E1,6.4E1,2E0,4.39E2,7.8E1,1E0,2.94E2,2.45E2,3.8E1,1.08E2,1E0,1E0,4.7E1,2E0,4.38E2,3.8E1,3.8E2,1E0,6.5E2,1.96E2,1.962E3,4.93E2,6.6E1,5.14E2,1.945E3,1.79E2,3.1E1,4E0,1.6E1,2.56E2,1.35E2,2.62E2,3.2E2,3.8E1,3.53E2,1.423E3,8.07E2,8.6E2,1.19E2,1.94E2,9.1E1,2.58E2,1.76E2,2.972E3,6.2E1,7.1E1,3.5E1,6.8E1,5.9E1,2.02E2,4E0,3.8E1,1.005E3,2.39E2,2E0,8.4E1,1.071E3,9.7E1,5E0,1.77E2,2.96E2,4.04E2,1.1E1,1.28E2,1.84E2,1.5E1,9.3E1,6.1E1,1.2E1,1.08E2,8E0,1.02E2,1.22E2,5.9E2,1.18E2,3.41E2,3.26E2,1.65E2,2.39E2,1E0,2.61E2,4.37E2],"tree_param":{"num_deleted":"0","num_feature":"31","num_nodes":"429","size_leaf_vector":"1"}},{"base_weights":[8.0160775E-5,4.2423218E-1,-5.194578E-1,3.1785497E-1,6.175661E-1,-5.9347785E-1,-3.8924178E-1,4.386936E-1,2.3080023E-1,5.20237E-1,6.797736E-1,-6.123964E-1,-4.0513164E-1,-4.266799E-1,-2.9180866E-1,4.2257237E-1,6.488439E-1,1.8555453E-1,5.3405666E-1,6.005078E-1,4.341548E-1,6.437257E-1,7.7301216E-1,-5.3320366E-1,-6.355328E-1,-3.8245857E-1,-4.5457503E-1,-4.6740794E-1,-3.770253E-1,-3.3355942E-1,-2.477456E-1,4.0931305E-1,6.112146E-1,6.301057E-1,7.6366144E-1,3.70287E-1,1.478413E-1,4.057937E-1,5.9135073E-1,5.1174843E-1,6.439568E-1,5.5735004E-1,3.5432702E-1,6.0811585E-1,6.9778264E-1,7.4851114E-1,8.180398E-1,-5.514452E-1,-3.9213178E-1,-6.584786E-1,-5.5050254E-1,-3.999128E-1,-3.2159603E-1,-4.6845192E-1,-3.2688287E-1,-5.152032E-1,-4.272123E-1,-3.894073E-1,-2.6205215E-1,-3.5480833E-1,-2.8706172E-1,-2.6505283E-1,-2.1787426E-1,4.755123E-1,3.7111065E-1,6.627851E-1,5.4353887E-1,1.455556E-1,6.101057E-1,7.659606E-1,4.1648634E-2,2.463405E-1,4.790307E-1,3.0024263E-1,1.2177329E-1,5.089169E-1,3.4265003E-1,6.6574013E-1,5.6720936E-1,4.4744802E-1,5.994151E-1,6.291944E-1,7.989542E-1,5.0616467E-1,6.38229E-1,3.1794798E-1,6.033126E-1,5.38649E-1,6.4217323E-1,6.7890894E-1,7.6299196E-1,7.109385E-1,7.8066146E-1,5.600445E-1,1.6419868E-1,-5.648033E-1,-4.2901364E-1,-4.2788857E-1,-3.5133046E-1,-6.131114E-1,-6.8254596E-1,-5.7385725E-1,-4.8833773E-1,-2.6203486E-1,-4.053753E-1,-3.384374E-1,-2.2555105E-1,-4.1325957E-1,-4.9588835E-1,-3.4284222E-1,-1.2443421E-1,-5.5084103E-1,-4.2700112E-1,-4.3912947E-1,-3.1967592E-1,-4.108959E-1,-3.5021728E-1,-3.0493084E-1,-2.3258297E-1,-3.7647414E-1,-3.176092E-1,-2.9794207E-1,-2.2145681E-1,-2.9085535E-1,-2.4222869E-1,-1.5431024E-1,-2.2160746E-1,4.631529E-1,6.683491E-1,4.5265228E-1,3.3191553E-1,6.3946587E-1,7.339601E-1,4.7938502E-1,5.9173E-1,5.846834E-1,6.9679874E-1,1.5838963E-1,1.269492E-1,4.2050886E-1,1.8980245E-1,5.4041445E-1,4.0106168E-1,4.2818683E-1,2.4939497E-1,1.06291026E-1,3.3691555E-1,1.16343975E-1,4.705509E-1,5.124154E-1,3.002016E-1,1.5960674E-1,6.449591E-1,6.432956E-1,5.351897E-1,5.39715E-1,3.7603307E-1,5.7734907E-1,7.538249E-1,5.112558E-1,6.472676E-1,7.1535003E-1,1.6642278E-1,4.30945E-1,5.48857E-1,1.5829925E-1,6.1323625E-1,2.11477E-1,3.867471E-1,1.3705997E-1,5.588925E-1,4.910808E-1,6.2442565E-1,6.166334E-1,6.918688E-1,6.469637E-1,7.1441364E-1,1.5817904E-1,7.214853E-1,6.73579E-1,1.5045758E-1,7.576496E-1,1.6517682E-1,1.2416109E-1,5.801144E-2,-5.720601E-1,-4.476119E-1,-1.0186922E-1,-4.3307325E-1,-4.345804E-1,-1.8813078E-1,-2.2983457E-1,-3.627756E-1,-6.164103E-1,6.6337556E-2,-6.940176E-1,-5.8347875E-1,-5.9619904E-1,-5.2168846E-1,-5.1173127E-1,-4.1566005E-1,-2.751778E-2,-2.832398E-1,-4.1373855E-1,-3.3363324E-1,-1.9934513E-1,-3.4596658E-1,-1.7318922E-1,-2.8435767E-1,-8.447677E-3,-4.178802E-1,-2.6634958E-1,-4.9991423E-1,-3.5971707E-1,-1.8705912E-1,4.6669156E-3,-1.4887755E-1,-4.3887645E-1,-5.802129E-1,-3.817056E-1,-4.486778E-1,-4.4643244E-1,-3.5646474E-1,-3.4947535E-1,-2.733531E-1,-5.0733787E-1,-4.009174E-1,-3.5952735E-1,-2.533223E-1,-3.5599527E-1,-2.7320832E-1,-2.1018493E-1,-2.4786268E-1,-2.7026823E-1,-3.8238156E-1,-2.412553E-1,-3.2728717E-1,-3.1466046E-1,-2.538823E-1,-2.5298446E-2,-2.2835986E-1,-3.6171025E-1,-2.810216E-1,-1.919953E-1,-2.512584E-1,-1.8683022E-1,-1.0295069E-1,-2.4819115E-1,-2.0991175E-1,9.653398E-2,8.036906E-2,1.2367795E-1,1.5010293E-1,8.6099096E-2,1.19825505E-1,8.588084E-2,5.762263E-2,1.08826615E-1,1.3057917E-1,1.3884942E-1,1.7200014E-1,1.0424399E-1,5.959167E-2,1.0447698E-1,1.2469969E-1,1.2602632E-1,1.11408904E-1,1.3146038E-1,1.5645307E-1,5.1467657E-2,8.6741656E-2,4.3924395E-2,4.1582767E-4,1.0234829E-1,1.2818575E-1,7.14241E-2,9.747178E-2,7.829181E-2,1.1350345E-1,4.6968937E-2,1.14850596E-1,5.3456377E-2,1.7725227E-2,5.194514E-2,7.648321E-2,1.0975853E-1,8.842703E-2,6.830563E-2,1.1359137E-1,5.416563E-2,9.565245E-2,1.2551552E-1,1.4541967E-1,1.4560811E-1,1.2447721E-1,1.2945138E-1,1.02586426E-1,1.0202777E-1,1.4080237E-1,1.19046666E-1,6.780052E-2,1.2043162E-1,9.870251E-2,1.5446995E-1,8.611792E-2,1.2313695E-1,7.802678E-2,1.2338524E-1,1.3663301E-1,1.4450622E-1,6.0432237E-2,9.9493705E-2,7.9366595E-2,1.0261568E-1,1.2136431E-1,1.18595116E-1,1.349648E-1,3.6519725E-2,8.65555E-2,1.0240572E-1,6.271733E-2,9.9081956E-2,1.1941718E-1,1.12605594E-1,8.529292E-2,1.5945016E-1,1.2304919E-1,1.2091482E-1,1.4330547E-1,1.3727804E-1,1.6074602E-1,1.2680738E-1,1.5241073E-1,1.6928983E-1,1.4133188E-1,7.1512826E-2,1.4496462E-1,1.4531018E-1,1.2921901E-1,1.4306985E-1,1.5579306E-1,-1.0105921E-1,-1.16461635E-1,-7.5566575E-2,-9.781762E-2,-4.5419885E-3,-4.5246273E-2,-9.005971E-2,-7.133907E-2,-5.9288677E-2,-8.868148E-2,-2.8997213E-3,-4.0519495E-2,-6.275924E-2,-2.5252134E-2,-7.441687E-2,-4.4885077E-2,-1.2448235E-1,-8.110478E-2,-9.3633324E-2,5.1537473E-2,-1.3936917E-1,-8.820369E-2,-1.22312166E-1,-7.788601E-2,-1.2134482E-1,-9.6849196E-2,-8.4546275E-2,-1.08179525E-1,-1.0411137E-1,-7.484042E-2,-7.9934135E-2,-1.00980915E-1,2.576465E-2,-1.6910126E-2,-9.733386E-3,-5.9216794E-2,-6.9160454E-2,-8.450138E-2,-6.769039E-2,-3.183333E-2,-4.2050656E-2,1.8817813E-3,-4.9436357E-2,-7.186036E-2,-3.6996868E-2,5.2163424E-3,-2.939634E-3,-5.862989E-2,1.8435216E-2,-3.1031895E-2,-8.4381886E-2,-1.07053295E-2,-6.479496E-2,-9.381463E-4,-4.3186124E-2,-1.0058042E-1,-5.312699E-2,-7.518895E-2,-4.469264E-2,-1.5317447E-2,-4.044198E-2,-1.16651645E-2,-9.251375E-2,-7.515649E-2,-1.1845012E-1,-8.976377E-2,-3.509105E-2,-7.779987E-2,-1.468806E-2,-9.0086326E-2,-8.171009E-2,-9.2434414E-2,-7.381122E-2,-4.17757E-2,1.4586798E-2,-7.033933E-2,-3.497727E-2,-5.886929E-2,-1.10682726E-1,-6.61649E-2,-7.539504E-2,-8.47441E-2,-9.474571E-2,-7.09317E-2,-5.36333E-2,-3.4647014E-2,-5.5357583E-2,-7.768125E-2,-5.5372685E-2,-2.3829646E-2,-4.2307585E-2,-1.5577175E-2,-4.1111693E-2,-5.1989805E-2,-5.804455E-2,-9.126605E-3,-8.386412E-2,-7.2542675E-2,-2.5065754E-2,-5.0681617E-2,-4.3735534E-2,-6.693599E-2,-4.6543017E-2,-6.5416835E-2,-5.933522E-2,-4.4107486E-2,2.123182E-2,-2.9664636E-2,3.7284733E-3,-4.6159394E-2,-1.8022005E-2,-7.280152E-2,-5.696822E-2,-2.6386363E-2,7.0856437E-3,-3.8826462E-2,-4.4458088E-2,-5.349784E-2,-2.5974328E-2,-4.3517504E-2,-2.9727837E-2,-6.652117E-3,-5.7972293E-2,-4.6250172E-2,-3.582223E-2,-4.361838E-2],"categories":[],"categories_nodes":[],"categories_segments":[],"categories_sizes":[],"default_left":[0,0,0,0,0,0,0,0,0,0,0,0,0,0,0,0,0,0,0,0,0,0,0,0,0,0,0,0,0,0,0,0,0,0,0,0,0,0,0,0,0,0,0,0,0,0,0,0,0,0,0,0,0,0,0,0,0,0,0,0,0,0,0,0,0,0,0,0,0,0,0,0,0,0,0,0,0,0,0,0,0,0,0,0,0,0,0,0,0,0,0,0,0,0,0,0,0,0,0,0,0,0,0,0,0,0,0,0,0,0,0,0,0,0,0,0,0,0,0,0,0,0,0,0,0,0,0,0,0,0,0,0,0,0,0,0,0,0,0,0,0,0,0,0,0,0,0,0,0,0,0,0,0,0,0,0,0,0,0,0,0,0,0,0,0,0,0,0,0,0,0,0,0,0,0,0,0,0,0,0,0,0,0,0,0,0,0,0,0,0,0,0,0,0,0,0,0,0,0,0,0,0,0,0,0,0,0,0,0,0,0,0,0,0,0,0,0,0,0,0,0,0,0,0,0,0,0,0,0,0,0,0,0,0,0,0,0,0,0,0,0,0,0,0,0,0,0,0,0,0,0,0,0,0,0,0,0,0,0,0,0,0,0,0,0,0,0,0,0,0,0,0,0,0,0,0,0,0,0,0,0,0,0,0,0,0,0,0,0,0,0,0,0,0,0,0,0,0,0,0,0,0,0,0,0,0,0,0,0,0,0,0,0,0,0,0,0,0,0,0,0,0,0,0,0,0,0,0,0,0,0,0,0,0,0,0,0,0,0,0,0,0,0,0,0,0,0,0,0,0,0,0,0,0,0,0,0,0,0,0,0,0,0,0,0,0,0,0,0,0,0,0,0,0,0,0,0,0,0,0,0,0,0,0,0,0,0,0,0,0,0,0,0,0,0,0,0,0,0,0,0,0,0,0,0,0,0,0,0,0,0,0,0,0,0,0,0,0,0,0,0,0,0,0,0,0,0,0,0,0,0,0,0,0,0,0,0,0,0,0,0,0,0,0,0,0,0,0,0,0,0,0,0,0,0,0,0,0,0,0,0,0,0,0,0,0,0],"id":3,"left_children":[1,3,5,7,9,11,13,15,17,19,21,23,25,27,29,31,33,35,37,39,41,43,45,47,49,51,53,55,57,59,61,63,65,67,69,71,73,75,77,79,81,83,85,87,89,91,93,95,97,99,101,103,105,107,109,111,113,115,117,119,121,123,125,127,129,131,133,-1,135,137,-1,139,141,143,145,147,149,151,153,155,157,159,161,163,165,167,169,171,173,175,177,179,181,183,-1,185,187,189,191,193,195,197,199,201,203,205,207,209,211,213,215,217,219,221,223,225,227,229,231,233,235,237,239,241,243,245,247,249,251,253,255,257,259,261,263,265,267,-1,-1,269,271,273,275,277,279,281,283,-1,285,287,289,-1,291,293,295,297,299,301,303,305,307,309,-1,311,313,-1,315,317,319,-1,321,323,325,327,329,331,333,-1,335,337,-1,339,-1,-1,-1,341,343,345,347,349,351,353,355,357,359,361,363,365,367,369,371,373,375,377,379,381,383,385,387,389,391,393,395,397,399,-1,401,403,405,407,409,411,413,415,417,419,421,423,425,427,429,431,433,435,437,439,441,443,445,447,449,451,453,455,457,459,461,463,465,-1,-1,-1,-1,-1,-1,-1,-1,-1,-1,-1,-1,-1,-1,-1,-1,-1,-1,-1,-1,-1,-1,-1,-1,-1,-1,-1,-1,-1,-1,-1,-1,-1,-1,-1,-1,-1,-1,-1,-1,-1,-1,-1,-1,-1,-1,-1,-1,-1,-1,-1,-1,-1,-1,-1,-1,-1,-1,-1,-1,-1,-1,-1,-1,-1,-1,-1,-1,-1,-1,-1,-1,-1,-1,-1,-1,-1,-1,-1,-1,-1,-1,-1,-1,-1,-1,-1,-1,-1,-1,-1,-1,-1,-1,-1,-1,-1,-1,-1,-1,-1,-1,-1,-1,-1,-1,-1,-1,-1,-1,-1,-1,-1,-1,-1,-1,-1,-1,-1,-1,-1,-1,-1,-1,-1,-1,-1,-1,-1,-1,-1,-1,-1,-1,-1,-1,-1,-1,-1,-1,-1,-1,-1,-1,-1,-1,-1,-1,-1,-1,-1,-1,-1,-1,-1,-1,-1,-1,-1,-1,-1,-1,-1,-1,-1,-1,-1,-1,-1,-1,-1,-1,-1,-1,-1,-1,-1,-1,-1,-1,-1,-1,-1,-1,-1,-1,-1,-1,-1,-1,-1,-1,-1,-1,-1,-1,-1,-1,-1,-1,-1,-1,-1,-1,-1,-1,-1,-1,-1,-1,-1,-1,-1,-1,-1,-1,-1,-1],"loss_changes":[2.3270781E4,1.1954893E3,4.5725488E2,3.9443555E2,1.2457715E2,1.07575195E2,6.263452E1,5.2929443E1,2.9904712E2,5.536377E1,4.180127E1,5.0041016E1,2.9258118E0,2.4955322E1,8.709137E0,3.6238037E1,1.9219971E0,1.3212744E2,2.0556946E1,1.5725098E1,3.8038696E1,1.7057861E1,3.253418E0,1.5797852E1,4.1145508E1,1.8919373E0,1.3778534E0,1.2887939E1,7.8771973E0,2.3197937E0,1.1463165E0,3.4301025E1,2.9762573E0,1.4430237E0,3.4606934E-2,4.3228546E1,6.2566833E1,5.53627E0,3.1314697E0,7.471405E0,5.883423E0,5.998413E0,2.120285E1,1.2626221E1,3.9128418E0,2.2003174E0,4.729004E-1,8.765747E0,8.942642E-1,1.7867676E1,6.2922363E0,1.0039062E0,6.175842E-1,9.716644E-1,2.4166203E-1,9.546814E0,4.616699E0,4.1156616E0,6.2153244E-1,1.2328186E0,4.8649597E-1,7.952652E-1,1.698761E-1,1.1571533E1,2.7492188E1,4.2358398E-1,1.011734E0,0E0,1.3733826E0,1.2214661E-2,0E0,1.4740135E1,7.976959E0,1.4862747E1,4.4791275E1,6.5081024E-1,3.7880096E0,7.856903E-1,3.2662354E0,5.0420837E0,1.5341492E0,5.110901E0,6.732178E-2,2.7820892E0,1.7670288E0,1.5029907E1,7.095566E-1,7.0786133E0,4.2365723E0,2.7147217E0,3.559265E-1,1.135376E0,6.428833E-1,9.8810196E-2,0E0,3.9645996E0,6.8102264E-1,5.2310944E-1,3.8940048E-1,1.3075195E1,1.2021484E1,3.5178223E0,1.9006348E0,2.856083E-1,7.1157837E-1,3.1118393E-1,1.5705991E-1,4.9028015E-1,3.418274E-1,1.4564514E-1,3.2369703E-2,7.0230103E0,7.124176E-1,1.8566284E0,4.2073822E-1,2.9348145E0,1.5309143E0,2.591133E-1,6.0497284E-2,5.5856323E-1,3.8214493E-1,4.0701294E-1,1.4858913E-1,3.7563705E-1,3.0828476E-1,6.594646E-2,1.9974518E-1,5.4154053E0,7.591553E-1,8.845459E0,2.4835815E1,1.7350769E-1,3.3638E-2,1.2488403E0,1.9198608E-1,4.416046E-1,8.668518E-2,0E0,0E0,6.8096924E-1,6.3698616E0,2.424347E0,2.7002869E0,3.1194305E0,7.6595917E0,3.568416E1,3.072174E0,0E0,2.509308E-1,8.310909E-1,2.1717834E0,0E0,1.3475037E-1,3.159027E-1,2.2845764E0,1.3173065E0,3.4671402E0,7.635803E-1,8.0596924E-2,4.1109314E0,1.9855957E0,4.211426E-3,0E0,5.8547974E-1,9.246979E-1,0E0,2.3623657E-1,5.110302E0,1.1314835E1,0E0,1.8912125E-1,5.194519E0,5.279999E-1,2.5012817E0,2.076416E-1,1.7261353E0,7.5024414E-1,0E0,1.4530945E-1,3.5751343E-1,0E0,1.821289E-1,0E0,0E0,0E0,2.901001E0,6.6609573E-1,7.3617645E-2,5.4850006E-1,3.148346E-1,2.7205229E-2,2.3865938E-1,3.144493E-1,7.071533E0,3.0866816E0,6.701172E0,5.979492E0,2.408081E0,1.658905E0,9.412689E-1,2.3770523E-1,6.439154E-2,1.4828634E-1,6.0684204E-1,7.475853E-2,4.9797833E-2,3.6302567E-1,9.414065E-2,6.68149E-2,7.3352754E-2,3.6058044E-1,1.643399E-1,3.1906128E-1,1.0061264E-2,2.3101807E-2,0E0,2.201128E-2,5.19783E-1,2.5021362E0,3.8003922E-1,3.6375427E-1,1.6380615E0,4.3580627E-1,2.3582649E-1,2.6066113E-1,2.2730865E0,1.4563293E0,7.427521E-1,1.4494514E-1,1.0043526E-1,4.5847893E-2,8.5840225E-3,4.371357E-2,2.512226E-1,5.722351E-1,7.249403E-2,3.6922836E-1,4.074669E-1,2.014122E-1,9.6608505E-2,7.0519924E-2,1.7115593E-2,3.0750656E-1,6.714296E-2,2.5226593E-1,2.4298191E-2,6.510498E-2,1.03798866E-1,1.0429764E-1,0E0,0E0,0E0,0E0,0E0,0E0,0E0,0E0,0E0,0E0,0E0,0E0,0E0,0E0,0E0,0E0,0E0,0E0,0E0,0E0,0E0,0E0,0E0,0E0,0E0,0E0,0E0,0E0,0E0,0E0,0E0,0E0,0E0,0E0,0E0,0E0,0E0,0E0,0E0,0E0,0E0,0E0,0E0,0E0,0E0,0E0,0E0,0E0,0E0,0E0,0E0,0E0,0E0,0E0,0E0,0E0,0E0,0E0,0E0,0E0,0E0,0E0,0E0,0E0,0E0,0E0,0E0,0E0,0E0,0E0,0E0,0E0,0E0,0E0,0E0,0E0,0E0,0E0,0E0,0E0,0E0,0E0,0E0,0E0,0E0,0E0,0E0,0E0,0E0,0E0,0E0,0E0,0E0,0E0,0E0,0E0,0E0,0E0,0E0,0E0,0E0,0E0,0E0,0E0,0E0,0E0,0E0,0E0,0E0,0E0,0E0,0E0,0E0,0E0,0E0,0E0,0E0,0E0,0E0,0E0,0E0,0E0,0E0,0E0,0E0,0E0,0E0,0E0,0E0,0E0,0E0,0E0,0E0,0E0,0E0,0E0,0E0,0E0,0E0,0E0,0E0,0E0,0E0,0E0,0E0,0E0,0E0,0E0,0E0,0E0,0E0,0E0,0E0,0E0,0E0,0E0,0E0,0E0,0E0,0E0,0E0,0E0,0E0,0E0,0E0,0E0,0E0,0E0,0E0,0E0,0E0,0E0,0E0,0E0,0E0,0E0,0E0,0E0,0E0,0E0,0E0,0E0,0E0,0E0,0E0,0E0,0E0,0E0,0E0,0E0,0E0,0E0,0E0,0E0,0E0,0E0,0E0,0E0,0E0,0E0,0E0,0E0,0E0,0E0,0E0,0E0,0E0,0E0,0E0,0E0,0E0,0E0,0E0,0E0,0E0,0E0,0E0,0E0],"parents":[2147483647,0,0,1,1,2,2,3,3,4,4,5,5,6,6,7,7,8,8,9,9,10,10,11,11,12,12,13,13,14,14,15,15,16,16,17,17,18,18,19,19,20,20,21,21,22,22,23,23,24,24,25,25,26,26,27,27,28,28,29,29,30,30,31,31,32,32,33,33,34,34,35,35,36,36,37,37,38,38,39,39,40,40,41,41,42,42,43,43,44,44,45,45,46,46,47,47,48,48,49,49,50,50,51,51,52,52,53,53,54,54,55,55,56,56,57,57,58,58,59,59,60,60,61,61,62,62,63,63,64,64,65,65,66,66,68,68,69,69,71,71,72,72,73,73,74,74,75,75,76,76,77,77,78,78,79,79,80,80,81,81,82,82,83,83,84,84,85,85,86,86,87,87,88,88,89,89,90,90,91,91,92,92,93,93,95,95,96,96,97,97,98,98,99,99,100,100,101,101,102,102,103,103,104,104,105,105,106,106,107,107,108,108,109,109,110,110,111,111,112,112,113,113,114,114,115,115,116,116,117,117,118,118,119,119,120,120,121,121,122,122,123,123,124,124,125,125,126,126,127,127,128,128,129,129,130,130,131,131,132,132,133,133,134,134,135,135,136,136,139,139,140,140,141,141,142,142,143,143,144,144,145,145,146,146,148,148,149,149,150,150,152,152,153,153,154,154,155,155,156,156,157,157,158,158,159,159,160,160,161,161,163,163,164,164,166,166,167,167,168,168,170,170,171,171,172,172,173,173,174,174,175,175,176,176,178,178,179,179,181,181,185,185,186,186,187,187,188,188,189,189,190,190,191,191,192,192,193,193,194,194,195,195,196,196,197,197,198,198,199,199,200,200,201,201,202,202,203,203,204,204,205,205,206,206,207,207,208,208,209,209,210,210,211,211,212,212,213,213,214,214,216,216,217,217,218,218,219,219,220,220,221,221,222,222,223,223,224,224,225,225,226,226,227,227,228,228,229,229,230,230,231,231,232,232,233,233,234,234,235,235,236,236,237,237,238,238,239,239,240,240,241,241,242,242,243,243,244,244,245,245,246,246,247,247,248,248],"right_children":[2,4,6,8,10,12,14,16,18,20,22,24,26,28,30,32,34,36,38,40,42,44,46,48,50,52,54,56,58,60,62,64,66,68,70,72,74,76,78,80,82,84,86,88,90,92,94,96,98,100,102,104,106,108,110,112,114,116,118,120,122,124,126,128,130,132,134,-1,136,138,-1,140,142,144,146,148,150,152,154,156,158,160,162,164,166,168,170,172,174,176,178,180,182,184,-1,186,188,190,192,194,196,198,200,202,204,206,208,210,212,214,216,218,220,222,224,226,228,230,232,234,236,238,240,242,244,246,248,250,252,254,256,258,260,262,264,266,268,-1,-1,270,272,274,276,278,280,282,284,-1,286,288,290,-1,292,294,296,298,300,302,304,306,308,310,-1,312,314,-1,316,318,320,-1,322,324,326,328,330,332,334,-1,336,338,-1,340,-1,-1,-1,342,344,346,348,350,352,354,356,358,360,362,364,366,368,370,372,374,376,378,380,382,384,386,388,390,392,394,396,398,400,-1,402,404,406,408,410,412,414,416,418,420,422,424,426,428,430,432,434,436,438,440,442,444,446,448,450,452,454,456,458,460,462,464,466,-1,-1,-1,-1,-1,-1,-1,-1,-1,-1,-1,-1,-1,-1,-1,-1,-1,-1,-1,-1,-1,-1,-1,-1,-1,-1,-1,-1,-1,-1,-1,-1,-1,-1,-1,-1,-1,-1,-1,-1,-1,-1,-1,-1,-1,-1,-1,-1,-1,-1,-1,-1,-1,-1,-1,-1,-1,-1,-1,-1,-1,-1,-1,-1,-1,-1,-1,-1,-1,-1,-1,-1,-1,-1,-1,-1,-1,-1,-1,-1,-1,-1,-1,-1,-1,-1,-1,-1,-1,-1,-1,-1,-1,-1,-1,-1,-1,-1,-1,-1,-1,-1,-1,-1,-1,-1,-1,-1,-1,-1,-1,-1,-1,-1,-1,-1,-1,-1,-1,-1,-1,-1,-1,-1,-1,-1,-1,-1,-1,-1,-1,-1,-1,-1,-1,-1,-1,-1,-1,-1,-1,-1,-1,-1,-1,-1,-1,-1,-1,-1,-1,-1,-1,-1,-1,-1,-1,-1,-1,-1,-1,-1,-1,-1,-1,-1,-1,-1,-1,-1,-1,-1,-1,-1,-1,-1,-1,-1,-1,-1,-1,-1,-1,-1,-1,-1,-1,-1,-1,-1,-1,-1,-1,-1,-1,-1,-1,-1,-1,-1,-1,-1,-1,-1,-1,-1,-1,-1,-1,-1,-1,-1,-1,-1,-1,-1,-1,-1],"split_conditions":[1E0,2.6E0,2.6E0,9.804787E-4,7.1E0,9E0,1.07E1,9.6E0,8.1E0,9.947005E-4,8.2E0,9.952921E-4,7.7519065E-4,1E-1,2.5E0,9.8E0,9.3E0,4.8544785E-4,1.06E1,4.1E0,4.783305E-4,1.08E1,8E0,7.1E0,6.8E0,1.26E1,8.6E0,6.4E0,1.08E1,1.29E1,3.7E0,4.4915124E-4,5.089854E-4,2.3375059E-4,9.907823E-4,5E0,6.0543866E-4,4.942373E-4,2.6056214E-4,8E0,1.18E1,9.8E0,1.03E1,2E-1,1.3E1,1.19E1,1E-1,7.1E0,1.05E1,7.0443586E-4,1.09E1,2.769082E-4,1.43E1,4.7566553E-4,1.2E0,1.01E1,1.11E1,6.8E0,8.1E0,1.09E1,1.37E1,1.17E1,6.7E0,7.9E0,3.7416889E-4,1.09E1,8E-1,1.455556E-1,8.7E0,1E0,4.1648634E-2,3.2169555E-4,3.0704055E-4,3.4671676E-4,8.9E0,4.648316E-4,3.8893532E-4,1.525759E-4,3.5927078E-4,4.6989444E-4,9.9E0,1E-1,1E-1,2.1E0,1.6654577E-4,1E-1,3.165697E-4,1.12E1,4.6E0,1.18E1,6.9131586E-4,1.06E1,1.28E1,6.472175E-4,1.6419868E-1,6.3E0,2.6056604E-4,1.29E1,3.158317E-4,9.961444E-4,5.7E0,6.6E0,2E0,2.9833114E-4,7.8E0,3.0256258E-4,4.2622522E-4,2.55487E-4,3.0414798E-4,1E-1,3.0726046E-4,4.332015E-4,5.5052835E-4,1.13E1,1.06E1,1E-1,1.05E1,1.08E1,5.2638794E-4,3.158317E-4,3.1560424E-4,1.36E1,2.5937904E-4,7.6E0,3.5149124E-4,6.2E0,9.2E0,5.6198006E-4,1.2E1,4.4E0,3.5606045E-4,1.1E1,2E-1,9.947005E-4,1.13E1,4.1302183E-4,9E-1,1.5838963E-1,1.269492E-1,3.6506116E-4,1E0,1.25E1,9.5E0,8.8E0,1.1E1,7.4416323E-4,1.21E1,1.16343975E-1,1.8711222E-4,3.7818647E-4,8.6E0,1.5960674E-1,1.39E1,1.7175863E-4,3.158317E-4,8E0,2.7950414E-4,7.677979E-4,7.051533E-4,5.3079677E-4,6.1E0,9.850505E-4,1.6642278E-1,2.2615082E-4,6E-1,1.5829925E-1,1.32E1,1.01E1,5.2630797E-4,1.3705997E-1,1.9E0,5.351202E-4,1.6083327E-4,1.23E1,1.08E1,9.1E0,1.525759E-4,1.5817904E-1,1E-1,3.2306448E-4,1.5045758E-1,4.4E0,1.6517682E-1,1.2416109E-1,5.801144E-2,2.9395346E-4,4.1539816E-4,5.5E0,1.1E1,2.9833114E-4,1.31E1,1.04E1,1.15E1,9.8E0,8.474872E-4,9.8E0,1E0,1E-1,3.8893532E-4,1E-1,8.734349E-4,2.4169036E-4,2.972311E-4,4.042595E-4,1.38E1,1E-1,3.295231E-4,4.180553E-4,5.359849E-4,1.12E1,1.23E1,1E-1,3.0511225E-4,3.4124413E-4,8.5E0,4.6669156E-3,9.4727386E-4,1E0,9.5E0,2.545213E-4,2.8809093E-4,3.809106E-4,1.4E1,3.2E0,3.5606645E-4,9.8E0,6.18437E-4,2E-1,1.23E1,4.540958E-4,1.49E1,1.52E1,3.9383935E-4,1.25E1,1.06E1,3.2169555E-4,3.1417055E-4,3.0726046E-4,1.36E1,1.16E1,7E0,1.08E1,1.51E1,5.3E0,3.91661E-4,4.4E0,4.831206E-4,1.07E1,4.1144527E-4,9.653398E-2,8.036906E-2,1.2367795E-1,1.5010293E-1,8.6099096E-2,1.19825505E-1,8.588084E-2,5.762263E-2,1.08826615E-1,1.3057917E-1,1.3884942E-1,1.7200014E-1,1.0424399E-1,5.959167E-2,1.0447698E-1,1.2469969E-1,1.2602632E-1,1.11408904E-1,1.3146038E-1,1.5645307E-1,5.1467657E-2,8.6741656E-2,4.3924395E-2,4.1582767E-4,1.0234829E-1,1.2818575E-1,7.14241E-2,9.747178E-2,7.829181E-2,1.1350345E-1,4.6968937E-2,1.14850596E-1,5.3456377E-2,1.7725227E-2,5.194514E-2,7.648321E-2,1.0975853E-1,8.842703E-2,6.830563E-2,1.1359137E-1,5.416563E-2,9.565245E-2,1.2551552E-1,1.4541967E-1,1.4560811E-1,1.2447721E-1,1.2945138E-1,1.02586426E-1,1.0202777E-1,1.4080237E-1,1.19046666E-1,6.780052E-2,1.2043162E-1,9.870251E-2,1.5446995E-1,8.611792E-2,1.2313695E-1,7.802678E-2,1.2338524E-1,1.3663301E-1,1.4450622E-1,6.0432237E-2,9.9493705E-2,7.9366595E-2,1.0261568E-1,1.2136431E-1,1.18595116E-1,1.349648E-1,3.6519725E-2,8.65555E-2,1.0240572E-1,6.271733E-2,9.9081956E-2,1.1941718E-1,1.12605594E-1,8.529292E-2,1.5945016E-1,1.2304919E-1,1.2091482E-1,1.4330547E-1,1.3727804E-1,1.6074602E-1,1.2680738E-1,1.5241073E-1,1.6928983E-1,1.4133188E-1,7.1512826E-2,1.4496462E-1,1.4531018E-1,1.2921901E-1,1.4306985E-1,1.5579306E-1,-1.0105921E-1,-1.16461635E-1,-7.5566575E-2,-9.781762E-2,-4.5419885E-3,-4.5246273E-2,-9.005971E-2,-7.133907E-2,-5.9288677E-2,-8.868148E-2,-2.8997213E-3,-4.0519495E-2,-6.275924E-2,-2.5252134E-2,-7.441687E-2,-4.4885077E-2,-1.2448235E-1,-8.110478E-2,-9.3633324E-2,5.1537473E-2,-1.3936917E-1,-8.820369E-2,-1.22312166E-1,-7.788601E-2,-1.2134482E-1,-9.6849196E-2,-8.4546275E-2,-1.08179525E-1,-1.0411137E-1,-7.484042E-2,-7.9934135E-2,-1.00980915E-1,2.576465E-2,-1.6910126E-2,-9.733386E-3,-5.9216794E-2,-6.9160454E-2,-8.450138E-2,-6.769039E-2,-3.183333E-2,-4.2050656E-2,1.8817813E-3,-4.9436357E-2,-7.186036E-2,-3.6996868E-2,5.2163424E-3,-2.939634E-3,-5.862989E-2,1.8435216E-2,-3.1031895E-2,-8.4381886E-2,-1.07053295E-2,-6.479496E-2,-9.381463E-4,-4.3186124E-2,-1.0058042E-1,-5.312699E-2,-7.518895E-2,-4.469264E-2,-1.5317447E-2,-4.044198E-2,-1.16651645E-2,-9.251375E-2,-7.515649E-2,-1.1845012E-1,-8.976377E-2,-3.509105E-2,-7.779987E-2,-1.468806E-2,-9.0086326E-2,-8.171009E-2,-9.2434414E-2,-7.381122E-2,-4.17757E-2,1.4586798E-2,-7.033933E-2,-3.497727E-2,-5.886929E-2,-1.10682726E-1,-6.61649E-2,-7.539504E-2,-8.47441E-2,-9.474571E-2,-7.09317E-2,-5.36333E-2,-3.4647014E-2,-5.5357583E-2,-7.768125E-2,-5.5372685E-2,-2.3829646E-2,-4.2307585E-2,-1.5577175E-2,-4.1111693E-2,-5.1989805E-2,-5.804455E-2,-9.126605E-3,-8.386412E-2,-7.2542675E-2,-2.5065754E-2,-5.0681617E-2,-4.3735534E-2,-6.693599E-2,-4.6543017E-2,-6.5416835E-2,-5.933522E-2,-4.4107486E-2,2.123182E-2,-2.9664636E-2,3.7284733E-3,-4.6159394E-2,-1.8022005E-2,-7.280152E-2,-5.696822E-2,-2.6386363E-2,7.0856437E-3,-3.8826462E-2,-4.4458088E-2,-5.349784E-2,-2.5974328E-2,-4.3517504E-2,-2.9727837E-2,-6.652117E-3,-5.7972293E-2,-4.6250172E-2,-3.582223E-2,-4.361838E-2],"split_indices":[30,3,3,16,1,1,1,1,1,17,6,18,10,7,6,6,8,10,1,4,13,3,9,6,0,2,4,0,6,3,9,18,16,11,12,0,12,11,11,3,7,3,4,5,4,1,7,8,6,12,0,10,1,11,3,3,4,9,8,4,4,4,9,8,15,0,5,0,4,25,0,14,10,12,0,10,10,11,10,15,8,0,8,4,13,0,14,1,9,0,10,4,3,13,0,5,14,5,12,10,1,1,1,12,6,10,11,12,12,9,11,13,14,2,5,4,3,4,19,12,11,1,13,0,15,9,7,19,8,5,12,6,2,17,6,10,8,0,0,15,24,0,0,2,5,14,0,0,11,13,2,0,1,10,12,9,19,13,18,14,9,16,0,13,6,0,3,3,10,0,0,11,11,5,7,9,11,0,0,16,0,7,0,0,0,17,15,6,9,12,5,5,2,4,11,6,20,5,10,5,10,10,17,12,7,7,12,11,14,0,7,4,17,13,7,0,10,20,4,14,17,13,0,3,14,3,11,4,0,14,7,8,12,3,0,14,13,11,3,0,2,1,6,3,14,9,14,3,19,0,0,0,0,0,0,0,0,0,0,0,0,0,0,0,0,0,0,0,0,0,0,0,0,0,0,0,0,0,0,0,0,0,0,0,0,0,0,0,0,0,0,0,0,0,0,0,0,0,0,0,0,0,0,0,0,0,0,0,0,0,0,0,0,0,0,0,0,0,0,0,0,0,0,0,0,0,0,0,0,0,0,0,0,0,0,0,0,0,0,0,0,0,0,0,0,0,0,0,0,0,0,0,0,0,0,0,0,0,0,0,0,0,0,0,0,0,0,0,0,0,0,0,0,0,0,0,0,0,0,0,0,0,0,0,0,0,0,0,0,0,0,0,0,0,0,0,0,0,0,0,0,0,0,0,0,0,0,0,0,0,0,0,0,0,0,0,0,0,0,0,0,0,0,0,0,0,0,0,0,0,0,0,0,0,0,0,0,0,0,0,0,0,0,0,0,0,0,0,0,0,0,0,0,0,0,0,0,0,0,0,0,0,0,0,0,0,0],"split_type":[0,0,0,0,0,0,0,0,0,0,0,0,0,0,0,0,0,0,0,0,0,0,0,0,0,0,0,0,0,0,0,0,0,0,0,0,0,0,0,0,0,0,0,0,0,0,0,0,0,0,0,0,0,0,0,0,0,0,0,0,0,0,0,0,0,0,0,0,0,0,0,0,0,0,0,0,0,0,0,0,0,0,0,0,0,0,0,0,0,0,0,0,0,0,0,0,0,0,0,0,0,0,0,0,0,0,0,0,0,0,0,0,0,0,0,0,0,0,0,0,0,0,0,0,0,0,0,0,0,0,0,0,0,0,0,0,0,0,0,0,0,0,0,0,0,0,0,0,0,0,0,0,0,0,0,0,0,0,0,0,0,0,0,0,0,0,0,0,0,0,0,0,0,0,0,0,0,0,0,0,0,0,0,0,0,0,0,0,0,0,0,0,0,0,0,0,0,0,0,0,0,0,0,0,0,0,0,0,0,0,0,0,0,0,0,0,0,0,0,0,0,0,0,0,0,0,0,0,0,0,0,0,0,0,0,0,0,0,0,0,0,0,0,0,0,0,0,0,0,0,0,0,0,0,0,0,0,0,0,0,0,0,0,0,0,0,0,0,0,0,0,0,0,0,0,0,0,0,0,0,0,0,0,0,0,0,0,0,0,0,0,0,0,0,0,0,0,0,0,0,0,0,0,0,0,0,0,0,0,0,0,0,0,0,0,0,0,0,0,0,0,0,0,0,0,0,0,0,0,0,0,0,0,0,0,0,0,0,0,0,0,0,0,0,0,0,0,0,0,0,0,0,0,0,0,0,0,0,0,0,0,0,0,0,0,0,0,0,0,0,0,0,0,0,0,0,0,0,0,0,0,0,0,0,0,0,0,0,0,0,0,0,0,0,0,0,0,0,0,0,0,0,0,0,0,0,0,0,0,0,0,0,0,0,0,0,0,0,0,0,0,0,0,0,0,0,0,0,0,0,0,0,0,0,0,0,0,0,0,0,0,0,0,0,0,0,0,0,0,0,0,0,0,0,0,0,0,0,0,0,0,0,0,0,0,0,0],"sum_hessian":[1.056E5,5.8137E4,4.7463E4,3.7504E4,2.0633E4,3.0259E4,1.7204E4,1.5703E4,2.1801E4,8.049E3,1.2584E4,2.7495E4,2.764E3,1.2426E4,4.778E3,1.4587E4,1.116E3,1.8972E4,2.829E3,4.162E3,3.887E3,9.081E3,3.503E3,6.222E3,2.1273E4,1.901E3,8.63E2,6.822E3,5.604E3,2.45E3,2.328E3,1.3632E4,9.55E2,9.65E2,1.51E2,3.215E3,1.5757E4,8.76E2,1.953E3,1.372E3,2.79E3,1.526E3,2.361E3,5.482E3,3.599E3,2.28E3,1.223E3,5.507E3,7.15E2,1.6747E4,4.526E3,1.473E3,4.28E2,7.76E2,8.7E1,3.111E3,3.711E3,5.057E3,5.47E2,1.677E3,7.73E2,1.469E3,8.59E2,4.984E3,8.648E3,5.37E2,4.18E2,1.58E2,8.07E2,1.5E2,1E0,1.504E3,1.711E3,2.3E3,1.3457E4,3.3E2,5.46E2,4.72E2,1.481E3,7.95E2,5.77E2,2.552E3,2.38E2,9.39E2,5.87E2,2.062E3,2.99E2,1.809E3,3.673E3,2.8E3,7.99E2,1.062E3,1.218E3,1.6E1,1.207E3,4.962E3,5.45E2,3.76E2,3.39E2,5.814E3,1.0933E4,3.284E3,1.242E3,5.8E1,1.415E3,3.62E2,6.6E1,2.63E2,5.13E2,8E1,7E0,2.212E3,8.99E2,3.338E3,3.73E2,3.26E3,1.797E3,2.19E2,3.28E2,1.054E3,6.23E2,6.6E2,1.13E2,6.84E2,7.85E2,5E1,8.09E2,4.687E3,2.97E2,2.804E3,5.844E3,4.12E2,1.25E2,1.84E2,2.34E2,6.3E2,1.77E2,1.21E2,2.9E1,3.67E2,1.137E3,9.54E2,7.57E2,6.52E2,1.648E3,1.2555E4,9.02E2,1.09E2,2.21E2,1.07E2,4.39E2,5.9E1,4.13E2,4.33E2,1.048E3,3.44E2,4.51E2,5.09E2,6.8E1,3.43E2,2.209E3,7.4E1,1.64E2,3.44E2,5.95E2,7.8E1,5.09E2,8.11E2,1.251E3,1E2,1.99E2,1.168E3,6.41E2,2.435E3,1.238E3,1.484E3,1.316E3,4.67E2,3.32E2,5.67E2,4.95E2,8.19E2,3.99E2,1.2E1,4E0,4.669E3,2.93E2,7E0,5.38E2,3.65E2,1.1E1,3.1E1,3.08E2,5.786E3,2.8E1,9.793E3,1.14E3,2.292E3,9.92E2,9.35E2,3.07E2,5E0,5.3E1,1.263E3,1.52E2,2E1,3.42E2,3.7E1,2.9E1,3E0,2.6E2,1E1,5.03E2,7.1E1,9E0,1E0,6E0,4.63E2,1.749E3,2.97E2,6.02E2,3.063E3,2.75E2,2.23E2,1.5E2,3.01E2,2.959E3,1.637E3,1.6E2,8E1,1.39E2,1.39E2,1.89E2,5.8E1,9.96E2,7.3E1,5.5E2,4.74E2,1.86E2,4E0,1.09E2,7.9E1,6.05E2,1.23E2,6.62E2,2.9E1,2.1E1,2.41E2,5.68E2,3.55E3,1.137E3,1.9E2,1.07E2,2.439E3,3.65E2,1.809E3,4.035E3,5.6E1,3.56E2,1E2,2.5E1,1.48E2,3.6E1,7.9E1,1.55E2,2.3E2,4E2,1.27E2,5E1,2.9E1,3.38E2,9.81E2,1.56E2,7.47E2,2.07E2,5.05E2,2.52E2,5.19E2,1.33E2,1.579E3,6.9E1,1.24E3,1.1315E4,3.37E2,5.65E2,5.4E1,1.67E2,2.8E1,7.9E1,3.79E2,6E1,3.48E2,6.5E1,7.9E1,3.54E2,1.69E2,8.79E2,2.95E2,4.9E1,6.3E1,3.88E2,3.88E2,1.21E2,6.3E1,5E0,1.82E2,1.61E2,1.207E3,1.002E3,7.2E1,2E0,1.12E2,2.32E2,3.74E2,2.21E2,3.91E2,1.18E2,7.19E2,9.2E1,4.59E2,7.92E2,8E1,1.19E2,5.49E2,6.19E2,2.8E1,6.13E2,2.179E3,2.56E2,1.187E3,5.1E1,1.34E3,1.44E2,6.7E1,1.249E3,4E0,3.28E2,1.85E2,3.82E2,2.86E2,5.33E2,6.28E2,4.041E3,1.13E2,1.8E2,5E0,2E0,4.35E2,1.03E2,2.4E1,3.41E2,1E0,1E1,1.6E1,1.5E1,2.87E2,2.1E1,5.624E3,1.62E2,7E0,2.1E1,9.683E3,1.1E2,9.94E2,1.46E2,2.091E3,2.01E2,1.65E2,8.27E2,8.76E2,5.9E1,2.65E2,4.2E1,1E0,4E0,3E0,5E1,1.49E2,1.114E3,1.47E2,5E0,1.9E1,1E0,4.3E1,2.99E2,3.5E1,2E0,1E0,2.8E1,2E0,1E0,2.57E2,3E0,8E0,2E0,6E0,4.97E2,1.3E1,5.8E1,6E0,3E0,3E0,3E0,3.32E2,1.31E2,1.599E3,1.5E2,1.1E1,2.86E2,3E0,5.99E2,9.07E2,2.156E3,2.52E2,2.3E1,1E0,2.22E2,2.8E1,1.22E2,2.37E2,6.4E1,1.452E3,1.507E3,6.3E1,1.574E3,1.33E2,2.7E1,2.6E1,5.4E1,1.35E2,4E0,1.37E2,2E0,4.6E1,1.43E2,5.3E1,5E0,3.39E2,6.57E2,8E0,6.5E1,3.7E1,5.13E2,6.5E1,4.09E2,7.8E1,1.08E2,2E0,2E0,1E0,1.08E2,1E0,7.8E1,5.89E2,1.6E1,1E0,1.22E2,2.43E2,4.19E2,1.2E1,1.7E1,1.2E1,9E0,6.5E1,1.76E2,1.24E2,4.44E2],"tree_param":{"num_deleted":"0","num_feature":"31","num_nodes":"467","size_leaf_vector":"1"}},{"base_weights":[1.1198333E-4,3.3959004E-1,-4.1571003E-1,2.3647854E-1,4.7150013E-1,-4.886928E-1,-3.2801464E-1,3.2708147E-1,1.4048636E-1,4.0023944E-1,5.4318905E-1,-4.9751917E-1,-3.272912E-1,-3.6498976E-1,-2.6079345E-1,3.1468692E-1,5.1483417E-1,1.0038272E-1,2.9493934E-1,3.3128738E-1,5.140288E-1,5.054231E-1,6.075473E-1,-4.565224E-1,-5.3126556E-1,-2.5099906E-1,-3.4246174E-1,-4.0353066E-1,-3.0978194E-1,-3.0507198E-1,-2.1927094E-1,3.6695302E-1,2.669945E-1,4.6199343E-1,5.5757636E-1,1.5895809E-1,3.803383E-2,2.2361426E-1,3.85453E-1,2.9393E-1,4.6606234E-1,6.802006E-1,5.060197E-1,4.3364426E-1,5.3156954E-1,5.770059E-1,6.443539E-1,-4.7105557E-1,-3.61935E-1,-5.525752E-1,-4.554586E-1,-2.6339722E-1,-1.5347669E-1,-3.2192448E-1,-3.8338742E-1,-3.6057463E-1,-4.323166E-1,-3.3217368E-1,-2.7781156E-1,-3.2565376E-1,-2.5078154E-1,-2.3812805E-1,-1.8137608E-1,3.5300192E-1,5.110166E-1,3.8395646E-1,2.4448402E-1,4.376017E-1,5.808032E-1,5.445948E-1,6.842251E-1,3.8698673E-1,1.4063163E-1,7.407284E-2,1.6406113E-2,3.7586024E-1,1.8897434E-1,4.5107654E-1,3.351624E-1,3.9185625E-1,2.4158713E-1,6.349359E-1,4.5112166E-1,1.46879E-1,1.2354018E-1,4.9003133E-1,5.608095E-1,3.99767E-1,5.470192E-1,5.2006066E-1,6.339148E-1,5.521519E-1,6.189642E-1,5.4977506E-1,6.505062E-1,-4.786588E-1,-3.3689407E-1,-3.8846728E-1,-3.0451518E-1,-5.5492675E-1,-3.591243E-1,-4.7136408E-1,-3.8794035E-1,-4.1794125E-2,-2.6886502E-1,-3.128123E-2,-7.438147E-3,-3.3417E-1,-2.7299806E-1,-3.078925E-1,-3.979243E-1,-3.6629188E-1,-2.2627948E-1,-4.4773257E-1,-3.3670956E-1,-3.376261E-1,-2.504402E-1,-2.897444E-1,-2.1017163E-1,-3.7433082E-1,-3.0598748E-1,-2.688145E-1,-2.1266282E-1,-2.7256346E-1,-2.1936326E-1,-1.6576864E-1,-1.9308436E-1,3.4493822E-1,5.316982E-1,5.496571E-1,4.4359604E-1,3.6376983E-1,5.3437674E-1,2.3219971E-1,4.6546963E-1,5.0854963E-1,4.0073887E-1,1.1703813E-1,2.4736121E-2,5.759454E-1,4.8878264E-1,1.4792736E-1,1.0186324E-1,3.271355E-1,4.238174E-1,1.3100229E-1,4.6073255E-1,2.2228643E-1,6.539677E-2,-1.9755465E-1,2.0579083E-2,9.0809904E-2,3.4985563E-1,1.72532E-1,3.6284006E-1,4.2031008E-1,5.2023345E-1,3.0695504E-1,4.370503E-1,3.2914189E-1,4.3669662E-1,3.9028886E-1,1.9310299E-1,1.4745267E-1,5.624581E-1,3.8191414E-1,4.7799754E-1,4.7836405E-1,5.865848E-1,5.915038E-1,5.320747E-1,4.8041433E-1,3.428041E-1,1.4516829E-1,5.386796E-1,5.444125E-1,4.9169138E-1,6.167557E-1,1.4594631E-1,5.1241904E-1,5.8137923E-1,5.902816E-1,6.510064E-1,5.763586E-1,3.7675282E-1,6.4178646E-1,1.3764732E-1,-4.3383312E-1,-4.9409357E-1,-2.9164448E-1,-3.8748288E-1,-3.4303734E-1,-4.1957718E-1,-2.4550185E-1,-3.290904E-1,-5.6301725E-1,-5.0146E-1,-3.7067378E-1,1.4375687E-3,-4.7528815E-1,-2.8929278E-1,-3.4435245E-1,-4.056043E-1,