{"learner":{"attributes":{"best_iteration":"49","best_score":"0.2661487833033153"},"feature_names":[],"feature_types":[],"gradient_booster":{"model":{"gbtree_model_param":{"num_parallel_tree":"1","num_trees":"50"},"iteration_indptr":[0,1,2,3,4,5,6,7,8,9,10,11,12,13,14,15,16,17,18,19,20,21,22,23,24,25,26,27,28,29,30,31,32,33,34,35,36,37,38,39,40,41,42,43,44,45,46,47,48,49,50],"tree_info":[0,0,0,0,0,0,0,0,0,0,0,0,0,0,0,0,0,0,0,0,0,0,0,0,0,0,0,0,0,0,0,0,0,0,0,0,0,0,0,0,0,0,0,0,0,0,0,0,0,0],"trees":[{"base_weights":[6.0516956E-9,-4.2944005E-1,8.1347096E-1,7.140051E-2,-8.0082893E-1,5.7559097E-1,1.2121024E0,6.758257E-3,7.893741E-1,-9.9960726E-1,4.080904E-1,2.7870587E-1,9.38693E-1,1.0034834E0,1.4409292E0,1.8115392E-1,-1.8360192E-1,6.911221E-1,1.1281517E0,-7.818443E-1,-1.4218633E0,9.256628E-2,7.27882E-1,5.7993186E-1,-4.0301015E-3,4.0435797E-1,1.0277021E0,9.2896444E-1,1.2867955E0,1.3197693E0,1.58841E0,1.261403E-1,6.6302264E-1,-2.3975104E-1,5.4714185E-1,5.7856977E-1,8.9137435E-1,9.7185326E-1,1.6350616E0,1.7857777E-1,-8.6385447E-1,-1.5480562E0,-8.223318E-1,5.658525E-1,-2.1336293E-1,5.153509E-1,8.779288E-1,4.4431528E-1,8.609687E-1,3.6060387E-1,-2.218298E-1,9.95964E-2,7.1882385E-1,9.7317857E-1,1.4624867E0,8.393219E-1,1.1342616E0,1.3846918E0,1.1765631E0,1.1114273E0,1.414096E0,1.5221956E0,1.6238277E0,9.21848E-2,6.5583664E-1,4.9108452E-1,8.587271E-1,-3.8847223E-2,-4.347008E-1,7.531599E-1,3.9773992E-1,4.7831133E-1,8.6267155E-1,7.874063E-1,1.0156516E0,2.4950846E-1,9.867303E-1,3.3068088E-1,1.360777E-1,8.887729E-2,7.306375E-1,1.5515949E-1,-9.241953E-1,-1.4487265E0,-1.5957315E0,-9.224662E-2,-1.074126E0,8.9989704E-1,4.3579942E-1,-2.7342895E-1,4.2997527E-1,7.356623E-1,3.6885568E-1,8.3764577E-1,2.7436537E-1,1.9624218E-1,5.8239716E-1,7.69953E-1,1.1328539E0,-8.318966E-2,5.5259097E-1,-3.4501413E-1,6.759562E-1,5.0077355E-1,-2.2003408E-1,9.161036E-1,4.7965613E-1,8.3951193E-1,1.0958087E0,1.2524376E0,1.5465271E0,6.996095E-1,9.608153E-1,9.304206E-1,1.1744151E0,1.45144E0,1.2197645E0,6.480669E-1,1.1945176E0,1.0218668E0,1.4184107E0,1.3103114E0,1.5040392E0,1.4160086E0,3.1337735E-1,3.4888363E-1,3.2023582E-1,6.058914E-2,5.146002E-1,5.298323E-1,8.2679814E-1,4.349039E-1,1.1910933E0,7.4738663E-1,1.1776907E0,-6.895187E-2,7.748321E-1,-1.2618706E-1,-5.362225E-1,6.169766E-1,9.0528154E-1,2.6380098E-1,6.740315E-1,3.2125524E-1,7.072183E-1,9.3346417E-1,6.893793E-1,7.117318E-1,8.9633536E-1,8.913981E-1,1.1106722E0,4.373686E-3,7.419648E-2,1.0765623E0,8.4418625E-1,-5.8623396E-2,2.1712649E-1,7.7296156E-1,5.311454E-1,-1.08186916E-1,4.6172222E-1,-1.9511713E-2,-9.644132E-1,-5.651669E-1,-1.459321E0,-1.05966166E-1,-1.5967848E0,2.5468E-1,-2.8013557E-1,-8.4982467E-1,-1.1756605E0,1.1950127E0,7.998998E-1,3.8076562E-1,7.9987335E-1,-1.0675656E0,-2.1811983E-1,6.964907E-1,9.4213985E-2,1.975961E-1,6.7329854E-1,6.1506885E-1,2.0489247E-1,7.4873304E-1,9.6072644E-1,-2.945053E-3,3.2700303E-1,3.2488346E-1,6.3261414E-1,6.6007346E-1,9.0282154E-1,8.938715E-1,1.2673824E0,-2.150827E-1,4.070089E-1,4.4660717E-1,7.6690125E-1,1.3758783E-1,-5.6584656E-1,9.901998E-1,5.0249535E-1,2.7297288E-1,8.108241E-1,3.9995798E-1,-4.266208E-1,8.047828E-1,1.1814252E0,4.1267663E-1,2.0031123E-1,4.1692922E-1,8.707197E-1,1.0646697E0,1.4894313E0,9.57608E-1,2.7001783E-1,1.6967255E-1,3.1109187E-1,4.708875E-1,8.021547E-1,8.719623E-1,1.1160288E0,7.622281E-1,1.0290502E0,1.0968689E0,1.2556437E0,2.7600637E-1,3.1355277E-1,1.0599623E-1,1.2319818E0,2.2182725E-2,1.444348E-1,1.1423775E0,1.3521765E0,8.9179504E-1,1.1503842E0,1.7443524E-1,1.4784216E0,1.229863E0,1.4072824E0,1.0429516E0,1.5144205E0,1.0890263E0,2.9134294E-1,3.1866156E-2,-1.2299969E-2,8.079832E-2,1.7240004E-1,8.779448E-2,1.4652649E-1,1.9320878E-1,1.4374606E-1,1.342546E-1,5.8722813E-2,7.232641E-2,2.7513975E-1,1.2735559E-1,2.1069399E-1,2.0559834E-1,2.9876778E-1,3.370853E-2,-2.8590748E-2,2.0933567E-1,1.1624756E-1,-4.348762E-2,8.5251026E-2,-5.677491E-3,-1.17696784E-1,1.04972206E-1,1.6992982E-1,1.2907009E-1,1.9192553E-1,2.1996737E-2,1.00989796E-1,7.9111084E-2,1.4842199E-1,1.4427881E-1,4.8565973E-2,1.61476E-1,8.392086E-2,2.121692E-1,1.6478758E-1,1.4691432E-1,8.918783E-2,1.538837E-1,1.0762296E-1,1.8064176E-1,3.4646075E-2,1.7952153E-1,4.1947037E-2,2.0394686E-1,2.6365262E-1,2.035123E-3,-7.230174E-4,2.0150702E-1,2.6087233E-1,1.7814285E-1,1.0919231E-1,1.8252896E-2,-4.1949593E-2,1.0005676E-1,3.357868E-2,1.8443282E-1,1.4547902E-1,1.1114394E-1,2.9862255E-2,-3.9318282E-2,2.5119064E-2,6.2108975E-2,1.5534429E-1,-6.1913896E-2,2.7647236E-2,-1.9892028E-1,2.0021869E-2,-1.3746665E-1,3.1283062E-2,-2.4302188E-1,-2.9467162E-1,-3.1941262E-1,-6.1077625E-2,7.427464E-2,2.564511E-2,-2.5064219E-2,-8.479375E-2,-1.3991262E-1,-1.863207E-1,-2.4105571E-1,-1.3837537E-1,5.4115307E-2,2.4227183E-1,1.2296452E-1,1.7338434E-1,1.00571394E-1,3.9270725E-2,1.8303733E-1,1.081569E-1,-5.396359E-2,-2.1842304E-1,-1.4665996E-2,-7.014545E-2,1.4598028E-1,7.153417E-2,2.6779158E-2,-5.3326953E-2,1.2464126E-1,1.7436323E-1,2.0383775E-1,1.09327175E-1,-1.7874325E-3,5.8354884E-2,2.1205945E-1,1.387779E-1,2.5335476E-1,1.8463895E-1,1.1718942E-1,-2.2157995E-2,2.8510028E-2,7.772037E-2,5.0935503E-2,1.6489789E-1,1.9611824E-1,1.22543134E-1,1.5020435E-1,1.0956394E-1,2.5361183E-1,1.7037533E-1,4.3244984E-2,1.7969714E-1,1.5195383E-1,2.5817865E-1,6.1533492E-2,-6.747421E-2,1.2893163E-1,4.460165E-2,6.406635E-2,1.15355015E-1,1.7723723E-1,1.1863311E-1,-7.481158E-2,6.974144E-2,2.1708855E-2,-1.4282313E-1,2.1463254E-1,8.670915E-2,8.189088E-2,1.4983025E-1,9.029478E-2,1.9199938E-2,7.6359004E-2,1.816927E-1,1.3401343E-1,-8.042206E-3,-1.1855151E-1,6.275765E-3,1.1811496E-1,1.8124165E-1,2.5836524E-1,1.4212692E-1,9.910185E-2,1.1619198E-2,1.2929961E-1,-5.2886397E-2,1.3540255E-1,1.7943113E-1,1.2153937E-1,2.1421027E-1,2.441678E-1,3.1076798E-1,2.0064183E-1,3.0379847E-3,7.89427E-2,2.0692256E-1,1.5432726E-1,2.2512126E-1,1.6367535E-1,2.1806489E-1,1.52688E-1,2.3346965E-1,1.9433491E-1,1.2844281E-1,2.0827328E-1,9.5856E-2,2.0893419E-1,2.4724415E-1,2.5953957E-1,2.132963E-1,2.2708626E-1,2.796097E-1,2.1524453E-1,2.5206602E-1,7.812735E-2,2.7174774E-1,1.2138783E-1,1.8893479E-1,2.1111377E-1,2.580818E-1,3.1634566E-1,2.572409E-1,2.4640022E-1,4.7301076E-2,2.6885402E-1,3.130761E-1,2.1560803E-1,4.113582E-2,2.8747386E-1,3.1329724E-1,2.2225903E-1,5.768466E-2],"categories":[],"categories_nodes":[],"categories_segments":[],"categories_sizes":[],"default_left":[0,0,0,0,0,0,0,0,0,0,0,0,0,0,0,0,0,0,0,0,0,0,0,0,0,0,0,0,0,0,0,0,0,0,0,0,0,0,0,0,0,0,0,0,0,0,0,0,0,0,0,0,0,0,0,0,0,0,0,0,0,0,0,0,0,0,0,0,0,0,0,0,0,0,0,0,0,0,0,0,0,0,0,0,0,0,0,0,0,0,0,0,0,0,0,0,0,0,0,0,0,0,0,0,0,0,0,0,0,0,0,0,0,0,0,0,0,0,0,0,0,0,0,0,0,0,0,0,0,0,0,0,0,0,0,0,0,0,0,0,0,0,0,0,0,0,0,0,0,0,0,0,0,0,0,0,0,0,0,0,0,0,0,0,0,0,0,0,0,0,0,0,0,0,0,0,0,0,0,0,0,0,0,0,0,0,0,0,0,0,0,0,0,0,0,0,0,0,0,0,0,0,0,0,0,0,0,0,0,0,0,0,0,0,0,0,0,0,0,0,0,0,0,0,0,0,0,0,0,0,0,0,0,0,0,0,0,0,0,0,0,0,0,0,0,0,0,0,0,0,0,0,0,0,0,0,0,0,0,0,0,0,0,0,0,0,0,0,0,0,0,0,0,0,0,0,0,0,0,0,0,0,0,0,0,0,0,0,0,0,0,0,0,0,0,0,0,0,0,0,0,0,0,0,0,0,0,0,0,0,0,0,0,0,0,0,0,0,0,0,0,0,0,0,0,0,0,0,0,0,0,0,0,0,0,0,0,0,0,0,0,0,0,0,0,0,0,0,0,0,0,0,0,0,0,0,0,0,0,0,0,0,0,0,0,0,0,0,0,0,0,0,0,0,0,0,0,0,0,0,0,0,0,0,0,0,0,0,0,0,0,0,0,0,0,0,0,0,0,0,0,0,0,0,0,0,0,0,0,0,0,0,0,0,0,0,0,0,0,0,0,0,0,0,0,0,0,0,0,0,0,0,0,0,0,0,0,0,0,0,0,0,0,0,0,0,0],"id":0,"left_children":[1,3,5,7,9,11,13,15,17,19,21,23,25,27,29,31,33,35,37,39,41,43,45,47,49,51,53,55,57,59,61,63,65,67,69,71,73,75,77,79,81,83,85,87,89,91,93,95,97,99,101,103,105,107,109,111,113,115,117,119,121,123,125,127,129,131,133,135,137,139,141,143,145,147,149,151,153,-1,-1,155,157,159,161,163,165,167,169,171,173,175,177,179,181,183,-1,185,187,189,191,193,195,197,199,201,203,205,207,209,211,213,215,217,219,221,223,225,227,229,231,233,235,237,239,241,-1,-1,-1,243,245,247,249,251,253,255,257,259,261,263,265,267,269,271,273,275,277,279,281,283,285,287,289,291,-1,293,295,297,299,301,303,305,307,309,311,313,315,-1,317,319,321,323,325,327,329,331,333,335,337,339,341,-1,343,345,347,349,351,353,355,357,359,361,363,365,367,369,371,373,375,377,379,381,383,385,387,389,391,393,395,397,-1,399,401,403,405,407,-1,-1,-1,409,411,413,415,417,419,421,423,-1,-1,-1,425,-1,-1,427,429,431,433,-1,435,437,439,441,443,445,-1,-1,-1,-1,-1,-1,-1,-1,-1,-1,-1,-1,-1,-1,-1,-1,-1,-1,-1,-1,-1,-1,-1,-1,-1,-1,-1,-1,-1,-1,-1,-1,-1,-1,-1,-1,-1,-1,-1,-1,-1,-1,-1,-1,-1,-1,-1,-1,-1,-1,-1,-1,-1,-1,-1,-1,-1,-1,-1,-1,-1,-1,-1,-1,-1,-1,-1,-1,-1,-1,-1,-1,-1,-1,-1,-1,-1,-1,-1,-1,-1,-1,-1,-1,-1,-1,-1,-1,-1,-1,-1,-1,-1,-1,-1,-1,-1,-1,-1,-1,-1,-1,-1,-1,-1,-1,-1,-1,-1,-1,-1,-1,-1,-1,-1,-1,-1,-1,-1,-1,-1,-1,-1,-1,-1,-1,-1,-1,-1,-1,-1,-1,-1,-1,-1,-1,-1,-1,-1,-1,-1,-1,-1,-1,-1,-1,-1,-1,-1,-1,-1,-1,-1,-1,-1,-1,-1,-1,-1,-1,-1,-1,-1,-1,-1,-1,-1,-1,-1,-1,-1,-1,-1,-1,-1,-1,-1,-1,-1,-1,-1,-1,-1,-1,-1,-1,-1,-1,-1,-1,-1,-1,-1,-1,-1,-1,-1,-1,-1,-1,-1,-1,-1,-1,-1],"loss_changes":[2.0290191E4,7.070912E3,1.9022793E3,7.512566E2,5.245827E3,1.3547788E3,3.565381E2,4.930566E2,4.3723083E1,1.7226152E3,3.110133E2,5.891054E2,2.6849268E2,8.169092E1,6.17666E1,2.0539034E2,2.9148962E2,2.290213E1,2.2100494E1,9.7446924E2,4.8118945E2,2.2498285E2,4.8370605E1,1.2725879E2,2.8351987E2,7.746063E1,1.13456055E2,5.631909E1,7.1657715E0,3.7104004E1,1.296875E0,1.2508682E2,2.6295624E1,2.5828378E2,1.5305634E1,1.8614426E1,4.0068054E0,2.236206E0,8.331299E-2,4.8167564E1,7.0092285E2,2.263086E1,2.0413739E2,2.6108368E1,3.659633E1,2.0255249E1,1.667743E1,7.733487E1,2.6075989E1,1.1379147E2,2.4740894E2,5.2940304E1,1.8339417E1,6.971118E1,7.5603027E0,3.6161743E1,6.6257324E0,2.9192505E0,2.9265137E0,1.5541565E1,1.0640381E1,5.147705E-1,2.5634766E-2,8.72549E1,8.587982E0,1.6195938E1,1.2259827E1,7.96394E1,1.04763306E2,3.8333435E0,1.0776024E1,1.7604607E1,1.4788208E0,1.0683899E0,9.698639E-1,1.7704242E-1,1.9851227E0,0E0,0E0,1.588396E1,7.3773956E-1,5.155709E1,3.914795E2,1.5266846E1,3.1376953E0,1.8713879E1,1.78125E1,4.0609436E0,8.531471E0,3.7716614E1,7.1827106E0,3.3158875E0,1.5376019E1,8.374695E0,0E0,2.1098131E1,1.8571075E1,1.1361084E1,7.5797424E0,2.620767E1,2.0826416E1,2.0960269E2,1.4219849E1,1.2703903E1,2.962952E1,5.4584656E0,5.948784E0,2.6882935E1,2.5918945E1,3.284851E0,1.0501099E0,2.3381561E1,1.499707E1,1.8698273E0,3.5611572E0,3.118286E-1,4.3418884E-1,5.17004E-1,1.5461426E0,7.031433E0,3.2014465E0,3.2230225E0,1.8526611E0,8.227539E-1,0E0,0E0,0E0,7.337815E1,1.7135338E1,4.1744385E0,1.9541168E0,1.2994545E1,4.2493134E0,8.707138E0,2.913086E0,5.5104263E1,5.4964676E0,4.1933746E1,6.681146E1,2.018818E0,7.650757E-1,7.4001017E0,1.5264473E0,9.113609E0,5.4516068E0,8.001251E-1,2.6651573E-1,8.579254E-1,2.4612427E-1,1.3767242E-1,3.5473633E-1,1.7583663E-4,0E0,8.0859375E-1,7.902756E-1,8.875971E0,6.1753864E0,7.707214E-2,1.7037392E-1,7.1342764E0,1.3806911E1,2.10448E1,3.3116406E2,2.0468774E0,4.0305176E0,0E0,7.861328E-1,1.4427738E0,4.0886135E0,2.5555115E0,7.276123E0,2.9179382E-1,1.0795441E0,8.569576E0,1.2080383E0,8.0205154E-1,1.5507256E1,2.4834633E-1,5.6550896E-1,0E0,1.5051804E0,3.6741142E0,4.31269E0,7.5858154E0,2.7933655E0,2.0514822E1,5.50066E0,8.173019E0,7.8052063E0,4.203171E0,5.767151E0,1.21536255E-1,1.0599976E0,2.049627E1,3.6168108E0,1.0104805E1,5.8366394E0,6.688576E1,1.3496573E2,3.921997E0,3.7322922E0,3.3367772E0,2.8786964E0,6.922777E0,1.3182264E1,2.8540955E0,2.3044815E0,4.7586594E0,0E0,2.2695332E1,9.23999E0,5.423828E0,9.055481E-1,1.832695E0,0E0,0E0,0E0,1.3161049E1,6.021576E0,7.7781982E0,6.6723633E0,9.5957184E-1,1.6446686E-1,1.6835327E0,1.6071167E0,0E0,0E0,0E0,4.328766E-1,0E0,0E0,8.9871216E-1,2.4459839E-2,3.1019745E0,1.8109741E0,0E0,3.8815308E-1,4.6258545E-1,6.9506836E-1,3.3646393E-1,5.5249023E-1,1.07357025E-1,0E0,0E0,0E0,0E0,0E0,0E0,0E0,0E0,0E0,0E0,0E0,0E0,0E0,0E0,0E0,0E0,0E0,0E0,0E0,0E0,0E0,0E0,0E0,0E0,0E0,0E0,0E0,0E0,0E0,0E0,0E0,0E0,0E0,0E0,0E0,0E0,0E0,0E0,0E0,0E0,0E0,0E0,0E0,0E0,0E0,0E0,0E0,0E0,0E0,0E0,0E0,0E0,0E0,0E0,0E0,0E0,0E0,0E0,0E0,0E0,0E0,0E0,0E0,0E0,0E0,0E0,0E0,0E0,0E0,0E0,0E0,0E0,0E0,0E0,0E0,0E0,0E0,0E0,0E0,0E0,0E0,0E0,0E0,0E0,0E0,0E0,0E0,0E0,0E0,0E0,0E0,0E0,0E0,0E0,0E0,0E0,0E0,0E0,0E0,0E0,0E0,0E0,0E0,0E0,0E0,0E0,0E0,0E0,0E0,0E0,0E0,0E0,0E0,0E0,0E0,0E0,0E0,0E0,0E0,0E0,0E0,0E0,0E0,0E0,0E0,0E0,0E0,0E0,0E0,0E0,0E0,0E0,0E0,0E0,0E0,0E0,0E0,0E0,0E0,0E0,0E0,0E0,0E0,0E0,0E0,0E0,0E0,0E0,0E0,0E0,0E0,0E0,0E0,0E0,0E0,0E0,0E0,0E0,0E0,0E0,0E0,0E0,0E0,0E0,0E0,0E0,0E0,0E0,0E0,0E0,0E0,0E0,0E0,0E0,0E0,0E0,0E0,0E0,0E0,0E0,0E0,0E0,0E0,0E0,0E0,0E0,0E0,0E0,0E0,0E0,0E0,0E0,0E0,0E0,0E0,0E0,0E0,0E0,0E0,0E0,0E0,0E0,0E0,0E0,0E0],"parents":[2147483647,0,0,1,1,2,2,3,3,4,4,5,5,6,6,7,7,8,8,9,9,10,10,11,11,12,12,13,13,14,14,15,15,16,16,17,17,18,18,19,19,20,20,21,21,22,22,23,23,24,24,25,25,26,26,27,27,28,28,29,29,30,30,31,31,32,32,33,33,34,34,35,35,36,36,37,37,38,38,39,39,40,40,41,41,42,42,43,43,44,44,45,45,46,46,47,47,48,48,49,49,50,50,51,51,52,52,53,53,54,54,55,55,56,56,57,57,58,58,59,59,60,60,61,61,62,62,63,63,64,64,65,65,66,66,67,67,68,68,69,69,70,70,71,71,72,72,73,73,74,74,75,75,76,76,79,79,80,80,81,81,82,82,83,83,84,84,85,85,86,86,87,87,88,88,89,89,90,90,91,91,92,92,93,93,95,95,96,96,97,97,98,98,99,99,100,100,101,101,102,102,103,103,104,104,105,105,106,106,107,107,108,108,109,109,110,110,111,111,112,112,113,113,114,114,115,115,116,116,117,117,118,118,119,119,120,120,121,121,122,122,123,123,127,127,128,128,129,129,130,130,131,131,132,132,133,133,134,134,135,135,136,136,137,137,138,138,139,139,140,140,141,141,142,142,143,143,144,144,145,145,146,146,147,147,148,148,149,149,150,150,151,151,153,153,154,154,155,155,156,156,157,157,158,158,159,159,160,160,161,161,162,162,163,163,164,164,166,166,167,167,168,168,169,169,170,170,171,171,172,172,173,173,174,174,175,175,176,176,177,177,178,178,180,180,181,181,182,182,183,183,184,184,185,185,186,186,187,187,188,188,189,189,190,190,191,191,192,192,193,193,194,194,195,195,196,196,197,197,198,198,199,199,200,200,201,201,202,202,203,203,204,204,205,205,206,206,207,207,209,209,210,210,211,211,212,212,213,213,217,217,218,218,219,219,220,220,221,221,222,222,223,223,224,224,228,228,231,231,232,232,233,233,234,234,236,236,237,237,238,238,239,239,240,240,241,241],"right_children":[2,4,6,8,10,12,14,16,18,20,22,24,26,28,30,32,34,36,38,40,42,44,46,48,50,52,54,56,58,60,62,64,66,68,70,72,74,76,78,80,82,84,86,88,90,92,94,96,98,100,102,104,106,108,110,112,114,116,118,120,122,124,126,128,130,132,134,136,138,140,142,144,146,148,150,152,154,-1,-1,156,158,160,162,164,166,168,170,172,174,176,178,180,182,184,-1,186,188,190,192,194,196,198,200,202,204,206,208,210,212,214,216,218,220,222,224,226,228,230,232,234,236,238,240,242,-1,-1,-1,244,246,248,250,252,254,256,258,260,262,264,266,268,270,272,274,276,278,280,282,284,286,288,290,292,-1,294,296,298,300,302,304,306,308,310,312,314,316,-1,318,320,322,324,326,328,330,332,334,336,338,340,342,-1,344,346,348,350,352,354,356,358,360,362,364,366,368,370,372,374,376,378,380,382,384,386,388,390,392,394,396,398,-1,400,402,404,406,408,-1,-1,-1,410,412,414,416,418,420,422,424,-1,-1,-1,426,-1,-1,428,430,432,434,-1,436,438,440,442,444,446,-1,-1,-1,-1,-1,-1,-1,-1,-1,-1,-1,-1,-1,-1,-1,-1,-1,-1,-1,-1,-1,-1,-1,-1,-1,-1,-1,-1,-1,-1,-1,-1,-1,-1,-1,-1,-1,-1,-1,-1,-1,-1,-1,-1,-1,-1,-1,-1,-1,-1,-1,-1,-1,-1,-1,-1,-1,-1,-1,-1,-1,-1,-1,-1,-1,-1,-1,-1,-1,-1,-1,-1,-1,-1,-1,-1,-1,-1,-1,-1,-1,-1,-1,-1,-1,-1,-1,-1,-1,-1,-1,-1,-1,-1,-1,-1,-1,-1,-1,-1,-1,-1,-1,-1,-1,-1,-1,-1,-1,-1,-1,-1,-1,-1,-1,-1,-1,-1,-1,-1,-1,-1,-1,-1,-1,-1,-1,-1,-1,-1,-1,-1,-1,-1,-1,-1,-1,-1,-1,-1,-1,-1,-1,-1,-1,-1,-1,-1,-1,-1,-1,-1,-1,-1,-1,-1,-1,-1,-1,-1,-1,-1,-1,-1,-1,-1,-1,-1,-1,-1,-1,-1,-1,-1,-1,-1,-1,-1,-1,-1,-1,-1,-1,-1,-1,-1,-1,-1,-1,-1,-1,-1,-1,-1,-1,-1,-1,-1,-1,-1,-1,-1,-1,-1,-1],"split_conditions":[3.7E0,9.945111E-4,9.2E0,9.8E0,9.5E0,1E-1,2.9E0,9.953915E-4,8E0,9.91069E-4,9.9E0,5.210065E-4,3.9E0,1.25E1,8.6E0,7.4E0,9.8E0,8.7E0,7.7E0,2.906287E-4,7.2E0,4.8685758E-4,6.7E0,1.06E1,5.01716E-4,7.8E0,1.05E1,1.27E1,4.648316E-4,9.1E0,1.22E1,7.8E0,1.07E1,5.42054E-4,4.487377E-4,9.1E0,1.15E1,1.04E1,9.953915E-4,1.12E1,2.81301E-4,9.7437133E-4,3.991628E-4,2.0547617E-4,8.3E0,4.2098988E-4,1.5E1,5.1E0,1.11E1,4.9E0,1.03E1,5.243343E-4,5.619516E-4,5.5E0,5.9E0,1.13E1,9E0,7.4416323E-4,3E-1,9E0,1.19E1,5E-1,1.9864661E-4,7.2E0,1.15E1,1.25E1,4E0,9.6E0,5.1737786E-4,7.4E0,3.2E0,9.4E0,5.7503075E-4,3.7E0,6.055667E-4,1E-1,7.0752454E-4,3.3068088E-1,1.360777E-1,4.2E0,2.531326E-4,6.8E0,2.7974034E-4,7.661983E-4,8.330211E-4,1.9292846E-4,6.67242E-4,1.4934009E-4,1.13E1,9.9E0,5.3240906E-4,1.9292846E-4,4.8237335E-4,1.27E1,2.7436537E-1,5.3E0,5.8E0,7.2E0,4E0,9.8E0,1.04E1,5.1321177E-4,6.0688856E-4,1.1E0,5.2390585E-4,8.1E0,1.05E1,1E-1,1.1E1,1.8E0,1.6E0,8.5E0,1.27E1,1.16E1,1.29E1,1.33E1,5.3E0,6.3E0,1.38E1,1.05E1,4.6E0,1.19E1,2E-1,7.1E0,3.1337735E-1,3.4888363E-1,3.2023582E-1,3.5767982E-4,1.25E1,7.5E0,2.817866E-4,3.8889144E-4,1.3E0,1.26E1,1E0,1.9235669E-4,2.3226386E-4,5.6E0,2.906287E-4,1.12E1,1.12E1,2E-1,1.13E1,4.0343413E-4,2E-1,6.524223E-4,5E0,6.650503E-4,9.820708E-4,1.3E1,1E-1,1E-1,7.419648E-2,7.7E0,1.29E1,2.814366E-4,1.1627666E-4,1.6150139E-4,1E0,3.1E0,1.16E1,4.8E0,9.9E0,3.8E0,9.778915E-4,-1.05966166E-1,7.9E0,1.4291155E-4,2.906287E-4,5.1321177E-4,9.1E0,1.03E1,1.28E1,3.6927112E-4,5.6028034E-4,5.7158206E-4,7.3850853E-4,8.139148E-4,9.73087E-4,1.975961E-1,1.47E1,1.9471959E-4,1.15E1,1.9107974E-4,1.9235669E-4,3.542094E-4,5E0,1.09E1,1.1810631E-4,9.914008E-4,1.6852147E-4,1.12E1,1E-1,7.366775E-4,5.3537893E-4,7.2E0,3.1250264E-4,1E-1,7.318156E-4,6.1365205E-4,8.6E0,7.243025E-4,2E-1,7.123E-4,4E-1,1.11E1,7.033976E-4,9.754851E-4,2.0031123E-1,8.100703E-4,6.2E0,9E-1,7.3E0,5.7E0,2.7001783E-1,1.6967255E-1,3.1109187E-1,9.1E0,6.7E0,8.2E0,7E0,2.4295298E-4,1E0,7.1E0,1E0,2.7600637E-1,3.1355277E-1,1.0599623E-1,1.18E1,2.2182725E-2,1.444348E-1,1.29E1,4.5E0,6.1E0,9.3E0,1.7443524E-1,5.811475E-4,1.51E1,1.37E1,1E-1,1.28E1,9.462061E-4,2.9134294E-1,3.1866156E-2,-1.2299969E-2,8.079832E-2,1.7240004E-1,8.779448E-2,1.4652649E-1,1.9320878E-1,1.4374606E-1,1.342546E-1,5.8722813E-2,7.232641E-2,2.7513975E-1,1.2735559E-1,2.1069399E-1,2.0559834E-1,2.9876778E-1,3.370853E-2,-2.8590748E-2,2.0933567E-1,1.1624756E-1,-4.348762E-2,8.5251026E-2,-5.677491E-3,-1.17696784E-1,1.04972206E-1,1.6992982E-1,1.2907009E-1,1.9192553E-1,2.1996737E-2,1.00989796E-1,7.9111084E-2,1.4842199E-1,1.4427881E-1,4.8565973E-2,1.61476E-1,8.392086E-2,2.121692E-1,1.6478758E-1,1.4691432E-1,8.918783E-2,1.538837E-1,1.0762296E-1,1.8064176E-1,3.4646075E-2,1.7952153E-1,4.1947037E-2,2.0394686E-1,2.6365262E-1,2.035123E-3,-7.230174E-4,2.0150702E-1,2.6087233E-1,1.7814285E-1,1.0919231E-1,1.8252896E-2,-4.1949593E-2,1.0005676E-1,3.357868E-2,1.8443282E-1,1.4547902E-1,1.1114394E-1,2.9862255E-2,-3.9318282E-2,2.5119064E-2,6.2108975E-2,1.5534429E-1,-6.1913896E-2,2.7647236E-2,-1.9892028E-1,2.0021869E-2,-1.3746665E-1,3.1283062E-2,-2.4302188E-1,-2.9467162E-1,-3.1941262E-1,-6.1077625E-2,7.427464E-2,2.564511E-2,-2.5064219E-2,-8.479375E-2,-1.3991262E-1,-1.863207E-1,-2.4105571E-1,-1.3837537E-1,5.4115307E-2,2.4227183E-1,1.2296452E-1,1.7338434E-1,1.00571394E-1,3.9270725E-2,1.8303733E-1,1.081569E-1,-5.396359E-2,-2.1842304E-1,-1.4665996E-2,-7.014545E-2,1.4598028E-1,7.153417E-2,2.6779158E-2,-5.3326953E-2,1.2464126E-1,1.7436323E-1,2.0383775E-1,1.09327175E-1,-1.7874325E-3,5.8354884E-2,2.1205945E-1,1.387779E-1,2.5335476E-1,1.8463895E-1,1.1718942E-1,-2.2157995E-2,2.8510028E-2,7.772037E-2,5.0935503E-2,1.6489789E-1,1.9611824E-1,1.22543134E-1,1.5020435E-1,1.0956394E-1,2.5361183E-1,1.7037533E-1,4.3244984E-2,1.7969714E-1,1.5195383E-1,2.5817865E-1,6.1533492E-2,-6.747421E-2,1.2893163E-1,4.460165E-2,6.406635E-2,1.15355015E-1,1.7723723E-1,1.1863311E-1,-7.481158E-2,6.974144E-2,2.1708855E-2,-1.4282313E-1,2.1463254E-1,8.670915E-2,8.189088E-2,1.4983025E-1,9.029478E-2,1.9199938E-2,7.6359004E-2,1.816927E-1,1.3401343E-1,-8.042206E-3,-1.1855151E-1,6.275765E-3,1.1811496E-1,1.8124165E-1,2.5836524E-1,1.4212692E-1,9.910185E-2,1.1619198E-2,1.2929961E-1,-5.2886397E-2,1.3540255E-1,1.7943113E-1,1.2153937E-1,2.1421027E-1,2.441678E-1,3.1076798E-1,2.0064183E-1,3.0379847E-3,7.89427E-2,2.0692256E-1,1.5432726E-1,2.2512126E-1,1.6367535E-1,2.1806489E-1,1.52688E-1,2.3346965E-1,1.9433491E-1,1.2844281E-1,2.0827328E-1,9.5856E-2,2.0893419E-1,2.4724415E-1,2.5953957E-1,2.132963E-1,2.2708626E-1,2.796097E-1,2.1524453E-1,2.5206602E-1,7.812735E-2,2.7174774E-1,1.2138783E-1,1.8893479E-1,2.1111377E-1,2.580818E-1,3.1634566E-1,2.572409E-1,2.4640022E-1,4.7301076E-2,2.6885402E-1,3.130761E-1,2.1560803E-1,4.113582E-2,2.8747386E-1,3.1329724E-1,2.2225903E-1,5.768466E-2],"split_indices":[3,16,1,0,0,7,6,19,7,11,1,13,4,4,8,8,6,5,9,11,0,10,2,3,12,3,6,2,12,5,1,5,8,12,16,2,5,0,19,1,12,10,10,10,2,10,1,4,5,2,4,15,13,9,8,0,0,10,0,7,3,9,16,7,5,5,4,2,17,7,4,1,12,1,13,1,10,0,0,1,11,2,10,12,12,10,10,10,2,0,12,10,11,2,0,0,2,0,1,3,2,10,15,5,16,8,2,1,9,1,7,3,1,3,1,3,3,2,3,3,0,2,4,3,0,0,0,18,7,6,15,15,2,9,0,12,12,7,15,5,6,7,6,10,7,10,9,18,11,0,3,9,0,8,0,14,11,11,21,1,2,0,1,5,12,0,1,10,10,10,0,0,0,10,12,10,10,10,12,0,0,11,0,11,12,16,1,5,12,15,13,5,2,19,14,1,12,0,16,14,0,18,4,11,4,3,18,18,0,17,3,8,8,8,0,0,0,5,7,5,2,12,24,5,21,0,0,0,5,0,0,0,0,6,4,0,12,6,5,0,3,16,0,0,0,0,0,0,0,0,0,0,0,0,0,0,0,0,0,0,0,0,0,0,0,0,0,0,0,0,0,0,0,0,0,0,0,0,0,0,0,0,0,0,0,0,0,0,0,0,0,0,0,0,0,0,0,0,0,0,0,0,0,0,0,0,0,0,0,0,0,0,0,0,0,0,0,0,0,0,0,0,0,0,0,0,0,0,0,0,0,0,0,0,0,0,0,0,0,0,0,0,0,0,0,0,0,0,0,0,0,0,0,0,0,0,0,0,0,0,0,0,0,0,0,0,0,0,0,0,0,0,0,0,0,0,0,0,0,0,0,0,0,0,0,0,0,0,0,0,0,0,0,0,0,0,0,0,0,0,0,0,0,0,0,0,0,0,0,0,0,0,0,0,0,0,0,0,0,0,0,0,0,0,0,0,0,0,0,0,0,0,0,0,0,0,0,0,0,0,0,0,0,0,0,0,0],"split_type":[0,0,0,0,0,0,0,0,0,0,0,0,0,0,0,0,0,0,0,0,0,0,0,0,0,0,0,0,0,0,0,0,0,0,0,0,0,0,0,0,0,0,0,0,0,0,0,0,0,0,0,0,0,0,0,0,0,0,0,0,0,0,0,0,0,0,0,0,0,0,0,0,0,0,0,0,0,0,0,0,0,0,0,0,0,0,0,0,0,0,0,0,0,0,0,0,0,0,0,0,0,0,0,0,0,0,0,0,0,0,0,0,0,0,0,0,0,0,0,0,0,0,0,0,0,0,0,0,0,0,0,0,0,0,0,0,0,0,0,0,0,0,0,0,0,0,0,0,0,0,0,0,0,0,0,0,0,0,0,0,0,0,0,0,0,0,0,0,0,0,0,0,0,0,0,0,0,0,0,0,0,0,0,0,0,0,0,0,0,0,0,0,0,0,0,0,0,0,0,0,0,0,0,0,0,0,0,0,0,0,0,0,0,0,0,0,0,0,0,0,0,0,0,0,0,0,0,0,0,0,0,0,0,0,0,0,0,0,0,0,0,0,0,0,0,0,0,0,0,0,0,0,0,0,0,0,0,0,0,0,0,0,0,0,0,0,0,0,0,0,0,0,0,0,0,0,0,0,0,0,0,0,0,0,0,0,0,0,0,0,0,0,0,0,0,0,0,0,0,0,0,0,0,0,0,0,0,0,0,0,0,0,0,0,0,0,0,0,0,0,0,0,0,0,0,0,0,0,0,0,0,0,0,0,0,0,0,0,0,0,0,0,0,0,0,0,0,0,0,0,0,0,0,0,0,0,0,0,0,0,0,0,0,0,0,0,0,0,0,0,0,0,0,0,0,0,0,0,0,0,0,0,0,0,0,0,0,0,0,0,0,0,0,0,0,0,0,0,0,0,0,0,0,0,0,0,0,0,0,0,0,0,0,0,0,0,0,0,0,0,0,0,0,0,0,0,0,0,0,0,0,0,0,0,0,0,0,0,0,0,0,0,0,0,0,0,0],"sum_hessian":[5.808E4,3.8013E4,2.0067E4,1.6186E4,2.1827E4,1.2569E4,7.498E3,1.485E4,1.336E3,1.8745E4,3.082E3,6.916E3,5.653E3,3.925E3,3.573E3,7.75E3,7.1E3,1.038E3,2.98E2,1.2369E4,6.376E3,1.552E3,1.53E3,3.348E3,3.568E3,8.08E2,4.845E3,3.111E3,8.14E2,1.967E3,1.606E3,6.957E3,7.93E2,6.594E3,5.06E2,6.67E2,3.71E2,2.3E2,6.8E1,9.73E2,1.1396E4,5.266E3,1.11E3,6.09E2,9.43E2,6.35E2,8.95E2,2.26E3,1.088E3,1.334E3,2.234E3,4.11E2,3.97E2,4.308E3,5.37E2,2.169E3,9.42E2,4.25E2,3.89E2,6.17E2,1.35E3,5.75E2,1.031E3,6.539E3,4.18E2,4.24E2,3.69E2,3.248E3,3.346E3,2.11E2,2.95E2,4.95E2,1.72E2,2.06E2,1.65E2,5E0,2.25E2,6.6E1,2E0,8.38E2,1.35E2,6.37E2,1.0759E4,1.718E3,3.548E3,2.85E2,8.25E2,1.69E2,4.4E2,8.63E2,8E1,2.52E2,3.83E2,8.3E2,6.5E1,8.09E2,1.451E3,8.18E2,2.7E2,4.03E2,9.31E2,1.965E3,2.69E2,1.82E2,2.29E2,2.16E2,1.81E2,2.065E3,2.243E3,1.58E2,3.79E2,1.012E3,1.157E3,1.59E2,7.83E2,2.97E2,1.28E2,1.4E1,3.75E2,4.81E2,1.36E2,6.34E2,7.16E2,1.8E2,3.95E2,1.51E2,8.8E2,6.085E3,4.54E2,2.43E2,1.75E2,3.94E2,3E1,2.76E2,9.3E1,3.133E3,1.15E2,8.29E2,2.517E3,1.14E2,9.7E1,2E2,9.5E1,2.95E2,2E2,1.19E2,5.3E1,1.26E2,8E1,7.6E1,8.9E1,2E0,3E0,1.34E2,9.1E1,3.9E2,4.48E2,1.09E2,2.6E1,3.43E2,2.94E2,4.58E2,1.0301E4,2.1E1,1.697E3,4E0,3.544E3,1E2,1.85E2,2.6E2,5.65E2,4E1,1.29E2,3.84E2,5.6E1,5.5E1,8.08E2,4.4E1,3.6E1,4.7E1,2.05E2,1.52E2,2.31E2,4.86E2,3.44E2,3.21E2,4.88E2,2.38E2,1.213E3,4.51E2,3.67E2,1E2,1.7E2,3.18E2,8.5E1,6.25E2,3.06E2,6.17E2,1.348E3,9.4E1,1.75E2,1.06E2,7.6E1,5.7E1,1.72E2,1.55E2,6.1E1,1.62E2,1.9E1,1.43E2,1.922E3,2.082E3,1.61E2,4.2E1,1.16E2,6E0,3.73E2,3.15E2,6.97E2,7.4E2,4.17E2,6.2E1,9.7E1,4.08E2,3.75E2,1.92E2,1.05E2,3E0,1.25E2,2E0,1.2E1,2.88E2,8.7E1,2.43E2,2.38E2,1.5E1,1.21E2,3.54E2,2.8E2,1.8E1,6.98E2,2.3E1,1.57E2,3.364E3,2.721E3,3.46E2,1.08E2,1.7E2,7.3E1,7.3E1,1.02E2,1.46E2,2.48E2,6E0,2.4E1,2.05E2,7.1E1,6.6E1,2.7E1,7.44E2,2.389E3,4.6E1,6.9E1,7.12E2,1.17E2,2.35E2,2.282E3,8.4E1,3E1,1.9E1,7.8E1,1.23E2,7.7E1,2E1,7.5E1,4.7E1,2.48E2,1.47E2,5.3E1,5.1E1,6.8E1,4.3E1,1E1,9.2E1,3.4E1,7.9E1,1E0,7.5E1,1E0,6.6E1,2.3E1,1E0,1E0,1.07E2,2.7E1,7.7E1,1.4E1,1.96E2,1.94E2,6.5E1,3.83E2,2.1E1,8.8E1,2.4E1,2E0,2.49E2,9.4E1,2E2,9.4E1,1.61E2,2.97E2,1.0017E4,2.84E2,1.8E1,3E0,9.7E1,1.6E3,3.543E3,1E0,5.1E1,4.9E1,9E1,9.5E1,9.5E1,1.65E2,5.31E2,3.4E1,1E0,3.9E1,3.7E1,9.2E1,2.3E2,1.54E2,3.7E1,1.9E1,2E0,5.3E1,3.87E2,4.21E2,3.9E1,5E0,3.3E1,3E0,1.67E2,3.8E1,2E1,1.32E2,6.7E1,1.64E2,7E1,4.16E2,3.4E1,3.1E2,4.9E1,2.72E2,1.23E2,3.65E2,2.1E2,2.8E1,6.3E1,1.15E3,2.46E2,2.05E2,4.2E1,3.25E2,1E0,9.9E1,9E0,1.61E2,6E1,2.58E2,3.6E1,4.9E1,3.19E2,3.06E2,1.79E2,1.27E2,1.8E2,4.37E2,2.43E2,1.105E3,8.1E1,1.3E1,1.29E2,4.6E1,5.2E1,5.4E1,1.5E1,6.1E1,3.5E1,2.2E1,1.26E2,4.6E1,5.2E1,1.03E2,4.8E1,1.3E1,1.31E2,3.1E1,1.07E2,3.6E1,2.34E2,1.688E3,3E1,2.052E3,3.5E1,1.26E2,4E1,2E0,2.79E2,3.6E1,6.4E2,5.7E1,5.98E2,1.42E2,5.5E1,3.62E2,2E1,4.2E1,9.4E1,3E0,3.03E2,1.05E2,3.02E2,7.3E1,8.4E1,4.1E1,1.91E2,9.7E1,1E0,8.6E1,4E1,2.03E2,1.47E2,9.1E1,7.4E1,4.7E1,3.53E2,1E0,2.07E2,7.3E1,1.7E1,1E0,2.93E2,4.05E2,2.2E1,1E0],"tree_param":{"num_deleted":"0","num_feature":"30","num_nodes":"447","size_leaf_vector":"1"}},{"base_weights":[4.3326154E-4,-4.2585114E-1,5.4423267E-1,-4.1677203E-2,-8.335408E-1,2.2550237E-1,8.0477524E-1,1.4505543E-1,-2.2263671E-1,-9.400801E-1,1.5545377E-1,3.3969926E-3,7.0259863E-1,6.6334647E-1,1.1065207E0,9.5560774E-2,6.5256596E-1,-2.762946E-1,5.57865E-1,-3.224316E-1,-1.0188847E0,5.1169753E-1,-1.2258834E-2,3.5781193E-1,-1.6967124E-1,6.2508065E-1,8.591745E-1,5.233155E-1,8.826105E-1,1.0077691E0,1.268028E0,6.291008E-2,6.557547E-1,5.772106E-1,1.1183815E0,3.5180774E-2,-3.877162E-1,7.152324E-1,4.646487E-1,-6.879344E-1,2.6666522E-2,-4.0358722E-1,-1.0805185E0,6.241955E-1,3.6977187E-1,-1.350904E-1,3.5209486E-1,2.872199E-1,6.310622E-1,2.262097E-1,-3.6801472E-1,5.6892926E-1,8.926471E-1,8.222975E-1,1.0758703E0,4.0503424E-1,8.463636E-1,8.3306384E-1,1.1785108E0,8.4458625E-1,1.1051375E0,1.0269098E0,1.2837799E0,4.2610265E-2,6.015555E-1,5.586431E-1,8.7580746E-1,6.5867585E-1,4.0515068E-1,7.763188E-1,2.9310873E-1,1.2120557E-1,-1.2609029E-1,-4.3185383E-1,2.828335E-1,9.925652E-1,6.793026E-1,2.6111433E-1,6.0269356E-1,-5.372494E-1,-1.3534786E0,1.7838448E-1,-2.9576322E-1,-6.7815465E-1,-1.7054759E-1,-6.0690945E-1,-1.1356181E0,4.7065213E-1,7.088515E-1,4.8012802E-1,2.5298598E-1,-1.4557524E-3,-2.5058547E-1,7.095947E-1,2.6105908E-1,2.2201419E-1,5.624839E-1,7.85279E-1,4.4194207E-1,1.13298886E-1,6.259188E-1,4.314264E-2,-5.4247785E-1,3.8578537E-1,6.5502197E-1,8.072228E-1,1.0519577E0,7.955304E-1,1.1274027E0,5.0956434E-1,1.1040125E0,5.6005293E-1,2.0394982E-1,7.4367E-1,1.0169505E0,8.1833994E-1,1.1533009E0,9.9786735E-1,1.2521572E0,6.848024E-1,9.610305E-1,1.0301353E0,1.1881217E0,1.0500457E0,9.094744E-2,1.2261512E0,1.312304E0,1.3186985E-1,-8.09637E-2,6.7107403E-1,3.6604375E-1,4.2397374E-1,7.719931E-1,9.401376E-1,4.6743184E-1,5.0582933E-1,7.1658415E-1,3.4921855E-1,9.699299E-1,5.531773E-1,2.1800044E-1,1.01677075E-1,6.045518E-1,-1.524249E-1,5.6620556E-1,-4.6601164E-1,3.0668873E-1,6.318708E-1,1.5317751E-1,9.0501755E-2,2.1148705E-1,5.294271E-1,7.305392E-1,2.3531023E-1,1.327838E-1,5.165958E-1,7.402262E-1,-2.1029171E-1,-7.0600325E-1,-1.7920703E0,-7.411899E-2,1.03731066E-1,6.028518E-1,-3.767123E-1,5.1291995E-2,-9.610671E-2,-7.552229E-1,1.2504289E-1,-3.2476026E-1,-7.208206E-1,3.7849295E-1,-1.0670301E0,-1.2745187E0,1.449532E-1,4.2776427E-1,2.1659422E-1,6.7191654E-1,6.342533E-1,4.2370877E-1,8.740398E-2,3.6372757E-1,-1.4214858E-1,9.342178E-2,-3.7509534E-1,-1.4408986E-1,1.8690161E-1,1.2419472E-1,-1.266093E-2,2.928196E-1,3.7903973E-1,1.4049132E-1,7.605198E-1,4.7514555E-1,7.1955436E-1,1.0518243E0,7.414656E-2,6.1630076E-1,-1.3813758E-1,2.0800982E-1,2.241096E-1,5.781761E-1,-3.447587E-1,2.6044184E-1,-6.203226E-1,2.2704293E-1,2.2580901E-1,5.589243E-1,2.3042563E-1,6.310497E-1,6.762985E-1,8.989791E-1,4.655459E-1,1.0697025E0,2.6374614E-1,7.78286E-1,1.2120922E-1,2.322061E-1,1.1759541E-1,2.612182E-2,2.2704779E-1,8.3880407E-1,5.236816E-1,7.50965E-1,4.7162205E-1,-4.2430446E-2,6.3314885E-1,8.657138E-1,9.384095E-1,1.1275191E0,4.936065E-1,8.301752E-1,9.7514987E-1,2.413235E-1,8.2522815E-1,2.2555564E-1,1.276249E0,1.082163E0,8.468213E-1,5.84066E-1,7.4573886E-1,1.018747E0,9.8087597E-1,1.1757715E0,1.1230494E0,1.2486172E0,1.055688E0,4.6888314E-2,1.0105603E0,2.514187E-1,2.581668E-1,2.8297356E-1,2.1143323E-2,8.469424E-2,-2.1007208E-2,1.1615093E-1,1.3802584E-1,1.0510458E-2,5.0910152E-2,1.03282325E-1,6.012791E-2,1.4600836E-1,1.5976147E-1,3.3921637E-2,1.7070127E-1,2.380296E-1,5.2365102E-2,1.13110006E-1,8.740311E-2,1.6254075E-1,2.1751168E-1,1.4086874E-1,5.2480828E-2,1.111918E-1,2.094928E-1,8.733885E-2,6.396171E-2,1.3426039E-1,6.649908E-2,1.2452755E-2,7.247247E-2,1.2791105E-1,-1.0191994E-2,-6.1068732E-2,1.1513586E-1,3.1988874E-2,-4.6408255E-2,-1.12741984E-1,8.414993E-2,-2.2459937E-2,1.1514538E-1,2.0471588E-1,6.047745E-3,9.0908736E-2,1.0713773E-1,2.2261346E-2,1.3021873E-1,1.724109E-1,1.1258842E-1,4.091923E-2,1.437084E-1,8.8096954E-2,7.3768675E-2,1.5217876E-1,-1.2291607E-4,-6.585062E-2,-2.2995396E-1,-1.1931224E-1,-3.817748E-1,-1.099899E-1,5.424239E-2,3.0284007E-3,1.9321941E-1,9.9253155E-2,7.377853E-2,-8.071566E-2,-1.793862E-2,4.8242588E-2,3.363579E-2,-5.727327E-2,-2.9259017E-1,-1.447185E-1,4.7824565E-2,-6.015238E-3,5.4439157E-2,-7.1520396E-2,-1.4997573E-1,6.3466586E-2,1.1898233E-1,2.6824832E-2,-2.1651435E-1,-7.768262E-2,-4.167244E-2,-2.5501707E-1,6.380945E-2,1.015566E-1,1.23180546E-1,1.6052423E-1,5.828197E-2,1.3274764E-1,5.8552023E-2,9.725872E-2,-1.751576E-2,3.0737597E-2,6.0510732E-2,9.918179E-2,-3.510354E-2,1.3425568E-1,3.387799E-2,7.9099314E-5,-8.185247E-2,1.1824744E-1,-3.5526086E-2,8.686914E-4,2.8462797E-2,-1.0555488E-2,6.953326E-2,3.786109E-2,5.6108546E-2,1.2281972E-1,4.84353E-2,-2.682264E-3,1.6777425E-1,1.160597E-1,8.679255E-2,1.6716383E-1,1.1329595E-1,1.5868834E-1,2.2038606E-1,9.17943E-2,-5.269319E-3,1.3772729E-1,9.595173E-2,1.8251197E-1,1.2527878E-3,-6.620216E-2,9.613934E-2,3.3095475E-2,9.53053E-2,1.3695334E-1,2.4649544E-2,-8.175146E-2,2.4229597E-2,1.1529791E-1,-1.752125E-2,-1.426235E-1,1.9273786E-2,1.1024803E-1,9.912329E-2,1.5522976E-2,1.2494E-1,7.809348E-2,1.5028174E-1,1.1131664E-1,1.173638E-1,1.8443874E-1,1.4777927E-1,1.9094208E-1,1.03009365E-1,2.180411E-2,1.9286866E-1,2.3432496E-1,1.3936852E-1,1.6961943E-1,1.7307538E-1,3.0734856E-2,6.880539E-2,1.16363704E-1,1.4242429E-1,2.2850807E-1,5.533713E-2,1.12321235E-1,9.2136316E-2,-4.8375886E-2,1.1535018E-1,1.6307919E-1,2.3987365E-1,1.6779894E-1,1.7842533E-1,2.2913969E-1,2.2706985E-1,1.2710577E-1,1.2556301E-1,1.5629029E-2,1.6397509E-1,2.1282509E-1,1.5446888E-1,2.1857801E-1,1.8172711E-1,1.0490526E-1,6.552637E-2,2.5563672E-1,-3.323792E-3,2.207226E-1,1.5133515E-1,1.9365217E-1,1.3473645E-1,8.4741585E-2,1.6290565E-1,1.0510605E-1,2.1707098E-1,1.7282021E-1,1.8122612E-1,2.118819E-1,2.397468E-1,1.7540501E-1,2.012415E-1,2.4186848E-1,2.2383797E-1,2.565849E-1,2.1210206E-1,5.638184E-2,1.5305667E-1,2.2923414E-1],"categories":[],"categories_nodes":[],"categories_segments":[],"categories_sizes":[],"default_left":[0,0,0,0,0,0,0,0,0,0,0,0,0,0,0,0,0,0,0,0,0,0,0,0,0,0,0,0,0,0,0,0,0,0,0,0,0,0,0,0,0,0,0,0,0,0,0,0,0,0,0,0,0,0,0,0,0,0,0,0,0,0,0,0,0,0,0,0,0,0,0,0,0,0,0,0,0,0,0,0,0,0,0,0,0,0,0,0,0,0,0,0,0,0,0,0,0,0,0,0,0,0,0,0,0,0,0,0,0,0,0,0,0,0,0,0,0,0,0,0,0,0,0,0,0,0,0,0,0,0,0,0,0,0,0,0,0,0,0,0,0,0,0,0,0,0,0,0,0,0,0,0,0,0,0,0,0,0,0,0,0,0,0,0,0,0,0,0,0,0,0,0,0,0,0,0,0,0,0,0,0,0,0,0,0,0,0,0,0,0,0,0,0,0,0,0,0,0,0,0,0,0,0,0,0,0,0,0,0,0,0,0,0,0,0,0,0,0,0,0,0,0,0,0,0,0,0,0,0,0,0,0,0,0,0,0,0,0,0,0,0,0,0,0,0,0,0,0,0,0,0,0,0,0,0,0,0,0,0,0,0,0,0,0,0,0,0,0,0,0,0,0,0,0,0,0,0,0,0,0,0,0,0,0,0,0,0,0,0,0,0,0,0,0,0,0,0,0,0,0,0,0,0,0,0,0,0,0,0,0,0,0,0,0,0,0,0,0,0,0,0,0,0,0,0,0,0,0,0,0,0,0,0,0,0,0,0,0,0,0,0,0,0,0,0,0,0,0,0,0,0,0,0,0,0,0,0,0,0,0,0,0,0,0,0,0,0,0,0,0,0,0,0,0,0,0,0,0,0,0,0,0,0,0,0,0,0,0,0,0,0,0,0,0,0,0,0,0,0,0,0,0,0,0,0,0,0,0,0,0,0,0,0,0,0,0,0,0,0,0,0,0,0,0,0,0,0,0,0,0,0,0,0,0,0,0,0,0,0,0,0,0,0,0,0,0,0,0,0,0,0,0,0],"id":1,"left_children":[1,3,5,7,9,11,13,15,17,19,21,23,25,27,29,31,33,35,37,39,41,43,45,47,49,51,53,55,57,59,61,63,65,67,69,71,73,75,77,79,81,83,85,87,89,91,93,95,97,99,101,103,105,107,109,111,113,115,117,119,121,123,125,127,129,131,133,135,137,139,-1,141,143,145,147,149,151,153,155,157,159,161,163,165,167,169,171,173,175,177,179,181,183,185,187,189,191,193,195,197,199,201,203,205,207,209,211,213,215,217,219,221,223,225,227,229,231,233,235,237,239,241,243,245,-1,247,249,251,253,255,257,259,261,263,265,267,269,271,273,275,-1,277,279,281,283,285,287,289,291,-1,-1,293,295,297,-1,299,301,303,305,307,-1,309,311,313,315,317,319,321,323,325,327,329,331,-1,333,-1,335,337,339,341,343,345,347,349,351,-1,-1,353,355,357,359,361,363,365,367,369,371,373,375,-1,377,379,381,383,385,387,389,-1,391,393,395,397,399,-1,401,-1,-1,-1,-1,-1,403,405,407,409,411,413,415,417,419,421,423,425,-1,427,-1,429,431,433,435,437,439,441,443,445,447,449,-1,451,-1,-1,-1,-1,-1,-1,-1,-1,-1,-1,-1,-1,-1,-1,-1,-1,-1,-1,-1,-1,-1,-1,-1,-1,-1,-1,-1,-1,-1,-1,-1,-1,-1,-1,-1,-1,-1,-1,-1,-1,-1,-1,-1,-1,-1,-1,-1,-1,-1,-1,-1,-1,-1,-1,-1,-1,-1,-1,-1,-1,-1,-1,-1,-1,-1,-1,-1,-1,-1,-1,-1,-1,-1,-1,-1,-1,-1,-1,-1,-1,-1,-1,-1,-1,-1,-1,-1,-1,-1,-1,-1,-1,-1,-1,-1,-1,-1,-1,-1,-1,-1,-1,-1,-1,-1,-1,-1,-1,-1,-1,-1,-1,-1,-1,-1,-1,-1,-1,-1,-1,-1,-1,-1,-1,-1,-1,-1,-1,-1,-1,-1,-1,-1,-1,-1,-1,-1,-1,-1,-1,-1,-1,-1,-1,-1,-1,-1,-1,-1,-1,-1,-1,-1,-1,-1,-1,-1,-1,-1,-1,-1,-1,-1,-1,-1,-1,-1,-1,-1,-1,-1,-1,-1,-1,-1,-1,-1,-1,-1,-1,-1,-1,-1,-1,-1,-1,-1,-1,-1,-1,-1,-1,-1,-1,-1,-1,-1,-1,-1,-1,-1,-1,-1,-1,-1],"loss_changes":[1.3464175E4,5.0994775E3,2.1193208E3,5.665054E2,1.6645205E3,1.2165894E3,5.985576E2,2.0719498E2,3.56721E2,6.9375586E2,9.183676E1,4.8064365E2,4.372815E1,2.9318896E2,7.017432E1,1.3748666E2,2.5083954E1,2.7650897E2,7.7064056E0,2.0608646E2,4.7913965E2,7.624634E0,4.6860394E1,4.94115E1,4.1349316E2,3.619629E1,8.74469E0,2.2276855E2,5.3644775E1,4.331714E1,5.123047E0,7.767424E1,8.357788E0,8.60585E0,1.0856155E1,2.9149233E1,1.7379437E2,1.3385696E0,9.592232E0,7.839972E1,4.0508263E1,7.365915E1,2.9925488E2,3.2149353E0,2.7139034E0,1.2084566E1,8.406708E0,3.65804E1,1.5023148E1,7.927023E1,2.5165848E2,3.1628845E1,4.8938293E0,7.5474854E0,2.1786194E0,1.3317657E2,2.664209E1,1.412085E1,5.828064E0,1.8785034E1,9.612061E0,9.6541595E-1,1.0014648E0,7.555626E1,3.978447E0,8.00489E0,2.8444061E0,3.4257812E0,6.1686783E0,3.1068115E0,0E0,1.2869995E1,1.3413414E1,1.3904272E2,1.6330694E1,2.5720406E-1,1.0108337E0,1.3197212E0,2.0569E0,3.543965E1,6.184314E1,1.7777775E1,7.464178E0,2.3657013E1,2.8530478E1,1.349708E2,9.671875E1,7.7981186E-1,1.6766815E0,7.051716E-1,1.9669223E0,4.872166E0,5.515051E0,4.760952E-1,1.8467293E0,2.113269E1,6.4014206E0,4.3060303E0,1.5280979E1,3.270125E1,8.491119E0,8.8257805E1,1.4768237E2,1.7849876E1,1.5646606E1,2.7436829E0,1.0004272E0,7.5809326E0,7.164688E-1,2.2035384E-1,3.9762878E-1,1.6368896E1,1.228833E2,1.2670471E1,4.022156E0,1.1343262E1,1.3415527E-1,2.6353302E0,1.5063477E-1,6.751999E0,6.720642E0,5.4609985E0,1.8258057E0,2.3110962E-1,0E0,2.338562E0,4.8132324E-1,3.028511E1,4.5825325E1,2.297348E0,8.912096E-1,6.575279E0,1.6574478E0,1.3016891E0,2.352252E-1,2.200016E0,6.325836E-1,3.246296E0,2.8676987E-1,6.9500923E-1,0E0,1.1969551E1,2.17556E-1,1.0923143E1,1.184082E-2,1.20173584E2,1.1708061E1,1.565918E0,9.841447E0,0E0,0E0,7.127762E-2,8.2834625E-1,1.2433171E0,0E0,1.6816406E0,3.103714E-1,5.512308E0,1.9954956E1,1.3458649E1,0E0,7.1176414E0,2.7727795E0,4.4556313E0,1.387212E0,3.2159832E0,9.395538E0,3.811826E0,8.1550255E0,3.2697327E1,6.5309544E0,7.233154E1,1.7866211E0,0E0,6.035385E-1,0E0,6.843872E-1,8.962345E-2,5.542402E-1,5.3539497E-1,3.7555504E-1,4.1078916E0,1.540547E0,6.614195E0,1.1358776E0,0E0,0E0,1.5050319E-1,1.0128918E0,1.2908943E1,1.707698E1,1.1794357E0,3.7071533E0,2.2084427E0,1.1280441E0,4.834801E0,6.115387E0,1.0474118E1,1.1483704E1,0E0,3.5200882E0,1.1312241E1,2.9469933E1,1.105199E2,9.5635395E0,1.35160675E1,3.2020721E0,0E0,1.13498535E1,2.0771408E0,7.309418E-1,4.973936E-2,3.6279297E-1,0E0,4.673889E0,0E0,0E0,0E0,0E0,0E0,2.4933529E-1,2.1012756E1,5.0270844E0,1.5508881E1,9.754661E1,4.8539276E0,3.121399E0,2.3165588E0,1.9528198E-1,6.0843697E0,6.2335205E0,3.9409637E-2,0E0,1.3292084E0,0E0,1.7211914E-1,1.2674904E0,1.1064911E0,3.6952362E0,1.5563354E0,3.9241028E0,3.119751E0,5.1275635E-1,2.8666382E0,4.1125488E-1,8.5357666E-2,0E0,1.5509949E0,0E0,0E0,0E0,0E0,0E0,0E0,0E0,0E0,0E0,0E0,0E0,0E0,0E0,0E0,0E0,0E0,0E0,0E0,0E0,0E0,0E0,0E0,0E0,0E0,0E0,0E0,0E0,0E0,0E0,0E0,0E0,0E0,0E0,0E0,0E0,0E0,0E0,0E0,0E0,0E0,0E0,0E0,0E0,0E0,0E0,0E0,0E0,0E0,0E0,0E0,0E0,0E0,0E0,0E0,0E0,0E0,0E0,0E0,0E0,0E0,0E0,0E0,0E0,0E0,0E0,0E0,0E0,0E0,0E0,0E0,0E0,0E0,0E0,0E0,0E0,0E0,0E0,0E0,0E0,0E0,0E0,0E0,0E0,0E0,0E0,0E0,0E0,0E0,0E0,0E0,0E0,0E0,0E0,0E0,0E0,0E0,0E0,0E0,0E0,0E0,0E0,0E0,0E0,0E0,0E0,0E0,0E0,0E0,0E0,0E0,0E0,0E0,0E0,0E0,0E0,0E0,0E0,0E0,0E0,0E0,0E0,0E0,0E0,0E0,0E0,0E0,0E0,0E0,0E0,0E0,0E0,0E0,0E0,0E0,0E0,0E0,0E0,0E0,0E0,0E0,0E0,0E0,0E0,0E0,0E0,0E0,0E0,0E0,0E0,0E0,0E0,0E0,0E0,0E0,0E0,0E0,0E0,0E0,0E0,0E0,0E0,0E0,0E0,0E0,0E0,0E0,0E0,0E0,0E0,0E0,0E0,0E0,0E0,0E0,0E0,0E0,0E0,0E0,0E0,0E0,0E0,0E0,0E0,0E0,0E0,0E0,0E0,0E0,0E0,0E0,0E0,0E0,0E0,0E0,0E0,0E0,0E0,0E0,0E0,0E0,0E0,0E0,0E0,0E0,0E0],"parents":[2147483647,0,0,1,1,2,2,3,3,4,4,5,5,6,6,7,7,8,8,9,9,10,10,11,11,12,12,13,13,14,14,15,15,16,16,17,17,18,18,19,19,20,20,21,21,22,22,23,23,24,24,25,25,26,26,27,27,28,28,29,29,30,30,31,31,32,32,33,33,34,34,35,35,36,36,37,37,38,38,39,39,40,40,41,41,42,42,43,43,44,44,45,45,46,46,47,47,48,48,49,49,50,50,51,51,52,52,53,53,54,54,55,55,56,56,57,57,58,58,59,59,60,60,61,61,62,62,63,63,64,64,65,65,66,66,67,67,68,68,69,69,71,71,72,72,73,73,74,74,75,75,76,76,77,77,78,78,79,79,80,80,81,81,82,82,83,83,84,84,85,85,86,86,87,87,88,88,89,89,90,90,91,91,92,92,93,93,94,94,95,95,96,96,97,97,98,98,99,99,100,100,101,101,102,102,103,103,104,104,105,105,106,106,107,107,108,108,109,109,110,110,111,111,112,112,113,113,114,114,115,115,116,116,117,117,118,118,119,119,120,120,121,121,122,122,123,123,125,125,126,126,127,127,128,128,129,129,130,130,131,131,132,132,133,133,134,134,135,135,136,136,137,137,138,138,139,139,141,141,142,142,143,143,144,144,145,145,146,146,147,147,148,148,151,151,152,152,153,153,155,155,156,156,157,157,158,158,159,159,161,161,162,162,163,163,164,164,165,165,166,166,167,167,168,168,169,169,170,170,171,171,172,172,174,174,176,176,177,177,178,178,179,179,180,180,181,181,182,182,183,183,184,184,187,187,188,188,189,189,190,190,191,191,192,192,193,193,194,194,195,195,196,196,197,197,198,198,200,200,201,201,202,202,203,203,204,204,205,205,206,206,208,208,209,209,210,210,211,211,212,212,214,214,220,220,221,221,222,222,223,223,224,224,225,225,226,226,227,227,228,228,229,229,230,230,231,231,233,233,235,235,236,236,237,237,238,238,239,239,240,240,241,241,242,242,243,243,244,244,245,245,247,247],"right_children":[2,4,6,8,10,12,14,16,18,20,22,24,26,28,30,32,34,36,38,40,42,44,46,48,50,52,54,56,58,60,62,64,66,68,70,72,74,76,78,80,82,84,86,88,90,92,94,96,98,100,102,104,106,108,110,112,114,116,118,120,122,124,126,128,130,132,134,136,138,140,-1,142,144,146,148,150,152,154,156,158,160,162,164,166,168,170,172,174,176,178,180,182,184,186,188,190,192,194,196,198,200,202,204,206,208,210,212,214,216,218,220,222,224,226,228,230,232,234,236,238,240,242,244,246,-1,248,250,252,254,256,258,260,262,264,266,268,270,272,274,276,-1,278,280,282,284,286,288,290,292,-1,-1,294,296,298,-1,300,302,304,306,308,-1,310,312,314,316,318,320,322,324,326,328,330,332,-1,334,-1,336,338,340,342,344,346,348,350,352,-1,-1,354,356,358,360,362,364,366,368,370,372,374,376,-1,378,380,382,384,386,388,390,-1,392,394,396,398,400,-1,402,-1,-1,-1,-1,-1,404,406,408,410,412,414,416,418,420,422,424,426,-1,428,-1,430,432,434,436,438,440,442,444,446,448,450,-1,452,-1,-1,-1,-1,-1,-1,-1,-1,-1,-1,-1,-1,-1,-1,-1,-1,-1,-1,-1,-1,-1,-1,-1,-1,-1,-1,-1,-1,-1,-1,-1,-1,-1,-1,-1,-1,-1,-1,-1,-1,-1,-1,-1,-1,-1,-1,-1,-1,-1,-1,-1,-1,-1,-1,-1,-1,-1,-1,-1,-1,-1,-1,-1,-1,-1,-1,-1,-1,-1,-1,-1,-1,-1,-1,-1,-1,-1,-1,-1,-1,-1,-1,-1,-1,-1,-1,-1,-1,-1,-1,-1,-1,-1,-1,-1,-1,-1,-1,-1,-1,-1,-1,-1,-1,-1,-1,-1,-1,-1,-1,-1,-1,-1,-1,-1,-1,-1,-1,-1,-1,-1,-1,-1,-1,-1,-1,-1,-1,-1,-1,-1,-1,-1,-1,-1,-1,-1,-1,-1,-1,-1,-1,-1,-1,-1,-1,-1,-1,-1,-1,-1,-1,-1,-1,-1,-1,-1,-1,-1,-1,-1,-1,-1,-1,-1,-1,-1,-1,-1,-1,-1,-1,-1,-1,-1,-1,-1,-1,-1,-1,-1,-1,-1,-1,-1,-1,-1,-1,-1,-1,-1,-1,-1,-1,-1,-1,-1,-1,-1,-1,-1,-1,-1,-1,-1],"split_conditions":[2E-1,9.914008E-4,5.5E0,8.624624E-4,9.9E0,9E0,8.9E0,8.2E0,1.04E1,5.030811E-4,4.2098988E-4,9.850505E-4,1.28E1,3.2E0,7.5E0,1.02E1,1.03E1,3.6528063E-4,3.9383935E-4,1E-1,5.1321177E-4,2.8338595E-4,1.22E1,7.1E0,5.2222854E-4,1.2E0,1.39E1,1.06E1,9.2E0,1.02E1,5.5E0,1.05E1,4E-1,5.430347E-4,7.1E0,2.7225306E-4,9.9E0,1.5748605E-4,7E-1,1E0,3.824387E-4,6.2E0,8.835331E-4,1.3E1,8.616235E-4,6.9627527E-4,3.1231184E-4,1E1,5.1532045E-4,1.12E1,5.1321177E-4,1.04E1,8.3E0,8.9E0,1.16E1,5.01716E-4,1.23E1,1.08E1,4.5E0,8.7E0,1.21E1,9.428898E-4,1.1E1,4.413921E-4,1E-1,1.04E1,6.9893943E-4,1.05E1,1.04E1,1E-1,2.9310873E-1,9.4E0,1.03E1,9.7E0,3.6528063E-4,1.07E1,1.15E1,1.13E1,7.6E0,4.4915124E-4,5.0527876E-4,1.17E1,8.7E0,2.8862988E-4,2.472037E-4,1.03E1,9.984716E-4,1.4934009E-4,1.5451998E-4,4.7512562E-4,1.3E1,1.26E1,1.26E1,1.6563036E-4,1.09E1,3.6528063E-4,4.289717E-4,8.2E0,1E-1,5E0,1.5453843E-4,5.8E0,9.9E0,1.02E1,1.5314632E-4,6.5E0,9.7E0,1.370386E-4,1.1E0,9.200135E-4,8.511694E-4,1.1E1,5.2855856E-4,1.18E1,1.31E1,3E-1,3.3E0,1.07E1,1E0,4.0793358E-4,4.7E0,1.28E1,9.8E0,9.703389E-4,9.094744E-2,7.9E0,1.35E1,6.7E0,1.05E1,9E-1,1.5E0,1.15E1,1E0,1.03E1,4.3580332E-4,1.1E1,1.4312398E-4,7.7E0,4.986168E-4,2.7015797E-4,2.1800044E-1,1.18593125E-4,4.546179E-4,8.2835986E-4,9.6693385E-4,4.1964365E-4,7.7286916E-4,1.17E1,1.02E1,9.0501755E-2,2.1148705E-1,7.8137E-4,4.2E0,3.5629593E-4,1.327838E-1,2.9425134E-4,1.06E1,3.7192216E-4,4.8729384E-4,1E0,-7.411899E-2,1.6958883E-4,1.6563036E-4,2.733354E-4,1.21E1,8.78549E-4,5.0737365E-4,1.7803705E-4,2.7225306E-4,9.8E0,4.056197E-4,8.9E0,6.2532804E-4,1.449532E-1,2E0,2.1659422E-1,1.47E1,7.5E0,1.24E1,1.2E1,1.46E1,9.4E0,5.837877E-4,8.5E0,1E0,1.8690161E-1,1.2419472E-1,6.69499E-4,7.529652E-4,4.4E0,5.4620544E-4,7.941813E-4,1.2E1,1.6E0,4.135271E-4,1.07E1,8.5E0,4.005756E-4,1.370386E-4,2.241096E-1,8.5E0,2.5500683E-4,1.16E1,5.01716E-4,9.1E0,4.1398863E-4,7.3618477E-4,2.3042563E-1,4.1408255E-4,8.8E0,6.6E0,2.7E0,7.8E0,2.6374614E-1,5.7E0,1.2120922E-1,2.322061E-1,1.1759541E-1,2.612182E-2,2.2704779E-1,6.1484094E-4,2.7E0,1.48E1,6.6E0,4.991921E-4,1.24E1,1.6842567E-4,8E0,9.793839E-4,6.1486237E-4,1.19E1,6.2E0,2.413235E-1,8.2965917E-4,2.2555564E-1,9.390611E-5,1.4E0,1.25E1,4.9362367E-4,6.373968E-4,7.239499E-4,8E0,8.5168914E-4,1.23E1,1.14E1,1.47E1,4.6888314E-2,9.8E0,2.514187E-1,2.581668E-1,2.8297356E-1,2.1143323E-2,8.469424E-2,-2.1007208E-2,1.1615093E-1,1.3802584E-1,1.0510458E-2,5.0910152E-2,1.03282325E-1,6.012791E-2,1.4600836E-1,1.5976147E-1,3.3921637E-2,1.7070127E-1,2.380296E-1,5.2365102E-2,1.13110006E-1,8.740311E-2,1.6254075E-1,2.1751168E-1,1.4086874E-1,5.2480828E-2,1.111918E-1,2.094928E-1,8.733885E-2,6.396171E-2,1.3426039E-1,6.649908E-2,1.2452755E-2,7.247247E-2,1.2791105E-1,-1.0191994E-2,-6.1068732E-2,1.1513586E-1,3.1988874E-2,-4.6408255E-2,-1.12741984E-1,8.414993E-2,-2.2459937E-2,1.1514538E-1,2.0471588E-1,6.047745E-3,9.0908736E-2,1.0713773E-1,2.2261346E-2,1.3021873E-1,1.724109E-1,1.1258842E-1,4.091923E-2,1.437084E-1,8.8096954E-2,7.3768675E-2,1.5217876E-1,-1.2291607E-4,-6.585062E-2,-2.2995396E-1,-1.1931224E-1,-3.817748E-1,-1.099899E-1,5.424239E-2,3.0284007E-3,1.9321941E-1,9.9253155E-2,7.377853E-2,-8.071566E-2,-1.793862E-2,4.8242588E-2,3.363579E-2,-5.727327E-2,-2.9259017E-1,-1.447185E-1,4.7824565E-2,-6.015238E-3,5.4439157E-2,-7.1520396E-2,-1.4997573E-1,6.3466586E-2,1.1898233E-1,2.6824832E-2,-2.1651435E-1,-7.768262E-2,-4.167244E-2,-2.5501707E-1,6.380945E-2,1.015566E-1,1.23180546E-1,1.6052423E-1,5.828197E-2,1.3274764E-1,5.8552023E-2,9.725872E-2,-1.751576E-2,3.0737597E-2,6.0510732E-2,9.918179E-2,-3.510354E-2,1.3425568E-1,3.387799E-2,7.9099314E-5,-8.185247E-2,1.1824744E-1,-3.5526086E-2,8.686914E-4,2.8462797E-2,-1.0555488E-2,6.953326E-2,3.786109E-2,5.6108546E-2,1.2281972E-1,4.84353E-2,-2.682264E-3,1.6777425E-1,1.160597E-1,8.679255E-2,1.6716383E-1,1.1329595E-1,1.5868834E-1,2.2038606E-1,9.17943E-2,-5.269319E-3,1.3772729E-1,9.595173E-2,1.8251197E-1,1.2527878E-3,-6.620216E-2,9.613934E-2,3.3095475E-2,9.53053E-2,1.3695334E-1,2.4649544E-2,-8.175146E-2,2.4229597E-2,1.1529791E-1,-1.752125E-2,-1.426235E-1,1.9273786E-2,1.1024803E-1,9.912329E-2,1.5522976E-2,1.2494E-1,7.809348E-2,1.5028174E-1,1.1131664E-1,1.173638E-1,1.8443874E-1,1.4777927E-1,1.9094208E-1,1.03009365E-1,2.180411E-2,1.9286866E-1,2.3432496E-1,1.3936852E-1,1.6961943E-1,1.7307538E-1,3.0734856E-2,6.880539E-2,1.16363704E-1,1.4242429E-1,2.2850807E-1,5.533713E-2,1.12321235E-1,9.2136316E-2,-4.8375886E-2,1.1535018E-1,1.6307919E-1,2.3987365E-1,1.6779894E-1,1.7842533E-1,2.2913969E-1,2.2706985E-1,1.2710577E-1,1.2556301E-1,1.5629029E-2,1.6397509E-1,2.1282509E-1,1.5446888E-1,2.1857801E-1,1.8172711E-1,1.0490526E-1,6.552637E-2,2.5563672E-1,-3.323792E-3,2.207226E-1,1.5133515E-1,1.9365217E-1,1.3473645E-1,8.4741585E-2,1.6290565E-1,1.0510605E-1,2.1707098E-1,1.7282021E-1,1.8122612E-1,2.118819E-1,2.397468E-1,1.7540501E-1,2.012415E-1,2.4186848E-1,2.2383797E-1,2.565849E-1,2.1210206E-1,5.638184E-2,1.5305667E-1,2.2923414E-1],"split_indices":[2,15,4,18,0,1,5,5,5,11,10,17,2,8,8,8,9,13,15,1,10,10,1,5,12,7,0,1,7,0,0,0,3,15,7,13,0,15,4,22,11,0,14,0,11,10,11,2,15,2,10,0,8,8,1,13,3,9,9,3,3,18,4,16,8,7,18,5,7,0,0,3,4,6,10,5,5,6,0,14,12,1,1,13,10,4,10,10,10,11,0,0,0,11,0,13,12,8,1,0,12,0,2,2,11,6,1,12,6,11,12,4,12,4,4,1,6,1,20,15,1,2,6,15,0,7,3,7,9,5,3,9,22,6,13,1,15,6,18,17,0,13,17,16,15,14,16,6,1,0,0,14,4,10,0,14,5,10,13,21,0,11,11,14,1,14,11,10,13,3,14,1,12,0,1,0,0,1,1,0,0,3,10,4,20,0,0,10,11,3,15,18,6,3,15,3,0,12,12,0,0,14,0,13,3,11,12,0,10,5,2,0,9,0,3,0,0,0,0,0,11,5,3,2,14,0,10,6,14,13,4,3,0,18,0,19,2,5,14,14,15,6,14,0,2,5,0,3,0,0,0,0,0,0,0,0,0,0,0,0,0,0,0,0,0,0,0,0,0,0,0,0,0,0,0,0,0,0,0,0,0,0,0,0,0,0,0,0,0,0,0,0,0,0,0,0,0,0,0,0,0,0,0,0,0,0,0,0,0,0,0,0,0,0,0,0,0,0,0,0,0,0,0,0,0,0,0,0,0,0,0,0,0,0,0,0,0,0,0,0,0,0,0,0,0,0,0,0,0,0,0,0,0,0,0,0,0,0,0,0,0,0,0,0,0,0,0,0,0,0,0,0,0,0,0,0,0,0,0,0,0,0,0,0,0,0,0,0,0,0,0,0,0,0,0,0,0,0,0,0,0,0,0,0,0,0,0,0,0,0,0,0,0,0,0,0,0,0,0,0,0,0,0,0,0,0,0,0,0,0,0,0,0,0,0,0,0,0,0,0,0,0,0,0,0,0,0,0,0,0,0,0,0],"split_type":[0,0,0,0,0,0,0,0,0,0,0,0,0,0,0,0,0,0,0,0,0,0,0,0,0,0,0,0,0,0,0,0,0,0,0,0,0,0,0,0,0,0,0,0,0,0,0,0,0,0,0,0,0,0,0,0,0,0,0,0,0,0,0,0,0,0,0,0,0,0,0,0,0,0,0,0,0,0,0,0,0,0,0,0,0,0,0,0,0,0,0,0,0,0,0,0,0,0,0,0,0,0,0,0,0,0,0,0,0,0,0,0,0,0,0,0,0,0,0,0,0,0,0,0,0,0,0,0,0,0,0,0,0,0,0,0,0,0,0,0,0,0,0,0,0,0,0,0,0,0,0,0,0,0,0,0,0,0,0,0,0,0,0,0,0,0,0,0,0,0,0,0,0,0,0,0,0,0,0,0,0,0,0,0,0,0,0,0,0,0,0,0,0,0,0,0,0,0,0,0,0,0,0,0,0,0,0,0,0,0,0,0,0,0,0,0,0,0,0,0,0,0,0,0,0,0,0,0,0,0,0,0,0,0,0,0,0,0,0,0,0,0,0,0,0,0,0,0,0,0,0,0,0,0,0,0,0,0,0,0,0,0,0,0,0,0,0,0,0,0,0,0,0,0,0,0,0,0,0,0,0,0,0,0,0,0,0,0,0,0,0,0,0,0,0,0,0,0,0,0,0,0,0,0,0,0,0,0,0,0,0,0,0,0,0,0,0,0,0,0,0,0,0,0,0,0,0,0,0,0,0,0,0,0,0,0,0,0,0,0,0,0,0,0,0,0,0,0,0,0,0,0,0,0,0,0,0,0,0,0,0,0,0,0,0,0,0,0,0,0,0,0,0,0,0,0,0,0,0,0,0,0,0,0,0,0,0,0,0,0,0,0,0,0,0,0,0,0,0,0,0,0,0,0,0,0,0,0,0,0,0,0,0,0,0,0,0,0,0,0,0,0,0,0,0,0,0,0,0,0,0,0,0,0,0,0,0,0,0,0,0,0,0,0,0,0,0,0,0,0,0,0,0],"sum_hessian":[5.808E4,3.2558E4,2.5522E4,1.6763E4,1.5795E4,1.148E4,1.4042E4,8.25E3,8.513E3,1.4259E4,1.536E3,7.834E3,3.646E3,9.563E3,4.479E3,7.518E3,7.32E2,7.966E3,5.47E2,1.614E3,1.2645E4,4.91E2,1.045E3,2.57E3,5.264E3,2.442E3,1.204E3,5.838E3,3.725E3,2.784E3,1.695E3,7.105E3,4.13E2,6.32E2,1E2,2.099E3,5.867E3,2.01E2,3.46E2,7.88E2,8.26E2,1.152E3,1.1493E4,2.72E2,2.19E2,7.82E2,2.63E2,2.044E3,5.26E2,1.757E3,3.507E3,2.021E3,4.21E2,1.033E3,1.71E2,4.275E3,1.563E3,3.194E3,5.31E2,1.044E3,1.74E3,1.08E2,1.587E3,6.848E3,2.57E2,2.89E2,1.24E2,4.27E2,2.05E2,5.2E1,4.8E1,1.369E3,7.3E2,5.505E3,3.62E2,2E1,1.81E2,1.41E2,2.05E2,6.44E2,1.44E2,5.62E2,2.64E2,5.28E2,6.24E2,1.199E3,1.0294E4,9.9E1,1.73E2,1.11E2,1.08E2,3.63E2,4.19E2,5.2E1,2.11E2,1.654E3,3.9E2,2.88E2,2.38E2,1.371E3,3.86E2,1.045E3,2.462E3,6.48E2,1.373E3,2.78E2,1.43E2,9.53E2,8E1,9E0,1.62E2,2.413E3,1.862E3,9.79E2,5.84E2,3.057E3,1.37E2,1.58E2,3.73E2,4.43E2,6.01E2,9.21E2,8.19E2,1.03E2,5E0,5.4E2,1.047E3,3.976E3,2.872E3,1.97E2,6E1,1.79E2,1.1E2,1.06E2,1.8E1,1.2E2,3.07E2,1.88E2,1.7E1,3.2E1,2E1,1.317E3,5.2E1,7.04E2,2.6E1,5.262E3,2.43E2,9.7E1,2.65E2,3E0,1.7E1,4.9E1,1.32E2,1.34E2,7E0,1.29E2,7.6E1,2.2E2,4.24E2,9.9E1,4.5E1,4.79E2,8.3E1,2.14E2,5E1,6.2E1,4.66E2,2.14E2,4.1E2,1.075E3,1.24E2,6.897E3,3.397E3,1.2E1,8.7E1,1.3E1,1.6E2,2.7E1,8.4E1,4.4E1,6.4E1,1.46E2,2.17E2,1.92E2,2.27E2,1.2E1,4E1,2.2E1,1.89E2,5.64E2,1.09E3,1.17E2,2.73E2,2.34E2,5.4E1,7.7E1,1.61E2,3.75E2,9.96E2,3.2E1,3.54E2,3.75E2,6.7E2,2.236E3,2.26E2,3.38E2,3.1E2,6.1E1,1.312E3,1.18E2,1.6E2,5E0,1.38E2,2.8E1,9.25E2,6E0,7.4E1,7E0,2E0,1.42E2,2E1,2.03E3,3.83E2,8.92E2,9.7E2,5.17E2,4.62E2,3.47E2,2.37E2,1.09E2,2.948E3,3.6E1,1.01E2,7.1E1,8.7E1,3.21E2,5.2E1,1.67E2,2.76E2,1.3E2,4.71E2,6.94E2,2.27E2,4.04E2,4.15E2,1.02E2,1E0,7.2E1,4.68E2,8.77E2,1.7E2,3.65E3,3.26E2,2.772E3,1E2,1.91E2,6E0,3.6E1,2.4E1,1.29E2,5E1,1.05E2,5E0,8.2E1,2.4E1,7E0,1.1E1,1E2,2E1,7E0,3E2,1.34E2,5.4E1,1.4E1,3E0,1.2E1,2E1,1.91E2,1.126E3,8E0,4.4E1,4.24E2,2.8E2,2.5E1,1E0,1.551E3,3.711E3,1.91E2,5.2E1,8.7E1,1E1,1.89E2,7.6E1,4.8E1,1E0,8.6E1,4.6E1,1E1,1.24E2,3.3E1,9.6E1,5E0,7.1E1,8E1,1.4E2,8.2E1,3.42E2,9E1,9E0,1.65E2,3.14E2,1.7E1,6.6E1,7E0,2.07E2,2.9E1,2.1E1,2.6E1,3.6E1,1.8E1,4.48E2,1.23E2,9.1E1,2.1E1,3.89E2,1.046E3,2.9E1,6.5E1,5.9E1,6.742E3,1.55E2,2E0,3.395E3,3.9E1,4.8E1,1.16E2,4.4E1,3E0,2.4E1,2.9E1,5.5E1,1.2E1,3.2E1,4.6E1,1.8E1,1.41E2,5E0,1.19E2,9.8E1,1.86E2,6E0,1.85E2,4.2E1,4E0,1.8E1,1.22E2,6.7E1,3.99E2,1.65E2,6.56E2,4.34E2,7.9E1,3.8E1,2.47E2,2.6E1,7.9E1,1.55E2,4.9E1,5E0,6.7E1,1E1,1.12E2,4.9E1,2.15E2,1.6E2,1.33E2,8.63E2,1.84E2,1.7E2,4.5E1,3.3E2,4.66E2,2.04E2,3.32E2,1.904E3,1.62E2,6.4E1,1.19E2,2.19E2,2.21E2,8.9E1,4.98E2,8.14E2,8.9E1,2.9E1,4.5E1,1.15E2,4E0,1E0,7.3E1,6.5E1,4.32E2,4.93E2,1.9E1,1E0,4.98E2,1.532E3,3.51E2,3.2E1,2.83E2,6.09E2,2.75E2,6.95E2,3.98E2,1.19E2,3.1E1,4.31E2,2.88E2,5.9E1,2.32E2,5E0,8.2E1,2.7E1,2.828E3,1.2E2,1.6E1,2E1,5.4E1,1.7E1,1E0,3.2E2,1E0,5.1E1,1E2,6.7E1,1.75E2,1.01E2,9.7E1,3.3E1,3.25E2,1.46E2,3.62E2,3.32E2,2.08E2,1.9E1,1.77E2,2.27E2,9.4E1,3.21E2,1.01E2,1E0,2.8E1,4.4E1],"tree_param":{"num_deleted":"0","num_feature":"30","num_nodes":"453","size_leaf_vector":"1"}},{"base_weights":[6.9958204E-4,-3.405048E-1,4.3596473E-1,-3.4276474E-2,-6.682469E-1,1.256101E-1,6.129697E-1,1.3023283E-1,-1.726563E-1,-7.590416E-1,8.583544E-2,-2.4612254E-2,5.23709E-1,5.0861496E-1,8.9240146E-1,8.522548E-2,6.025143E-1,-2.185875E-1,4.0388304E-1,-2.8061953E-1,-8.2587206E-1,3.5037965E-1,-8.939898E-2,3.1337222E-1,-2.1621235E-1,4.6648407E-1,7.4726874E-1,4.009674E-1,6.7780197E-1,8.0747366E-1,1.0039078E0,5.507152E-2,4.4641376E-1,5.264252E-1,8.393272E-1,8.930698E-2,-2.8481752E-1,5.502138E-1,2.6064095E-1,-5.38578E-1,5.4412737E-2,-3.205884E-1,-8.7323076E-1,4.9839386E-1,2.4457116E-1,-2.083968E-1,2.1888553E-1,2.1178788E-1,5.1221037E-1,1.8200207E-1,-3.7021133E-1,3.972575E-1,6.333834E-1,6.75505E-1,1.0706636E0,2.4698633E-1,6.3784945E-1,6.404046E-1,9.614252E-1,6.7735034E-1,8.7135905E-1,8.7040186E-1,1.025789E0,1.1444335E-1,-8.7350145E-2,4.992555E-1,2.1126892E-1,3.2949638E-1,6.31331E-1,6.2671983E-1,1.02205E0,7.244597E-2,5.669377E-1,-3.168658E-1,4.2384127E-1,5.1562333E-1,6.7984736E-1,1.19137E-1,4.6009982E-1,-1.4127523E-1,-6.5997905E-1,1.8957824E-1,-1.2583698E-1,1.0115875E-1,-4.1731554E-1,-3.6778632E-1,-9.108146E-1,6.30151E-1,4.357357E-1,4.0976834E-1,1.7441833E-1,-3.5578144E-1,-6.0445875E-2,4.797035E-1,1.212804E-1,1.6981108E-1,6.7793685E-1,3.5616875E-1,5.955446E-1,9.2817016E-2,4.663837E-1,2.4938392E-3,-4.8837563E-1,6.0808915E-1,3.5437E-1,7.148825E-1,4.8172843E-1,5.928143E-1,8.278533E-1,2.1528628E-1,5.4579686E-2,4.059696E-1,9.133229E-2,5.598329E-1,7.77913E-1,5.7575005E-1,7.062517E-1,7.374721E-1,9.8769E-1,4.628665E-1,7.3585373E-1,8.21202E-1,9.570441E-1,7.201078E-1,9.8211277E-1,5.95569E-1,1.0304875E0,9.4891846E-2,5.144823E-1,-1.7925203E-1,5.7627916E-2,4.437801E-1,6.165921E-1,2.959023E-1,-7.259243E-2,3.0535606E-1,1.2800063E-1,7.142908E-1,4.6715066E-1,3.7766513E-1,1.371709E-1,1.0675575E0,9.011927E-2,2.1683457E-1,1.4732055E-2,4.6885374E-1,7.52193E-1,8.471264E-3,-3.6483938E-1,5.8550894E-1,2.1951526E-1,6.353558E-1,4.591184E-1,1.4228576E-1,9.5162645E-2,-1.5779231E-1,2.0647725E-1,3.1956798E-1,5.533293E-1,-1.76089E-1,3.032312E-1,-5.370638E-1,-1.2015512E0,1.2840755E-1,5.240714E-1,-1.698332E-1,2.518319E-1,2.694897E-1,3.1198798E-2,-5.859642E-1,-2.5272897E-1,-4.671488E-1,4.3019894E-1,-9.199946E-1,6.108091E-2,5.467345E-1,1.5317862E-1,3.2026833E-1,5.033094E-1,2.2635986E-1,4.676375E-1,1.730674E-2,2.4551938E-1,-3.8119736E-1,5.0373477E-1,-4.7317555E-4,-1.7989984E-1,1.6499017E-1,4.3890864E-1,-8.5127674E-2,1.6497701E-1,9.682836E-2,3.6698732E-1,5.540884E-1,8.662012E-1,2.576357E-1,6.6659814E-1,4.5272985E-1,6.71615E-1,2.5880277E-1,1.3690209E-2,4.1961777E-1,6.3920146E-1,-2.9105756E-1,2.1025284E-1,-5.243367E-1,6.581743E-1,9.4015974E-1,5.6702995E-1,5.252844E-1,2.8025794E-1,6.788384E-1,1.843827E-1,2.8746197E-1,6.1152995E-1,3.0000308E-1,6.295348E-1,6.8010247E-1,9.113033E-1,2.7561107E-1,4.7282138E-1,3.3341694E-1,-8.996932E-2,5.114147E-1,7.267501E-1,2.1738897E-1,7.542736E-1,5.3877026E-1,7.8652656E-1,6.939323E-1,9.675728E-1,1.5340966E-1,8.243777E-1,9.54106E-1,1.1011478E0,4.2175496E-1,7.7272636E-1,6.563778E-1,8.303981E-1,7.7470315E-1,9.4212127E-1,1.028135E0,8.9375365E-1,3.8461325E-1,7.404559E-1,1.9973989E-1,4.887521E-1,-5.6906097E-2,1.3424554E-1,-2.5605932E-2,1.0312856E0,1.492133E-2,8.625197E-2,1.3329208E-1,6.787071E-2,-1.4568976E-2,-6.395693E-2,-2.4047097E-2,3.6051773E-2,1.0128152E-1,6.381509E-2,2.2566354E-1,1.1781552E-1,4.377452E-2,1.0166897E-1,-4.9839474E-2,6.235343E-2,7.226417E-2,3.39763E-2,2.011189E-1,1.3848802E-1,7.343225E-2,1.383242E-1,9.8605774E-2,4.406772E-2,2.2063963E-1,1.0969164E-1,6.521362E-2,3.5345588E-2,4.8882212E-2,-6.1804983E-3,6.736983E-2,1.013338E-1,6.6712566E-2,1.6462825E-1,4.2840388E-2,-6.943026E-3,-7.657712E-2,9.886878E-2,1.9124456E-1,1.0579031E-1,2.8017307E-2,1.3941513E-1,9.657989E-2,1.3854878E-1,7.683431E-2,9.987875E-2,-7.7161364E-2,3.291975E-2,2.7997363E-2,8.115285E-2,9.021313E-2,5.1120616E-2,1.3180532E-1,6.822133E-2,-4.3776442E-4,-5.1880192E-2,7.068604E-2,1.0345392E-2,1.4315771E-2,-1.1396623E-1,-2.8413227E-1,-6.73133E-2,5.1910676E-2,9.808367E-3,1.6068779E-1,8.523016E-2,7.198986E-2,-3.802239E-2,7.0899546E-2,2.817581E-2,8.386292E-2,4.337777E-2,1.736501E-2,-2.2285623E-2,-1.9933468E-2,-1.286882E-1,-2.5690852E-2,-7.585715E-2,-9.8162316E-2,4.2974535E-2,1.0087188E-1,4.5221306E-2,-1.5810463E-1,-1.9382338E-1,8.653241E-2,-3.9634343E-2,1.2216568E-1,8.452853E-2,7.8086846E-2,4.206937E-2,9.158944E-2,1.2180474E-1,6.8311974E-2,3.2144736E-2,1.2167231E-1,8.289E-2,3.38747E-4,6.895129E-2,5.841433E-2,3.1660404E-2,-1.028949E-1,-6.058991E-2,2.3324087E-2,1.1536046E-1,1.0626359E-2,-9.900702E-3,-4.0474065E-2,-1.0811677E-2,9.973613E-2,6.81195E-2,9.13808E-3,-2.8446222E-2,1.8287186E-2,4.3656137E-2,9.592261E-3,6.769671E-2,9.130161E-2,3.4191687E-2,9.904468E-2,1.5069847E-1,1.4044036E-1,2.0706446E-1,6.1835457E-2,-7.580999E-2,1.3805291E-1,4.512317E-2,1.2101586E-1,4.465449E-2,1.2728946E-1,1.8981256E-1,9.6244626E-2,4.0468063E-2,-4.5340345E-3,8.225869E-2,4.909289E-2,9.524669E-2,2.0064151E-1,1.1581295E-1,8.06475E-3,-6.891542E-2,2.6547918E-2,8.4356576E-2,-2.1075297E-2,-1.1652831E-1,1.7592214E-1,1.1121818E-1,9.1714874E-2,1.9699726E-1,6.795924E-2,1.16929166E-1,1.6908865E-1,9.829437E-2,4.753154E-2,1.20384194E-1,1.9994934E-1,1.3030799E-1,4.8706654E-2,9.583112E-2,1.3226272E-1,6.669829E-2,7.257269E-2,1.8411446E-2,1.4568147E-1,1.0842232E-1,1.6682759E-2,1.3785362E-1,1.6202389E-1,2.0401195E-1,6.472736E-2,7.954926E-3,8.463577E-2,1.2635528E-1,4.2108566E-2,8.957083E-2,5.4116644E-2,-5.9343524E-2,1.5401144E-1,9.843046E-2,1.9402726E-1,1.3789439E-1,2.0933293E-1,1.4701863E-1,4.967269E-2,1.1436458E-1,1.463335E-1,2.0247503E-1,9.096887E-2,1.4086576E-1,1.28784E-1,2.0108926E-1,-4.7651585E-2,1.0287907E-1,1.6780859E-1,7.64491E-3,1.9279188E-1,1.2637563E-1,1.5202056E-1,2.2519581E-1,7.488315E-2,1.04061306E-1,1.6158961E-1,6.076413E-2,1.08654134E-1,1.5219998E-1,1.9349901E-1,1.5545844E-1,1.3785417E-1,1.6778201E-1,2.0740865E-1,1.6719292E-1,1.4704117E-1,2.1048807E-1,1.7002377E-1,1.9794272E-1,4.902273E-2,1.1638156E-1,1.5060522E-1,7.815679E-2,5.1597454E-2,1.1946578E-1,-1.4783196E-3,-1.5593509E-2,2.4407709E-1,2.046123E-1],"categories":[],"categories_nodes":[],"categories_segments":[],"categories_sizes":[],"default_left":[0,0,0,0,0,0,0,0,0,0,0,0,0,0,0,0,0,0,0,0,0,0,0,0,0,0,0,0,0,0,0,0,0,0,0,0,0,0,0,0,0,0,0,0,0,0,0,0,0,0,0,0,0,0,0,0,0,0,0,0,0,0,0,0,0,0,0,0,0,0,0,0,0,0,0,0,0,0,0,0,0,0,0,0,0,0,0,0,0,0,0,0,0,0,0,0,0,0,0,0,0,0,0,0,0,0,0,0,0,0,0,0,0,0,0,0,0,0,0,0,0,0,0,0,0,0,0,0,0,0,0,0,0,0,0,0,0,0,0,0,0,0,0,0,0,0,0,0,0,0,0,0,0,0,0,0,0,0,0,0,0,0,0,0,0,0,0,0,0,0,0,0,0,0,0,0,0,0,0,0,0,0,0,0,0,0,0,0,0,0,0,0,0,0,0,0,0,0,0,0,0,0,0,0,0,0,0,0,0,0,0,0,0,0,0,0,0,0,0,0,0,0,0,0,0,0,0,0,0,0,0,0,0,0,0,0,0,0,0,0,0,0,0,0,0,0,0,0,0,0,0,0,0,0,0,0,0,0,0,0,0,0,0,0,0,0,0,0,0,0,0,0,0,0,0,0,0,0,0,0,0,0,0,0,0,0,0,0,0,0,0,0,0,0,0,0,0,0,0,0,0,0,0,0,0,0,0,0,0,0,0,0,0,0,0,0,0,0,0,0,0,0,0,0,0,0,0,0,0,0,0,0,0,0,0,0,0,0,0,0,0,0,0,0,0,0,0,0,0,0,0,0,0,0,0,0,0,0,0,0,0,0,0,0,0,0,0,0,0,0,0,0,0,0,0,0,0,0,0,0,0,0,0,0,0,0,0,0,0,0,0,0,0,0,0,0,0,0,0,0,0,0,0,0,0,0,0,0,0,0,0,0,0,0,0,0,0,0,0,0,0,0,0,0,0,0,0,0,0,0,0,0,0,0,0,0,0,0,0,0,0,0,0,0,0,0,0,0,0,0,0,0,0,0,0,0,0,0,0,0,0,0,0,0,0,0,0,0,0,0,0,0,0,0,0],"id":2,"left_children":[1,3,5,7,9,11,13,15,17,19,21,23,25,27,29,31,33,35,37,39,41,43,45,47,49,51,53,55,57,59,61,63,65,67,69,71,73,75,77,79,81,83,85,87,89,91,93,95,97,99,101,103,105,107,109,111,113,115,117,119,121,123,125,127,129,131,133,135,137,139,141,143,145,147,149,151,153,155,157,159,161,163,165,167,169,171,173,175,177,179,181,183,185,187,189,191,193,195,197,199,201,203,205,207,209,211,213,215,217,-1,-1,219,221,223,225,227,229,231,233,235,237,239,241,243,245,247,249,251,253,255,257,259,261,263,265,267,-1,269,271,273,-1,275,-1,277,279,281,283,285,287,289,291,293,295,-1,-1,297,299,301,303,305,307,309,311,313,315,317,319,321,323,325,327,329,331,333,335,337,-1,339,341,343,345,347,349,351,353,355,357,-1,359,361,363,365,367,369,371,373,375,377,379,381,383,385,387,389,391,393,395,397,399,401,403,405,-1,407,409,411,413,415,417,419,421,423,425,427,429,-1,431,433,435,437,439,441,443,445,447,449,451,453,455,457,459,461,463,465,467,-1,469,471,-1,-1,473,-1,-1,-1,-1,-1,-1,-1,-1,-1,-1,-1,-1,-1,-1,-1,-1,-1,-1,-1,-1,-1,-1,-1,-1,-1,-1,-1,-1,-1,-1,-1,-1,-1,-1,-1,-1,-1,-1,-1,-1,-1,-1,-1,-1,-1,-1,-1,-1,-1,-1,-1,-1,-1,-1,-1,-1,-1,-1,-1,-1,-1,-1,-1,-1,-1,-1,-1,-1,-1,-1,-1,-1,-1,-1,-1,-1,-1,-1,-1,-1,-1,-1,-1,-1,-1,-1,-1,-1,-1,-1,-1,-1,-1,-1,-1,-1,-1,-1,-1,-1,-1,-1,-1,-1,-1,-1,-1,-1,-1,-1,-1,-1,-1,-1,-1,-1,-1,-1,-1,-1,-1,-1,-1,-1,-1,-1,-1,-1,-1,-1,-1,-1,-1,-1,-1,-1,-1,-1,-1,-1,-1,-1,-1,-1,-1,-1,-1,-1,-1,-1,-1,-1,-1,-1,-1,-1,-1,-1,-1,-1,-1,-1,-1,-1,-1,-1,-1,-1,-1,-1,-1,-1,-1,-1,-1,-1,-1,-1,-1,-1,-1,-1,-1,-1,-1,-1,-1,-1,-1,-1,-1,-1,-1,-1,-1,-1,-1,-1,-1,-1,-1,-1,-1,-1,-1,-1,-1,-1,-1,-1,-1,-1,-1,-1,-1,-1,-1,-1,-1,-1,-1,-1,-1,-1],"loss_changes":[8.626012E3,3.2677258E3,1.4020112E3,3.832218E2,1.0768408E3,5.544498E2,4.7348438E2,1.634296E2,2.4220538E2,4.485747E2,7.842145E1,4.3601764E2,3.214612E1,2.1529248E2,4.1027588E1,7.646471E1,1.1612808E1,1.7272412E2,1.4005081E1,1.4885216E2,2.9443652E2,1.0433723E1,3.7391136E1,4.90959E1,2.6357928E2,2.3144989E1,1.1252106E1,2.6377808E2,4.818579E1,2.0300293E1,4.675049E0,5.4829166E1,6.6166916E0,1.0307419E1,5.6140213E0,1.2038937E1,1.5843213E2,1.1426544E0,9.626091E0,4.6837402E1,1.8296513E1,4.3161896E1,2.1356738E2,2.0370026E0,4.5062046E0,1.600568E1,7.1716566E0,3.1466728E1,1.0489868E1,3.0366459E1,1.3648251E2,1.2750793E1,6.9725647E0,4.8632812E0,1.2957764E-1,1.0852533E2,3.0707275E1,1.6912231E1,2.4126587E0,1.0099396E1,6.442871E0,3.9098816E0,2.6850586E0,3.574173E1,2.5432053E1,2.5969696E0,2.447919E0,1.1463089E0,4.174637E0,8.7501526E-1,1.7294235E0,1.207999E1,5.740299E-1,1.04089966E2,9.847408E0,1.5146866E0,9.321976E-2,4.9183702E0,1.6836128E0,3.5971594E0,4.894745E1,8.710549E0,5.393122E0,2.323325E0,2.372319E1,6.2126297E1,9.355762E1,5.7769394E-1,1.3446999E0,1.1359444E0,3.112403E0,8.231125E0,2.6362584E0,7.224159E-1,1.8900659E0,2.129113E1,2.6211052E0,8.668064E0,5.5081635E0,1.2000863E1,2.0432281E0,4.5619194E1,9.736218E1,2.7528305E0,1.4976959E1,2.2322235E0,5.119587E0,2.810997E0,1.1927109E0,0E0,0E0,1.878061E1,9.737876E1,1.4450439E1,6.609619E0,1.5617249E1,5.8026123E0,2.9190292E0,7.5930786E-1,1.9798241E0,4.354065E0,5.2750244E0,1.8482666E0,5.412407E-1,7.8027344E-1,1.0255051E0,1.6235352E0,2.9744663E1,5.4429893E0,1.74426E1,1.6184036E1,2.204834E0,1.2924385E0,1.1651597E0,1.7068067E0,1.2123623E0,0E0,6.912918E-1,2.3047562E0,1.9991279E-1,0E0,8.3802795E-1,0E0,1.7561035E0,1.0876658E1,9.033203E-3,2.0064831E-1,7.6305647E0,9.0304504E1,3.0165977E0,5.0231705E0,3.9165497E-1,3.6656952E-1,0E0,0E0,3.6654854E0,1.9838028E0,3.8096857E-1,1.6594372E0,3.085369E0,1.963476E-1,1.2186417E1,2.5487045E1,3.7759576E0,1.4630985E0,3.173252E0,3.373549E-1,3.6614847E-1,1.1283407E0,1.1786987E1,6.8243294E0,1.1321732E1,1.2027588E0,6.5262695E1,9.6227455E0,2.0314217E-1,0E0,4.88616E-1,2.9655266E-1,1.7194188E-1,4.0652466E-1,4.4931373E-1,7.3331547E-1,3.5775948E0,2.438736E-1,6.4918447E-1,3.3686972E-1,0E0,2.4736595E-1,2.8289455E-1,6.5428305E-1,1.2772891E1,6.9414177E0,6.011009E-1,6.8751526E-1,7.369481E0,5.6438065E-1,6.4719086E0,2.781723E0,3.607357E0,8.972667E0,2.1311378E0,7.105961E-1,5.511862E0,7.1256256E0,5.5681885E1,1.1384144E0,8.8005066E-2,6.699829E-1,3.481636E0,1.1298889E1,2.2395172E0,0E0,6.07502E-1,1.5096779E0,3.979571E-1,1.7401352E0,2.5424004E-1,1.7501831E-1,8.345875E0,1.1040344E1,1.3264015E1,9.467613E1,6.720459E0,3.0510406E0,0E0,4.54718E0,1.6694153E1,3.0381775E0,4.462158E0,4.3126678E-1,1.3950362E0,5.6744766E-1,5.783386E-1,7.93457E-3,5.609741E-1,8.484268E-2,3.8348083E0,1.3884888E0,3.6838684E0,2.0754395E0,1.2411194E0,5.52948E-1,1.0506916E-1,2.0240784E-1,0E0,2.1286607E-2,2.5522364E-3,0E0,0E0,1.2584229E0,0E0,0E0,0E0,0E0,0E0,0E0,0E0,0E0,0E0,0E0,0E0,0E0,0E0,0E0,0E0,0E0,0E0,0E0,0E0,0E0,0E0,0E0,0E0,0E0,0E0,0E0,0E0,0E0,0E0,0E0,0E0,0E0,0E0,0E0,0E0,0E0,0E0,0E0,0E0,0E0,0E0,0E0,0E0,0E0,0E0,0E0,0E0,0E0,0E0,0E0,0E0,0E0,0E0,0E0,0E0,0E0,0E0,0E0,0E0,0E0,0E0,0E0,0E0,0E0,0E0,0E0,0E0,0E0,0E0,0E0,0E0,0E0,0E0,0E0,0E0,0E0,0E0,0E0,0E0,0E0,0E0,0E0,0E0,0E0,0E0,0E0,0E0,0E0,0E0,0E0,0E0,0E0,0E0,0E0,0E0,0E0,0E0,0E0,0E0,0E0,0E0,0E0,0E0,0E0,0E0,0E0,0E0,0E0,0E0,0E0,0E0,0E0,0E0,0E0,0E0,0E0,0E0,0E0,0E0,0E0,0E0,0E0,0E0,0E0,0E0,0E0,0E0,0E0,0E0,0E0,0E0,0E0,0E0,0E0,0E0,0E0,0E0,0E0,0E0,0E0,0E0,0E0,0E0,0E0,0E0,0E0,0E0,0E0,0E0,0E0,0E0,0E0,0E0,0E0,0E0,0E0,0E0,0E0,0E0,0E0,0E0,0E0,0E0,0E0,0E0,0E0,0E0,0E0,0E0,0E0,0E0,0E0,0E0,0E0,0E0,0E0,0E0,0E0,0E0,0E0,0E0,0E0,0E0,0E0,0E0,0E0,0E0,0E0,0E0,0E0,0E0,0E0,0E0,0E0,0E0,0E0,0E0,0E0,0E0,0E0,0E0,0E0,0E0,0E0,0E0,0E0,0E0,0E0,0E0,0E0,0E0,0E0,0E0,0E0,0E0,0E0,0E0,0E0,0E0,0E0,0E0,0E0,0E0,0E0],"parents":[2147483647,0,0,1,1,2,2,3,3,4,4,5,5,6,6,7,7,8,8,9,9,10,10,11,11,12,12,13,13,14,14,15,15,16,16,17,17,18,18,19,19,20,20,21,21,22,22,23,23,24,24,25,25,26,26,27,27,28,28,29,29,30,30,31,31,32,32,33,33,34,34,35,35,36,36,37,37,38,38,39,39,40,40,41,41,42,42,43,43,44,44,45,45,46,46,47,47,48,48,49,49,50,50,51,51,52,52,53,53,54,54,55,55,56,56,57,57,58,58,59,59,60,60,61,61,62,62,63,63,64,64,65,65,66,66,67,67,68,68,69,69,70,70,71,71,72,72,73,73,74,74,75,75,76,76,77,77,78,78,79,79,80,80,81,81,82,82,83,83,84,84,85,85,86,86,87,87,88,88,89,89,90,90,91,91,92,92,93,93,94,94,95,95,96,96,97,97,98,98,99,99,100,100,101,101,102,102,103,103,104,104,105,105,106,106,107,107,108,108,111,111,112,112,113,113,114,114,115,115,116,116,117,117,118,118,119,119,120,120,121,121,122,122,123,123,124,124,125,125,126,126,127,127,128,128,129,129,130,130,131,131,132,132,133,133,134,134,135,135,137,137,138,138,139,139,141,141,143,143,144,144,145,145,146,146,147,147,148,148,149,149,150,150,151,151,152,152,155,155,156,156,157,157,158,158,159,159,160,160,161,161,162,162,163,163,164,164,165,165,166,166,167,167,168,168,169,169,170,170,171,171,172,172,173,173,174,174,175,175,177,177,178,178,179,179,180,180,181,181,182,182,183,183,184,184,185,185,186,186,188,188,189,189,190,190,191,191,192,192,193,193,194,194,195,195,196,196,197,197,198,198,199,199,200,200,201,201,202,202,203,203,204,204,205,205,206,206,207,207,208,208,209,209,210,210,211,211,213,213,214,214,215,215,216,216,217,217,218,218,219,219,220,220,221,221,222,222,223,223,224,224,226,226,227,227,228,228,229,229,230,230,231,231,232,232,233,233,234,234,235,235,236,236,237,237,238,238,239,239,240,240,241,241,242,242,243,243,244,244,246,246,247,247,250,250],"right_children":[2,4,6,8,10,12,14,16,18,20,22,24,26,28,30,32,34,36,38,40,42,44,46,48,50,52,54,56,58,60,62,64,66,68,70,72,74,76,78,80,82,84,86,88,90,92,94,96,98,100,102,104,106,108,110,112,114,116,118,120,122,124,126,128,130,132,134,136,138,140,142,144,146,148,150,152,154,156,158,160,162,164,166,168,170,172,174,176,178,180,182,184,186,188,190,192,194,196,198,200,202,204,206,208,210,212,214,216,218,-1,-1,220,222,224,226,228,230,232,234,236,238,240,242,244,246,248,250,252,254,256,258,260,262,264,266,268,-1,270,272,274,-1,276,-1,278,280,282,284,286,288,290,292,294,296,-1,-1,298,300,302,304,306,308,310,312,314,316,318,320,322,324,326,328,330,332,334,336,338,-1,340,342,344,346,348,350,352,354,356,358,-1,360,362,364,366,368,370,372,374,376,378,380,382,384,386,388,390,392,394,396,398,400,402,404,406,-1,408,410,412,414,416,418,420,422,424,426,428,430,-1,432,434,436,438,440,442,444,446,448,450,452,454,456,458,460,462,464,466,468,-1,470,472,-1,-1,474,-1,-1,-1,-1,-1,-1,-1,-1,-1,-1,-1,-1,-1,-1,-1,-1,-1,-1,-1,-1,-1,-1,-1,-1,-1,-1,-1,-1,-1,-1,-1,-1,-1,-1,-1,-1,-1,-1,-1,-1,-1,-1,-1,-1,-1,-1,-1,-1,-1,-1,-1,-1,-1,-1,-1,-1,-1,-1,-1,-1,-1,-1,-1,-1,-1,-1,-1,-1,-1,-1,-1,-1,-1,-1,-1,-1,-1,-1,-1,-1,-1,-1,-1,-1,-1,-1,-1,-1,-1,-1,-1,-1,-1,-1,-1,-1,-1,-1,-1,-1,-1,-1,-1,-1,-1,-1,-1,-1,-1,-1,-1,-1,-1,-1,-1,-1,-1,-1,-1,-1,-1,-1,-1,-1,-1,-1,-1,-1,-1,-1,-1,-1,-1,-1,-1,-1,-1,-1,-1,-1,-1,-1,-1,-1,-1,-1,-1,-1,-1,-1,-1,-1,-1,-1,-1,-1,-1,-1,-1,-1,-1,-1,-1,-1,-1,-1,-1,-1,-1,-1,-1,-1,-1,-1,-1,-1,-1,-1,-1,-1,-1,-1,-1,-1,-1,-1,-1,-1,-1,-1,-1,-1,-1,-1,-1,-1,-1,-1,-1,-1,-1,-1,-1,-1,-1,-1,-1,-1,-1,-1,-1,-1,-1,-1,-1,-1,-1,-1,-1,-1,-1,-1,-1,-1],"split_conditions":[2E-1,9.954305E-4,6E0,5.730515E-4,9.1E0,9E0,8.9E0,8.4E0,9.7E0,5.216854E-4,5.1027274E-4,9.850505E-4,4.7E0,3E0,4.6E0,7.8E0,6.6E0,2.8862988E-4,4.8729384E-4,4.2E0,5.1321177E-4,2.7974034E-4,1.07E1,6.3E0,4.6810365E-4,1.27E1,1.08E1,1E1,9.5E0,1.09E1,7.4E0,9.953915E-4,6.9404795E-4,1.12E1,9E-1,9.4E0,9.9E0,5.7E0,7.5E0,3.0094702E-4,3.233429E-4,2.137029E-4,6.472685E-4,1.7396262E-4,7.576023E-4,1.26E1,3.7233945E-4,1.05E1,1.3E0,9.6E0,5.0737365E-4,2.4172118E-4,6.031008E-4,7.2E0,9.4859157E-4,5.210065E-4,1.24E1,5.3E0,7.8E0,1.1E1,1.25E1,7.8E0,1.1E0,7.7E0,1E0,8.2E0,6.827972E-4,1.19E1,3.9112035E-4,1.04E1,1E0,1.4892663E-4,1E-1,2.7231226E-4,5.1177345E-4,2.203849E-4,9.805894E-4,1.04E1,1.11E1,3.9E0,1E0,1.17E1,1.21E1,1.243465E-4,5.8E0,9.1E0,8E0,1.42E1,1.29E1,1.14E1,1.25E1,9.4E0,8.139148E-4,1.5314632E-4,1.08E1,8.1E0,7.4E0,8.9E0,4.5E0,2.0442058E-4,4.1E0,4.4E0,1.11E1,1.4291155E-4,3.177803E-4,1.5E1,1.22E1,4.9E0,4.6149475E-4,2.1528628E-1,5.4579686E-2,7.1E0,5.216854E-4,1.27E1,1.611398E-4,1.1E1,1.04E1,1E-1,1.3E1,1.22E1,1.24E1,1.33E1,6.076415E-4,5.2E0,9.6564443E-4,4.1190904E-4,1E-1,8E0,4.9259677E-4,6.32529E-4,5.999749E-4,6.4299104E-4,8.5E0,1.3E0,1.03E1,4.4748685E-4,1.2800063E-1,1.3818618E-4,7.6E0,5.0737365E-4,1.371709E-1,1E0,9.011927E-2,1.450478E-4,2.7988022E-4,9.270599E-4,3.2E0,2.5432484E-4,1.03E1,1.729355E-4,7.7E0,1.12E1,1.15E1,1.4228576E-1,9.5162645E-2,7.7E0,1E-1,5.1086047E-4,7.4391987E-4,3.5629593E-4,4.8954115E-4,2.9259964E-4,5.0527876E-4,3.5102392E-4,1.6563036E-4,1.8752561E-4,4.2609219E-4,9.215502E-5,1.8785802E-4,5.01716E-4,3.6927112E-4,9.8E0,1E0,9.778915E-4,4.2821423E-4,9.91069E-4,1.5317862E-1,7.790933E-4,1.47E1,4.7512562E-4,2.0203326E-4,1E-1,4.3038782E-4,1.04E1,1E1,6.6275796E-4,1E0,1.6499017E-1,3.029903E-4,9.8E0,1.27E1,7.1E0,9.2209183E-4,8.2151534E-4,1E-1,8.638719E-4,1E-1,5.1687803E-4,1.2E1,1.1810631E-4,7E0,1.15E1,1.5453843E-4,2.6017646E-4,1.12E1,4.1408255E-4,2.4434822E-4,1.03E1,1.03E1,1.432713E-4,1.06E1,1.5056363E-4,1.843827E-1,1E-1,6.256509E-4,6.7014125E-4,4.7665587E-4,2.4E0,6.592757E-4,9.953915E-4,1.17E1,7.4E0,5.2222854E-4,1.8115349E-4,1.9471959E-4,2.1738897E-1,1.5314632E-4,3.5E0,1.08E1,5.5E0,7.5E0,6.0186186E-4,9.663674E-4,9.259451E-4,4.4E0,7.9E0,1.13E1,1.08E1,2.8520616E-4,2E-1,4.6109717E-4,1.04E1,1.31E1,4.2E0,7.6E0,1.9973989E-1,2.9E0,2E-1,1.3424554E-1,-2.5605932E-2,1.5453843E-4,1.492133E-2,8.625197E-2,1.3329208E-1,6.787071E-2,-1.4568976E-2,-6.395693E-2,-2.4047097E-2,3.6051773E-2,1.0128152E-1,6.381509E-2,2.2566354E-1,1.1781552E-1,4.377452E-2,1.0166897E-1,-4.9839474E-2,6.235343E-2,7.226417E-2,3.39763E-2,2.011189E-1,1.3848802E-1,7.343225E-2,1.383242E-1,9.8605774E-2,4.406772E-2,2.2063963E-1,1.0969164E-1,6.521362E-2,3.5345588E-2,4.8882212E-2,-6.1804983E-3,6.736983E-2,1.013338E-1,6.6712566E-2,1.6462825E-1,4.2840388E-2,-6.943026E-3,-7.657712E-2,9.886878E-2,1.9124456E-1,1.0579031E-1,2.8017307E-2,1.3941513E-1,9.657989E-2,1.3854878E-1,7.683431E-2,9.987875E-2,-7.7161364E-2,3.291975E-2,2.7997363E-2,8.115285E-2,9.021313E-2,5.1120616E-2,1.3180532E-1,6.822133E-2,-4.3776442E-4,-5.1880192E-2,7.068604E-2,1.0345392E-2,1.4315771E-2,-1.1396623E-1,-2.8413227E-1,-6.73133E-2,5.1910676E-2,9.808367E-3,1.6068779E-1,8.523016E-2,7.198986E-2,-3.802239E-2,7.0899546E-2,2.817581E-2,8.386292E-2,4.337777E-2,1.736501E-2,-2.2285623E-2,-1.9933468E-2,-1.286882E-1,-2.5690852E-2,-7.585715E-2,-9.8162316E-2,4.2974535E-2,1.0087188E-1,4.5221306E-2,-1.5810463E-1,-1.9382338E-1,8.653241E-2,-3.9634343E-2,1.2216568E-1,8.452853E-2,7.8086846E-2,4.206937E-2,9.158944E-2,1.2180474E-1,6.8311974E-2,3.2144736E-2,1.2167231E-1,8.289E-2,3.38747E-4,6.895129E-2,5.841433E-2,3.1660404E-2,-1.028949E-1,-6.058991E-2,2.3324087E-2,1.1536046E-1,1.0626359E-2,-9.900702E-3,-4.0474065E-2,-1.0811677E-2,9.973613E-2,6.81195E-2,9.13808E-3,-2.8446222E-2,1.8287186E-2,4.3656137E-2,9.592261E-3,6.769671E-2,9.130161E-2,3.4191687E-2,9.904468E-2,1.5069847E-1,1.4044036E-1,2.0706446E-1,6.1835457E-2,-7.580999E-2,1.3805291E-1,4.512317E-2,1.2101586E-1,4.465449E-2,1.2728946E-1,1.8981256E-1,9.6244626E-2,4.0468063E-2,-4.5340345E-3,8.225869E-2,4.909289E-2,9.524669E-2,2.0064151E-1,1.1581295E-1,8.06475E-3,-6.891542E-2,2.6547918E-2,8.4356576E-2,-2.1075297E-2,-1.1652831E-1,1.7592214E-1,1.1121818E-1,9.1714874E-2,1.9699726E-1,6.795924E-2,1.16929166E-1,1.6908865E-1,9.829437E-2,4.753154E-2,1.20384194E-1,1.9994934E-1,1.3030799E-1,4.8706654E-2,9.583112E-2,1.3226272E-1,6.669829E-2,7.257269E-2,1.8411446E-2,1.4568147E-1,1.0842232E-1,1.6682759E-2,1.3785362E-1,1.6202389E-1,2.0401195E-1,6.472736E-2,7.954926E-3,8.463577E-2,1.2635528E-1,4.2108566E-2,8.957083E-2,5.4116644E-2,-5.9343524E-2,1.5401144E-1,9.843046E-2,1.9402726E-1,1.3789439E-1,2.0933293E-1,1.4701863E-1,4.967269E-2,1.1436458E-1,1.463335E-1,2.0247503E-1,9.096887E-2,1.4086576E-1,1.28784E-1,2.0108926E-1,-4.7651585E-2,1.0287907E-1,1.6780859E-1,7.64491E-3,1.9279188E-1,1.2637563E-1,1.5202056E-1,2.2519581E-1,7.488315E-2,1.04061306E-1,1.6158961E-1,6.076413E-2,1.08654134E-1,1.5219998E-1,1.9349901E-1,1.5545844E-1,1.3785417E-1,1.6778201E-1,2.0740865E-1,1.6719292E-1,1.4704117E-1,2.1048807E-1,1.7002377E-1,1.9794272E-1,4.902273E-2,1.1638156E-1,1.5060522E-1,7.815679E-2,5.1597454E-2,1.1946578E-1,-1.4783196E-3,-1.5593509E-2,2.4407709E-1,2.046123E-1],"split_indices":[2,15,3,17,0,0,5,7,5,11,10,17,6,7,8,5,4,13,15,1,10,10,1,6,12,2,9,0,8,2,4,19,15,7,8,3,1,1,4,14,11,10,13,10,11,0,11,5,4,2,11,10,12,4,15,13,2,9,3,5,4,7,0,3,21,4,18,1,17,7,23,13,5,11,11,15,16,5,4,4,22,1,1,10,0,3,4,0,0,1,0,3,10,11,0,2,9,1,8,12,5,1,5,10,11,1,1,1,13,0,0,2,11,3,12,3,4,5,2,6,4,5,10,2,13,16,1,9,13,15,18,13,4,3,5,17,0,17,6,14,0,29,0,12,16,17,4,16,4,11,4,5,5,0,0,0,0,16,14,10,13,13,12,10,11,14,11,10,10,12,10,4,23,12,14,11,0,11,0,11,11,3,10,0,0,10,20,0,11,0,1,1,18,16,6,15,4,14,5,12,5,2,12,15,1,10,15,0,0,11,4,12,0,3,10,13,10,1,11,14,3,2,12,11,11,0,11,4,6,8,3,15,10,14,4,0,3,1,14,6,15,0,1,1,7,0,2,1,0,0,12,0,0,0,0,0,0,0,0,0,0,0,0,0,0,0,0,0,0,0,0,0,0,0,0,0,0,0,0,0,0,0,0,0,0,0,0,0,0,0,0,0,0,0,0,0,0,0,0,0,0,0,0,0,0,0,0,0,0,0,0,0,0,0,0,0,0,0,0,0,0,0,0,0,0,0,0,0,0,0,0,0,0,0,0,0,0,0,0,0,0,0,0,0,0,0,0,0,0,0,0,0,0,0,0,0,0,0,0,0,0,0,0,0,0,0,0,0,0,0,0,0,0,0,0,0,0,0,0,0,0,0,0,0,0,0,0,0,0,0,0,0,0,0,0,0,0,0,0,0,0,0,0,0,0,0,0,0,0,0,0,0,0,0,0,0,0,0,0,0,0,0,0,0,0,0,0,0,0,0,0,0,0,0,0,0,0,0,0,0,0,0,0,0,0,0,0,0,0,0,0,0,0,0,0,0,0,0,0,0,0,0,0,0,0,0,0,0,0,0,0,0,0,0,0],"split_type":[0,0,0,0,0,0,0,0,0,0,0,0,0,0,0,0,0,0,0,0,0,0,0,0,0,0,0,0,0,0,0,0,0,0,0,0,0,0,0,0,0,0,0,0,0,0,0,0,0,0,0,0,0,0,0,0,0,0,0,0,0,0,0,0,0,0,0,0,0,0,0,0,0,0,0,0,0,0,0,0,0,0,0,0,0,0,0,0,0,0,0,0,0,0,0,0,0,0,0,0,0,0,0,0,0,0,0,0,0,0,0,0,0,0,0,0,0,0,0,0,0,0,0,0,0,0,0,0,0,0,0,0,0,0,0,0,0,0,0,0,0,0,0,0,0,0,0,0,0,0,0,0,0,0,0,0,0,0,0,0,0,0,0,0,0,0,0,0,0,0,0,0,0,0,0,0,0,0,0,0,0,0,0,0,0,0,0,0,0,0,0,0,0,0,0,0,0,0,0,0,0,0,0,0,0,0,0,0,0,0,0,0,0,0,0,0,0,0,0,0,0,0,0,0,0,0,0,0,0,0,0,0,0,0,0,0,0,0,0,0,0,0,0,0,0,0,0,0,0,0,0,0,0,0,0,0,0,0,0,0,0,0,0,0,0,0,0,0,0,0,0,0,0,0,0,0,0,0,0,0,0,0,0,0,0,0,0,0,0,0,0,0,0,0,0,0,0,0,0,0,0,0,0,0,0,0,0,0,0,0,0,0,0,0,0,0,0,0,0,0,0,0,0,0,0,0,0,0,0,0,0,0,0,0,0,0,0,0,0,0,0,0,0,0,0,0,0,0,0,0,0,0,0,0,0,0,0,0,0,0,0,0,0,0,0,0,0,0,0,0,0,0,0,0,0,0,0,0,0,0,0,0,0,0,0,0,0,0,0,0,0,0,0,0,0,0,0,0,0,0,0,0,0,0,0,0,0,0,0,0,0,0,0,0,0,0,0,0,0,0,0,0,0,0,0,0,0,0,0,0,0,0,0,0,0,0,0,0,0,0,0,0,0,0,0,0,0,0,0,0,0,0,0,0,0,0,0,0,0,0,0,0,0,0,0,0,0,0,0,0,0,0,0,0,0],"sum_hessian":[5.808E4,3.2558E4,2.5522E4,1.6832E4,1.5726E4,9.27E3,1.6252E4,7.69E3,9.142E3,1.4036E4,1.69E3,6.731E3,2.539E3,1.1835E4,4.417E3,7.022E3,6.68E2,8.468E3,6.74E2,1.721E3,1.2315E4,6.73E2,1.017E3,2.435E3,4.296E3,2.024E3,5.15E2,7.235E3,4.6E3,2.512E3,1.905E3,6.482E3,5.4E2,5.08E2,1.6E2,1.499E3,6.969E3,3.32E2,3.42E2,9.72E2,7.49E2,1.056E3,1.1259E4,2.79E2,3.94E2,7.34E2,2.83E2,1.613E3,8.22E2,1.198E3,3.098E3,1.433E3,5.91E2,4.24E2,9.1E1,4.386E3,2.849E3,4.067E3,5.33E2,8.31E2,1.681E3,2.74E2,1.631E3,4.575E3,1.907E3,4.4E2,1E2,1.78E2,3.3E2,7.6E1,8.4E1,1.449E3,5E1,6.668E3,3.01E2,2.66E2,6.6E1,2.01E2,1.41E2,2.28E2,7.44E2,4.28E2,3.21E2,1.97E2,8.59E2,7.8E2,1.0479E4,8.7E1,1.92E2,1.16E2,2.78E2,3.67E2,3.67E2,7.6E1,2.07E2,1.481E3,1.32E2,2.88E2,5.34E2,9.13E2,2.85E2,7.46E2,2.352E3,2.4E2,1.193E3,3.82E2,2.09E2,2.78E2,1.46E2,9E1,1E0,2.169E3,2.217E3,1.833E3,1.016E3,2.057E3,2.01E3,5.9E1,4.74E2,1.8E2,6.51E2,1.067E3,6.14E2,1.2E2,1.54E2,1.9E1,1.612E3,4.363E3,2.12E2,1.167E3,7.4E2,3.02E2,1.38E2,7.7E1,2.3E1,1.67E2,1.1E1,2.17E2,1.13E2,1.6E1,6E1,7.7E1,7E0,4.13E2,1.036E3,3.5E1,1.5E1,8.57E2,5.811E3,1.67E2,1.34E2,8.2E1,1.84E2,5.5E1,1.1E1,4.8E1,1.53E2,5.8E1,8.3E1,2.12E2,1.6E1,6.08E2,1.36E2,3.63E2,6.5E1,2.88E2,3.3E1,5.7E1,1.4E2,4.23E2,4.36E2,6.94E2,8.6E1,1.0381E4,9.8E1,5.7E1,3E1,7.3E1,1.19E2,2.9E1,8.7E1,8.7E1,1.91E2,3.57E2,1E1,2.45E2,1.22E2,6E0,7E1,3.6E1,1.71E2,1.082E3,3.99E2,8.2E1,5E1,2.2E2,6.8E1,1.88E2,3.46E2,2.94E2,6.19E2,2.27E2,5.8E1,3.09E2,4.37E2,2.281E3,7.1E1,2.4E1,2.16E2,3.59E2,8.34E2,3.29E2,5.3E1,8.5E1,1.24E2,3.2E1,2.46E2,5.6E1,9E1,7.37E2,1.432E3,9.49E2,1.268E3,1.424E3,4.09E2,6.9E1,9.47E2,1.753E3,3.04E2,1.923E3,8.7E1,8E0,5.1E1,3.73E2,1.01E2,1.61E2,1.9E1,3.58E2,2.93E2,7.76E2,2.91E2,2.82E2,3.32E2,8E0,1.12E2,1.48E2,6E0,2E0,1.7E1,1E0,1.611E3,4.116E3,2.47E2,1.12E2,1E2,6.65E2,5.02E2,3.02E2,4.38E2,1.99E2,1.03E2,5E0,1.33E2,5.8E1,1.9E1,1.6E1,7E0,1.17E2,5E1,1.2E1,2.05E2,8E1,3.3E1,8E0,8E0,7.1E1,6E0,1.09E2,3.04E2,1.71E2,8.65E2,1E1,2.5E1,3E0,1.2E1,1.48E2,7.09E2,5.692E3,1.19E2,2E1,1.47E2,1.16E2,1.8E1,2.5E1,5.7E1,6.8E1,1.16E2,2.8E1,2E1,1.16E2,3.7E1,1.7E1,4.1E1,5.4E1,2.9E1,6.9E1,1.43E2,1.3E1,3E0,3.1E1,5.77E2,1.08E2,2.8E1,1.36E2,2.27E2,1.5E1,5E1,1E1,2.78E2,1.6E1,1.7E1,1.3E1,4.4E1,1.01E2,3.9E1,4.5E1,3.78E2,2.21E2,2.15E2,6.71E2,2.3E1,6.2E1,2.4E1,2.86E3,7.521E3,4E1,5.8E1,3.5E1,2.2E1,4.3E1,3E1,8.7E1,3.2E1,9E0,2E1,2.1E1,6.6E1,8.4E1,3E0,1.23E2,6.8E1,1.3E2,2.27E2,2E0,8E0,1.17E2,1.28E2,1.03E2,1.9E1,4.1E1,2.9E1,1.1E1,2.5E1,7.3E1,9.8E1,9.01E2,1.81E2,2.73E2,1.26E2,6.6E1,1.6E1,2.8E1,2.2E1,2.04E2,1.6E1,6.4E1,4E0,1.12E2,7.6E1,3.1E2,3.6E1,5.8E1,2.36E2,5.68E2,5.1E1,5.7E1,1.7E2,6E0,5.2E1,4.3E1,2.66E2,3.21E2,1.16E2,2.79E2,2.002E3,2E1,5.1E1,3E0,2.1E1,1.7E1,1.99E2,3.2E1,3.27E2,7.38E2,9.6E1,2.3E1,3.06E2,7.1E1,1.4E1,1.04E2,2E1,2.4E1,8E0,1.12E2,1.34E2,1E0,5.5E1,5.1E1,3.9E1,6.12E2,1.25E2,1.094E3,3.38E2,4.59E2,4.9E2,4.62E2,8.06E2,9.6E1,1.328E3,5.1E1,3.58E2,5.5E1,8.92E2,1.8E2,1.573E3,2.48E2,5.6E1,8.2E1,1.841E3,1.1E1,7.6E1,4E0,4E0,5E1,1E0,3.6E2,1.3E1,9E0,9.2E1,1.12E2,4.9E1,1.7E1,2E0,1.75E2,1.83E2,7.7E1,2.16E2,3.38E2,4.38E2,1.49E2,1.42E2,2.4E1,2.58E2,2.35E2,9.7E1,6E0,2E0,1.07E2,5E0,3E0,3E0,1E0,1E0,6.1E1,1.55E3],"tree_param":{"num_deleted":"0","num_feature":"30","num_nodes":"475","size_leaf_vector":"1"}},{"base_weights":[8.724279E-4,-2.4204244E-1,3.9378363E-1,2.9146986E-4,-5.168835E-1,2.4632557E-1,5.921138E-1,-3.971748E-2,4.228343E-1,-5.896353E-1,8.667915E-2,9.640356E-2,4.7951153E-1,5.112043E-1,7.8336877E-1,7.532864E-2,-1.8436942E-1,3.6076748E-1,6.36577E-1,-2.1891166E-1,-6.442918E-1,2.8671274E-1,-6.102959E-2,-1.7039816E-1,2.2171581E-1,4.1771352E-1,5.87453E-1,4.5047694E-1,6.61627E-1,7.341425E-1,8.5403883E-1,4.7513165E-2,5.050679E-1,2.7718235E-2,-2.5733477E-1,4.5041525E-1,1.8292284E-1,5.511019E-1,8.747965E-1,-4.536854E-1,-6.8213465E-3,-2.3983203E-1,-6.8437773E-1,3.779786E-1,1.7808789E-1,-1.5558138E-1,1.7666963E-1,1.04845084E-1,-2.84802E-1,1.370259E-1,4.2748323E-1,5.1443803E-1,3.543401E-1,5.4995215E-1,7.53469E-1,3.08321E-1,5.288037E-1,6.2858444E-1,8.2394624E-1,6.606084E-1,7.7706784E-1,-1.3326432E-1,8.576074E-1,2.2724766E-2,3.731091E-1,6.9464386E-1,4.3827835E-1,6.205265E-3,3.9634228E-1,-2.971751E-1,2.6306987E-1,3.5603526E-1,5.361284E-1,-8.0830745E-2,2.8261533E-1,4.5868874E-1,6.6157436E-1,4.2300355E-2,8.939189E-1,-3.6882576E-1,-8.553831E-1,1.20497115E-1,-1.8674454E-1,-3.153993E-1,3.197803E-1,-2.7245897E-1,-7.1850145E-1,2.9189408E-1,4.4212765E-1,3.3570322E-1,1.10908374E-1,-3.5453513E-1,-8.7915E-2,3.752101E-1,9.396968E-2,-1.3542001E-1,2.4930176E-1,7.00203E-2,-4.166639E-1,5.6758985E-2,4.0346494E-1,3.0604902E-1,5.1081645E-1,8.6093855E-1,4.891214E-1,2.7728173E-1,4.3396723E-1,7.8597605E-1,5.3357166E-1,6.842207E-1,8.1056714E-1,-2.450016E-2,3.619374E-1,1.7918845E-1,5.381417E-1,5.773086E-1,7.400673E-1,7.612795E-1,8.803663E-1,6.1552423E-1,7.463217E-1,1.9930778E-1,7.684757E-1,-5.789597E-2,4.915978E-2,3.154757E-2,8.593093E-1,1.0413498E-1,-5.7640933E-2,4.4919762E-1,2.0877868E-1,6.3255334E-1,1.7542847E-1,3.489879E-1,5.672436E-1,1.15675956E-1,-6.942024E-2,1.2950985E-1,3.6725816E-1,-3.2288837E-1,2.8835097E-1,4.5541537E-1,1.083771E-1,2.948328E-1,5.112869E-1,6.551111E-1,4.6341422E-1,-2.0537573E-1,3.9567345E-1,2.1714477E-1,4.911332E-1,4.8998502E-1,8.396077E-2,5.355109E-1,8.2904613E-1,6.044208E-2,9.102846E-1,-4.60974E-2,-4.4837043E-1,-1.1354128E0,-2.4011591E-1,7.289981E-2,3.867609E-1,-2.0529556E-1,4.6264407E-1,1.2284529E-1,-3.5599568E-1,4.748527E-1,2.2384077E-1,-4.9861434E-1,-8.008741E-2,-7.266197E-1,1.381733E-1,2.6109627E-1,5.026102E-1,1.5305732E-1,4.1840786E-1,2.9079446E-1,1.21367835E-1,-3.199215E-2,1.7036138E-1,1.86417E-1,-3.8579738E-1,-1.0445801E-1,5.6236035E-1,5.16102E-1,3.0320704E-1,-7.778328E-2,1.2624851E-1,2.608048E-1,-1.9263855E-1,1.451128E-1,3.7342617E-1,3.120326E-1,-1.7304186E-2,-1.0517651E-2,-5.387868E-1,2.3221096E-1,-9.251907E-2,7.103078E-1,3.6998892E-1,5.8990247E-3,3.5238487E-1,6.0791963E-1,4.5888808E-1,1.5019687E-1,1.9485568E-1,4.2535368E-1,5.571173E-1,2.376527E-1,4.6030897E-1,6.995002E-1,4.078356E-1,1.792995E-1,1.350426E-1,1.7218862E-1,5.2246535E-1,6.2584746E-1,1.7505407E-1,8.172381E-1,6.388103E-2,1.10830896E-1,-7.0746726E-1,3.136107E-1,5.95486E-1,1.0861462E-2,6.301171E-1,5.808244E-1,4.7053546E-1,5.1749665E-1,6.5515894E-1,7.876093E-1,6.59528E-1,8.206665E-1,6.524174E-1,1.396759E-1,1.8079518E-1,6.376957E-1,3.8052863E-1,8.10647E-1,6.255219E-1,1.774631E-1,7.5176E-1,1.996904E-1,8.4872353E-1,1.7024321E-2,7.900972E-2,-1.6611543E-2,6.847521E-2,5.6703717E-2,1.01252966E-1,5.2034326E-2,-8.227452E-3,1.0720322E-1,1.5203172E-1,6.082346E-2,1.0663139E-1,9.824068E-2,1.5891021E-1,4.7593076E-2,1.4553539E-2,6.251389E-2,-2.0795109E-2,7.4621804E-2,-2.1197561E-2,-3.7595965E-2,-8.3407566E-2,8.997545E-2,3.157341E-2,1.318679E-1,7.672405E-2,1.1864303E-2,1.3547935E-1,4.4250857E-2,8.4408626E-2,9.090044E-2,1.1956215E-1,1.7762244E-1,1.2189527E-1,1.1318561E-1,8.514014E-2,2.121943E-2,-8.876584E-2,-2.1341613E-2,9.92893E-2,2.7512819E-2,6.469282E-2,7.793221E-2,1.3066761E-1,9.194874E-2,1.6111755E-1,5.1146705E-2,-1.9961273E-2,1.1694975E-1,7.895781E-2,3.6174215E-2,1.6767845E-1,1.11739956E-1,1.8574934E-1,1.3889319E-2,-2.6846936E-2,-1.487606E-1,-7.084837E-2,-2.4361522E-1,-3.9047908E-2,-4.0123403E-2,-5.826167E-2,6.512987E-2,8.396722E-3,1.5219544E-1,6.7157306E-2,-5.861327E-2,-1.5423874E-2,1.1649193E-1,3.5682067E-2,1.203205E-2,6.0021687E-2,-1.3967513E-2,-7.664311E-2,1.239356E-1,8.02755E-2,8.581422E-2,2.739369E-2,-1.1256313E-1,-3.409692E-2,1.5946148E-2,-4.3699056E-2,-1.4979361E-1,-9.895345E-2,1.0687865E-1,-1.5402312E-3,8.064854E-2,4.3011673E-2,8.397033E-2,1.306649E-1,7.585882E-2,1.0321318E-1,1.0129142E-1,5.105088E-2,-1.26206605E-2,5.496017E-2,8.3266556E-2,3.2146912E-2,4.2471904E-2,9.2900805E-3,-7.286493E-2,-2.1203668E-1,-4.52554E-2,-9.148287E-3,1.2468012E-1,5.0781947E-2,1.30018145E-2,1.06080286E-1,3.4285203E-2,7.499803E-2,7.462766E-3,-2.6890412E-2,1.0559427E-1,2.2795836E-2,5.75336E-2,-6.525433E-2,4.922506E-2,-4.7167134E-2,3.1110382E-2,-1.5254894E-1,1.1023233E-1,6.551089E-2,1.12587474E-1,4.82336E-2,-3.285977E-2,1.2814946E-2,1.2113977E-3,-2.4439612E-1,6.920403E-2,-1.2039023E-1,1.5548755E-2,5.9987407E-2,4.1351803E-2,-4.6298645E-2,1.1950284E-1,1.8778859E-1,6.614938E-2,1.2567201E-1,2.554038E-2,-8.478537E-2,6.412889E-2,1.3624012E-1,6.700722E-2,1.23344116E-1,8.646415E-2,1.469676E-1,7.987389E-2,1.32074E-1,1.0604016E-1,1.5398698E-1,7.267244E-2,3.6741268E-2,9.961265E-2,7.257589E-2,1.8444209E-1,1.2283205E-1,1.1087673E-1,7.1746685E-2,1.420529E-1,1.0021969E-1,1.2952363E-1,9.257453E-2,1.6450089E-1,7.7821985E-2,5.99948E-2,-2.3474453E-2,3.452177E-2,-1.7454235E-1,8.133052E-2,4.5692813E-2,1.4765331E-1,1.0436249E-1,5.618748E-2,-3.53986E-2,1.3400821E-1,3.0783657E-2,1.1350172E-1,1.5732998E-1,1.3413663E-1,9.06457E-2,1.5753262E-1,9.8311804E-2,1.7581935E-1,1.2566511E-1,1.4392212E-1,1.724066E-1,1.5560895E-1,1.2013207E-1,1.7288797E-1,1.3290337E-1,1.3164942E-1,3.026349E-2,7.943886E-2,1.3089493E-1,-2.5724132E-2,1.04117826E-1,1.23644106E-1,1.6905229E-1,1.0289972E-1,1.5016028E-1,1.8819894E-1,1.478331E-1,1.658423E-1,1.8401518E-1],"categories":[],"categories_nodes":[],"categories_segments":[],"categories_sizes":[],"default_left":[0,0,0,0,0,0,0,0,0,0,0,0,0,0,0,0,0,0,0,0,0,0,0,0,0,0,0,0,0,0,0,0,0,0,0,0,0,0,0,0,0,0,0,0,0,0,0,0,0,0,0,0,0,0,0,0,0,0,0,0,0,0,0,0,0,0,0,0,0,0,0,0,0,0,0,0,0,0,0,0,0,0,0,0,0,0,0,0,0,0,0,0,0,0,0,0,0,0,0,0,0,0,0,0,0,0,0,0,0,0,0,0,0,0,0,0,0,0,0,0,0,0,0,0,0,0,0,0,0,0,0,0,0,0,0,0,0,0,0,0,0,0,0,0,0,0,0,0,0,0,0,0,0,0,0,0,0,0,0,0,0,0,0,0,0,0,0,0,0,0,0,0,0,0,0,0,0,0,0,0,0,0,0,0,0,0,0,0,0,0,0,0,0,0,0,0,0,0,0,0,0,0,0,0,0,0,0,0,0,0,0,0,0,0,0,0,0,0,0,0,0,0,0,0,0,0,0,0,0,0,0,0,0,0,0,0,0,0,0,0,0,0,0,0,0,0,0,0,0,0,0,0,0,0,0,0,0,0,0,0,0,0,0,0,0,0,0,0,0,0,0,0,0,0,0,0,0,0,0,0,0,0,0,0,0,0,0,0,0,0,0,0,0,0,0,0,0,0,0,0,0,0,0,0,0,0,0,0,0,0,0,0,0,0,0,0,0,0,0,0,0,0,0,0,0,0,0,0,0,0,0,0,0,0,0,0,0,0,0,0,0,0,0,0,0,0,0,0,0,0,0,0,0,0,0,0,0,0,0,0,0,0,0,0,0,0,0,0,0,0,0,0,0,0,0,0,0,0,0,0,0,0,0,0,0,0,0,0,0,0,0,0,0,0,0,0,0,0,0,0,0,0,0,0,0,0,0,0,0,0,0,0,0,0,0,0,0,0,0,0,0,0,0,0,0,0,0,0,0,0,0,0,0,0,0,0,0,0,0,0,0,0,0,0,0,0,0,0,0],"id":3,"left_children":[1,3,5,7,9,11,13,15,17,19,21,23,25,27,29,31,33,35,37,39,41,43,45,47,49,51,53,55,57,59,61,63,65,67,69,71,73,75,77,79,81,83,85,87,89,91,93,95,97,99,101,103,105,107,109,111,113,115,117,119,121,123,125,127,129,131,133,135,137,139,141,143,145,147,149,151,153,-1,155,157,159,161,163,165,167,169,171,173,175,177,179,181,183,185,187,189,191,193,195,197,199,201,203,205,207,209,211,213,215,217,219,221,223,225,227,229,231,233,235,237,239,-1,241,-1,-1,-1,243,245,247,249,251,253,-1,255,257,259,261,-1,263,265,267,269,271,273,275,277,279,281,283,285,287,289,291,293,295,-1,297,299,301,303,305,307,309,311,313,315,317,319,321,323,325,327,329,331,333,-1,335,337,-1,339,341,343,345,347,349,351,353,355,357,359,361,363,365,367,369,371,373,375,377,379,381,383,385,387,389,-1,-1,391,393,395,397,399,401,-1,-1,-1,403,405,-1,407,-1,409,411,413,415,417,419,421,423,425,427,429,431,433,435,-1,-1,437,439,441,443,-1,445,-1,447,-1,-1,-1,-1,-1,-1,-1,-1,-1,-1,-1,-1,-1,-1,-1,-1,-1,-1,-1,-1,-1,-1,-1,-1,-1,-1,-1,-1,-1,-1,-1,-1,-1,-1,-1,-1,-1,-1,-1,-1,-1,-1,-1,-1,-1,-1,-1,-1,-1,-1,-1,-1,-1,-1,-1,-1,-1,-1,-1,-1,-1,-1,-1,-1,-1,-1,-1,-1,-1,-1,-1,-1,-1,-1,-1,-1,-1,-1,-1,-1,-1,-1,-1,-1,-1,-1,-1,-1,-1,-1,-1,-1,-1,-1,-1,-1,-1,-1,-1,-1,-1,-1,-1,-1,-1,-1,-1,-1,-1,-1,-1,-1,-1,-1,-1,-1,-1,-1,-1,-1,-1,-1,-1,-1,-1,-1,-1,-1,-1,-1,-1,-1,-1,-1,-1,-1,-1,-1,-1,-1,-1,-1,-1,-1,-1,-1,-1,-1,-1,-1,-1,-1,-1,-1,-1,-1,-1,-1,-1,-1,-1,-1,-1,-1,-1,-1,-1,-1,-1,-1,-1,-1,-1,-1,-1,-1,-1,-1,-1,-1,-1,-1,-1,-1,-1,-1,-1,-1,-1,-1,-1,-1,-1,-1,-1,-1,-1,-1,-1,-1,-1,-1,-1,-1],"loss_changes":[5.5435767E3,2.3905264E3,6.4880884E2,3.2248914E2,7.385337E2,4.4495593E2,1.4601782E2,2.9001117E2,2.165979E1,3.0397852E2,5.3497047E1,2.5911414E2,3.2980713E1,6.0466553E1,9.1521E0,1.1600766E2,1.1947446E2,2.0341064E1,7.051773E0,9.609784E1,2.1190332E2,7.556347E0,2.3446318E1,7.802782E1,9.183099E1,1.9255188E1,1.0860474E1,5.263733E1,9.731567E0,4.7391357E0,4.1590576E0,7.358291E1,7.1659393E0,1.5675541E1,1.1916916E2,6.69339E0,1.1355668E1,2.5040512E0,1.0285797E0,3.0909058E1,2.327366E1,5.004342E1,1.6707275E2,2.1737213E0,3.7005167E0,1.0011843E1,4.8412704E0,2.530111E1,8.190738E1,7.989748E1,1.5397339E1,1.0570526E1,1.16545105E1,5.3064575E0,7.541504E-1,3.0112839E1,9.880493E0,8.673279E0,4.611969E-1,1.9364929E0,1.2047119E0,3.6723164E-1,1.2270508E0,5.5447895E1,7.9710846E0,1.1675339E0,4.857292E0,1.5481064E1,5.585518E-1,8.0430756E1,1.2120216E1,3.7259827E0,3.5377884E0,7.1434608E0,4.1663647E0,1.7531776E0,2.1528282E0,0E0,6.254883E-1,1.9438194E1,2.7121971E1,7.512501E0,5.166691E0,1.8564323E1,1.9914474E0,3.9637405E1,7.652588E1,1.0433884E0,1.4964676E0,1.1020536E0,2.120921E0,3.2681713E0,6.0614343E0,7.2609806E-1,1.1796007E0,6.262207E0,5.8300514E0,1.00438595E1,6.3283646E1,7.526859E1,8.6223755E0,8.73196E0,4.3096313E0,3.1515503E-1,4.8360596E0,6.98423E0,6.2510834E0,5.453987E-1,4.5967712E0,1.1919556E0,3.1565094E-1,2.1798676E1,1.6212723E1,6.1413364E0,8.31427E0,4.759674E0,1.3873901E0,4.9250793E-1,6.473541E-2,1.9039307E0,1.116951E0,0E0,1.3393555E0,0E0,0E0,0E0,8.3325195E-1,2.325293E1,4.33913E1,4.016594E0,2.6565495E0,1.0338287E0,0E0,2.0029678E0,2.686348E0,3.9915648E0,1.4631443E1,0E0,3.1643295E-1,6.485205E1,4.6712093E0,2.4116821E0,6.324115E0,2.6678028E0,2.8840256E-1,1.223793E0,8.3773804E-1,7.1029077E0,1.3186374E0,1.9861336E0,9.634037E-1,9.753761E-1,4.3588427E-1,2.7495384E-1,1.5731049E-1,0E0,6.529999E-2,1.5470659E0,1.6644165E1,8.233414E0,4.468298E-2,3.94024E0,1.4612627E0,4.5899506E0,3.0475068E-1,9.708909E-1,7.3963394E0,3.1525135E-1,1.5279975E0,8.73085E0,1.0944745E1,5.6035645E1,6.0151463E0,9.603386E-1,1.039505E-4,0E0,6.560669E-1,5.7587385E-1,0E0,7.236474E-1,3.4983635E-1,3.0077785E-2,2.2058296E0,3.8879223E0,1.0530281E-1,1.4612913E-1,5.032959E-1,2.2677897E-1,8.1716084E-1,6.4583397E-1,4.606843E0,2.4784746E0,1.507143E0,2.1045513E0,4.19732E0,5.9509516E0,5.5034637E1,1.3796265E1,6.4640114E1,1.6052055E0,7.7208786E0,4.5042286E0,5.459175E0,5.47493E-1,4.0590744E0,0E0,0E0,3.44915E0,2.8168182E0,5.399193E0,4.5562363E-1,1.0111198E0,5.9895325E0,0E0,0E0,0E0,5.0411377E0,1.3664627E-1,0E0,7.001495E-2,0E0,8.53833E0,5.822317E0,9.461288E0,2.2235184E0,3.093822E0,3.1512737E-1,4.541687E0,3.703827E0,3.985489E0,2.2838898E0,9.38385E-1,8.652344E-1,1.02249146E-1,7.85923E-2,0E0,0E0,1.2533112E0,2.7768035E0,3.633194E-1,6.847E-1,0E0,1.4303284E0,0E0,7.225952E-1,0E0,0E0,0E0,0E0,0E0,0E0,0E0,0E0,0E0,0E0,0E0,0E0,0E0,0E0,0E0,0E0,0E0,0E0,0E0,0E0,0E0,0E0,0E0,0E0,0E0,0E0,0E0,0E0,0E0,0E0,0E0,0E0,0E0,0E0,0E0,0E0,0E0,0E0,0E0,0E0,0E0,0E0,0E0,0E0,0E0,0E0,0E0,0E0,0E0,0E0,0E0,0E0,0E0,0E0,0E0,0E0,0E0,0E0,0E0,0E0,0E0,0E0,0E0,0E0,0E0,0E0,0E0,0E0,0E0,0E0,0E0,0E0,0E0,0E0,0E0,0E0,0E0,0E0,0E0,0E0,0E0,0E0,0E0,0E0,0E0,0E0,0E0,0E0,0E0,0E0,0E0,0E0,0E0,0E0,0E0,0E0,0E0,0E0,0E0,0E0,0E0,0E0,0E0,0E0,0E0,0E0,0E0,0E0,0E0,0E0,0E0,0E0,0E0,0E0,0E0,0E0,0E0,0E0,0E0,0E0,0E0,0E0,0E0,0E0,0E0,0E0,0E0,0E0,0E0,0E0,0E0,0E0,0E0,0E0,0E0,0E0,0E0,0E0,0E0,0E0,0E0,0E0,0E0,0E0,0E0,0E0,0E0,0E0,0E0,0E0,0E0,0E0,0E0,0E0,0E0,0E0,0E0,0E0,0E0,0E0,0E0,0E0,0E0,0E0,0E0,0E0,0E0,0E0,0E0,0E0,0E0,0E0,0E0,0E0,0E0,0E0,0E0,0E0,0E0,0E0,0E0,0E0,0E0,0E0,0E0,0E0,0E0,0E0,0E0,0E0,0E0,0E0,0E0,0E0,0E0,0E0,0E0,0E0,0E0,0E0,0E0,0E0,0E0,0E0],"parents":[2147483647,0,0,1,1,2,2,3,3,4,4,5,5,6,6,7,7,8,8,9,9,10,10,11,11,12,12,13,13,14,14,15,15,16,16,17,17,18,18,19,19,20,20,21,21,22,22,23,23,24,24,25,25,26,26,27,27,28,28,29,29,30,30,31,31,32,32,33,33,34,34,35,35,36,36,37,37,38,38,39,39,40,40,41,41,42,42,43,43,44,44,45,45,46,46,47,47,48,48,49,49,50,50,51,51,52,52,53,53,54,54,55,55,56,56,57,57,58,58,59,59,60,60,61,61,62,62,63,63,64,64,65,65,66,66,67,67,68,68,69,69,70,70,71,71,72,72,73,73,74,74,75,75,76,76,78,78,79,79,80,80,81,81,82,82,83,83,84,84,85,85,86,86,87,87,88,88,89,89,90,90,91,91,92,92,93,93,94,94,95,95,96,96,97,97,98,98,99,99,100,100,101,101,102,102,103,103,104,104,105,105,106,106,107,107,108,108,109,109,110,110,111,111,112,112,113,113,114,114,115,115,116,116,117,117,118,118,119,119,120,120,122,122,126,126,127,127,128,128,129,129,130,130,131,131,133,133,134,134,135,135,136,136,138,138,139,139,140,140,141,141,142,142,143,143,144,144,145,145,146,146,147,147,148,148,149,149,150,150,151,151,152,152,153,153,154,154,156,156,157,157,158,158,159,159,160,160,161,161,162,162,163,163,164,164,165,165,166,166,167,167,168,168,169,169,170,170,171,171,172,172,173,173,174,174,176,176,177,177,179,179,180,180,181,181,182,182,183,183,184,184,185,185,186,186,187,187,188,188,189,189,190,190,191,191,192,192,193,193,194,194,195,195,196,196,197,197,198,198,199,199,200,200,201,201,202,202,203,203,204,204,207,207,208,208,209,209,210,210,211,211,212,212,216,216,217,217,219,219,221,221,222,222,223,223,224,224,225,225,226,226,227,227,228,228,229,229,230,230,231,231,232,232,233,233,234,234,237,237,238,238,239,239,240,240,242,242,244,244],"right_children":[2,4,6,8,10,12,14,16,18,20,22,24,26,28,30,32,34,36,38,40,42,44,46,48,50,52,54,56,58,60,62,64,66,68,70,72,74,76,78,80,82,84,86,88,90,92,94,96,98,100,102,104,106,108,110,112,114,116,118,120,122,124,126,128,130,132,134,136,138,140,142,144,146,148,150,152,154,-1,156,158,160,162,164,166,168,170,172,174,176,178,180,182,184,186,188,190,192,194,196,198,200,202,204,206,208,210,212,214,216,218,220,222,224,226,228,230,232,234,236,238,240,-1,242,-1,-1,-1,244,246,248,250,252,254,-1,256,258,260,262,-1,264,266,268,270,272,274,276,278,280,282,284,286,288,290,292,294,296,-1,298,300,302,304,306,308,310,312,314,316,318,320,322,324,326,328,330,332,334,-1,336,338,-1,340,342,344,346,348,350,352,354,356,358,360,362,364,366,368,370,372,374,376,378,380,382,384,386,388,390,-1,-1,392,394,396,398,400,402,-1,-1,-1,404,406,-1,408,-1,410,412,414,416,418,420,422,424,426,428,430,432,434,436,-1,-1,438,440,442,444,-1,446,-1,448,-1,-1,-1,-1,-1,-1,-1,-1,-1,-1,-1,-1,-1,-1,-1,-1,-1,-1,-1,-1,-1,-1,-1,-1,-1,-1,-1,-1,-1,-1,-1,-1,-1,-1,-1,-1,-1,-1,-1,-1,-1,-1,-1,-1,-1,-1,-1,-1,-1,-1,-1,-1,-1,-1,-1,-1,-1,-1,-1,-1,-1,-1,-1,-1,-1,-1,-1,-1,-1,-1,-1,-1,-1,-1,-1,-1,-1,-1,-1,-1,-1,-1,-1,-1,-1,-1,-1,-1,-1,-1,-1,-1,-1,-1,-1,-1,-1,-1,-1,-1,-1,-1,-1,-1,-1,-1,-1,-1,-1,-1,-1,-1,-1,-1,-1,-1,-1,-1,-1,-1,-1,-1,-1,-1,-1,-1,-1,-1,-1,-1,-1,-1,-1,-1,-1,-1,-1,-1,-1,-1,-1,-1,-1,-1,-1,-1,-1,-1,-1,-1,-1,-1,-1,-1,-1,-1,-1,-1,-1,-1,-1,-1,-1,-1,-1,-1,-1,-1,-1,-1,-1,-1,-1,-1,-1,-1,-1,-1,-1,-1,-1,-1,-1,-1,-1,-1,-1,-1,-1,-1,-1,-1,-1,-1,-1,-1,-1,-1,-1,-1,-1,-1,-1,-1],"split_conditions":[4.2E0,9.914008E-4,6.7E0,8E0,9.1E0,1.04E1,9.4E0,9.953915E-4,7.7E0,5.216854E-4,5.3272466E-4,1E-1,1.17E1,1.09E1,5.7E0,1.1E1,3.6528063E-4,6.5538863E-4,1.03E1,1E-1,6.4299104E-4,3.5102392E-4,1.07E1,5.216854E-4,3E0,3.7796207E-4,1.31E1,8E-1,8.3E0,1.12E1,2E-1,8.7E0,3.4242592E-4,9.1E0,9.9E0,1.11E1,9.6E0,1.13E1,8E-1,1E0,3.692005E-4,1.02E1,4.88839E-4,1.3E1,7.7309745E-4,1.1E1,3.7233945E-4,3.3E0,5.219462E-4,1.03E1,5.9E0,1.5056363E-4,1.14E1,1.6732325E-4,1.31E1,1E-1,6E-1,1.24E1,1.09E1,1.24E1,1.3146827E-4,7.3E0,1E-1,3.5882366E-4,6.5838324E-4,4.6E0,5.2E0,1.954013E-4,1.4410554E-4,1.04E1,4.3580332E-4,7.2E0,2.6279347E-4,7.7E0,1.19E1,8.7E0,9E-1,4.2300355E-2,1E-1,3.0256258E-4,5.0527876E-4,1.15E1,9.9E0,3.038135E-4,2.4669617E-4,6.9E0,8.9E0,1E-1,1.5451998E-4,2.4E0,1.24E1,3.8632375E-4,7.4E0,2.3887976E-4,1.05E1,3.4039578E-4,7.6E0,2.1912833E-4,4.81803E-4,5.386439E-4,1.8388063E-4,2.7E0,3.468313E-4,1.29E1,1.15E1,9.5E0,1.729355E-4,1.5056363E-4,1.432713E-4,2.5E0,9.6564443E-4,8.7809557E-4,1.23E1,1E0,9.7549474E-4,1.22E1,7.521231E-4,6.603368E-4,5E0,8.924769E-4,6.9703587E-4,1.9930778E-1,1.9369255E-4,-5.789597E-2,4.915978E-2,3.154757E-2,1.5630256E-4,5.5E0,7.3E0,1.05E1,8.269957E-4,5.1737786E-4,1.7542847E-1,7.3E0,1.16E1,1.2429852E-4,1.243465E-4,1.2950985E-1,2.2E0,5.4367346E-4,3.970256E-4,1.8388063E-4,1.15E1,9.2E0,6.5E0,1.582555E-4,3.8178763E-4,6.275949E-4,8.2E0,2E-1,3E-1,1.26E1,5.730515E-4,6.993551E-4,1.14E1,6.044208E-2,4.6109717E-4,3.7364144E-4,4.8729384E-4,1E0,6.0589524E-4,1.1627666E-4,1.5314632E-4,7.1E0,8E-1,6.3E0,3.9369223E-4,1.630711E-4,5.197702E-4,6.1E0,2.684028E-4,7.5E0,2.8520616E-4,4.8237335E-4,7.509741E-4,1.5305732E-1,1.47E1,1.6563036E-4,1.21367835E-1,1E-1,8.5530954E-4,7.5556623E-4,1E0,1.26E1,8.86346E-4,5.377899E-4,1.28E1,9.8E0,3.3735647E-4,4.7056022E-4,2.118696E-4,8.3E0,1.8115349E-4,1.243465E-4,5.7E0,6.6E0,4.6223123E-4,6.1E0,5.0737365E-4,1.35E1,1.33E1,7.709094E-4,1.19E1,1.3E0,1.09E1,1.5019687E-1,1.9485568E-1,3E-1,1.38E1,4.1408255E-4,7.366775E-4,1.3540147E-4,2.8338595E-4,1.792995E-1,1.350426E-1,1.7218862E-1,1.9006756E-4,5E-1,1.7505407E-1,9.5380546E-4,6.388103E-2,6.663047E-4,6.29556E-4,4.447072E-4,3.5606045E-4,7.557642E-4,1.08E1,9.9E0,1.2389613E-4,1.820941E-4,1.770309E-4,1.29E1,3.0955952E-4,1.19E1,9.076683E-4,1.396759E-1,1.8079518E-1,5E-1,9E0,1.13E1,1.12E1,1.774631E-1,1.5854348E-4,1.996904E-1,1.33E1,1.7024321E-2,7.900972E-2,-1.6611543E-2,6.847521E-2,5.6703717E-2,1.01252966E-1,5.2034326E-2,-8.227452E-3,1.0720322E-1,1.5203172E-1,6.082346E-2,1.0663139E-1,9.824068E-2,1.5891021E-1,4.7593076E-2,1.4553539E-2,6.251389E-2,-2.0795109E-2,7.4621804E-2,-2.1197561E-2,-3.7595965E-2,-8.3407566E-2,8.997545E-2,3.157341E-2,1.318679E-1,7.672405E-2,1.1864303E-2,1.3547935E-1,4.4250857E-2,8.4408626E-2,9.090044E-2,1.1956215E-1,1.7762244E-1,1.2189527E-1,1.1318561E-1,8.514014E-2,2.121943E-2,-8.876584E-2,-2.1341613E-2,9.92893E-2,2.7512819E-2,6.469282E-2,7.793221E-2,1.3066761E-1,9.194874E-2,1.6111755E-1,5.1146705E-2,-1.9961273E-2,1.1694975E-1,7.895781E-2,3.6174215E-2,1.6767845E-1,1.11739956E-1,1.8574934E-1,1.3889319E-2,-2.6846936E-2,-1.487606E-1,-7.084837E-2,-2.4361522E-1,-3.9047908E-2,-4.0123403E-2,-5.826167E-2,6.512987E-2,8.396722E-3,1.5219544E-1,6.7157306E-2,-5.861327E-2,-1.5423874E-2,1.1649193E-1,3.5682067E-2,1.203205E-2,6.0021687E-2,-1.3967513E-2,-7.664311E-2,1.239356E-1,8.02755E-2,8.581422E-2,2.739369E-2,-1.1256313E-1,-3.409692E-2,1.5946148E-2,-4.3699056E-2,-1.4979361E-1,-9.895345E-2,1.0687865E-1,-1.5402312E-3,8.064854E-2,4.3011673E-2,8.397033E-2,1.306649E-1,7.585882E-2,1.0321318E-1,1.0129142E-1,5.105088E-2,-1.26206605E-2,5.496017E-2,8.3266556E-2,3.2146912E-2,4.2471904E-2,9.2900805E-3,-7.286493E-2,-2.1203668E-1,-4.52554E-2,-9.148287E-3,1.2468012E-1,5.0781947E-2,1.30018145E-2,1.06080286E-1,3.4285203E-2,7.499803E-2,7.462766E-3,-2.6890412E-2,1.0559427E-1,2.2795836E-2,5.75336E-2,-6.525433E-2,4.922506E-2,-4.7167134E-2,3.1110382E-2,-1.5254894E-1,1.1023233E-1,6.551089E-2,1.12587474E-1,4.82336E-2,-3.285977E-2,1.2814946E-2,1.2113977E-3,-2.4439612E-1,6.920403E-2,-1.2039023E-1,1.5548755E-2,5.9987407E-2,4.1351803E-2,-4.6298645E-2,1.1950284E-1,1.8778859E-1,6.614938E-2,1.2567201E-1,2.554038E-2,-8.478537E-2,6.412889E-2,1.3624012E-1,6.700722E-2,1.23344116E-1,8.646415E-2,1.469676E-1,7.987389E-2,1.32074E-1,1.0604016E-1,1.5398698E-1,7.267244E-2,3.6741268E-2,9.961265E-2,7.257589E-2,1.8444209E-1,1.2283205E-1,1.1087673E-1,7.1746685E-2,1.420529E-1,1.0021969E-1,1.2952363E-1,9.257453E-2,1.6450089E-1,7.7821985E-2,5.99948E-2,-2.3474453E-2,3.452177E-2,-1.7454235E-1,8.133052E-2,4.5692813E-2,1.4765331E-1,1.0436249E-1,5.618748E-2,-3.53986E-2,1.3400821E-1,3.0783657E-2,1.1350172E-1,1.5732998E-1,1.3413663E-1,9.06457E-2,1.5753262E-1,9.8311804E-2,1.7581935E-1,1.2566511E-1,1.4392212E-1,1.724066E-1,1.5560895E-1,1.2013207E-1,1.7288797E-1,1.3290337E-1,1.3164942E-1,3.026349E-2,7.943886E-2,1.3089493E-1,-2.5724132E-2,1.04117826E-1,1.23644106E-1,1.6905229E-1,1.0289972E-1,1.5016028E-1,1.8819894E-1,1.478331E-1,1.658423E-1,1.8401518E-1],"split_indices":[2,15,5,4,0,2,6,18,7,11,10,3,3,2,9,8,13,14,9,1,13,10,1,11,7,12,4,7,9,3,8,6,18,3,0,4,4,7,8,22,11,3,10,0,11,0,11,1,10,0,8,12,1,12,3,0,3,4,0,2,13,0,7,16,16,3,6,13,13,5,10,1,14,0,5,9,8,0,5,13,12,1,4,14,13,0,4,3,10,4,0,13,3,11,0,12,2,10,12,12,10,0,17,2,1,4,11,12,11,7,14,11,5,23,19,1,10,19,8,16,11,0,16,0,0,0,16,3,1,6,11,17,0,1,9,13,10,0,2,14,15,10,6,5,8,14,16,11,4,1,6,8,17,17,7,0,12,12,13,21,12,11,11,1,2,4,10,13,14,1,10,0,14,11,12,0,0,11,0,3,14,10,22,0,10,10,1,0,13,11,15,6,11,10,1,5,17,1,11,0,3,13,3,3,1,0,0,8,0,10,14,11,10,0,0,0,13,5,0,13,0,14,13,12,15,19,0,4,14,12,11,3,14,1,15,0,0,0,5,1,7,0,12,0,2,0,0,0,0,0,0,0,0,0,0,0,0,0,0,0,0,0,0,0,0,0,0,0,0,0,0,0,0,0,0,0,0,0,0,0,0,0,0,0,0,0,0,0,0,0,0,0,0,0,0,0,0,0,0,0,0,0,0,0,0,0,0,0,0,0,0,0,0,0,0,0,0,0,0,0,0,0,0,0,0,0,0,0,0,0,0,0,0,0,0,0,0,0,0,0,0,0,0,0,0,0,0,0,0,0,0,0,0,0,0,0,0,0,0,0,0,0,0,0,0,0,0,0,0,0,0,0,0,0,0,0,0,0,0,0,0,0,0,0,0,0,0,0,0,0,0,0,0,0,0,0,0,0,0,0,0,0,0,0,0,0,0,0,0,0,0,0,0,0,0,0,0,0,0,0,0,0,0,0,0,0,0,0,0,0,0,0,0,0,0,0,0,0,0,0,0,0,0,0,0,0,0,0,0],"split_type":[0,0,0,0,0,0,0,0,0,0,0,0,0,0,0,0,0,0,0,0,0,0,0,0,0,0,0,0,0,0,0,0,0,0,0,0,0,0,0,0,0,0,0,0,0,0,0,0,0,0,0,0,0,0,0,0,0,0,0,0,0,0,0,0,0,0,0,0,0,0,0,0,0,0,0,0,0,0,0,0,0,0,0,0,0,0,0,0,0,0,0,0,0,0,0,0,0,0,0,0,0,0,0,0,0,0,0,0,0,0,0,0,0,0,0,0,0,0,0,0,0,0,0,0,0,0,0,0,0,0,0,0,0,0,0,0,0,0,0,0,0,0,0,0,0,0,0,0,0,0,0,0,0,0,0,0,0,0,0,0,0,0,0,0,0,0,0,0,0,0,0,0,0,0,0,0,0,0,0,0,0,0,0,0,0,0,0,0,0,0,0,0,0,0,0,0,0,0,0,0,0,0,0,0,0,0,0,0,0,0,0,0,0,0,0,0,0,0,0,0,0,0,0,0,0,0,0,0,0,0,0,0,0,0,0,0,0,0,0,0,0,0,0,0,0,0,0,0,0,0,0,0,0,0,0,0,0,0,0,0,0,0,0,0,0,0,0,0,0,0,0,0,0,0,0,0,0,0,0,0,0,0,0,0,0,0,0,0,0,0,0,0,0,0,0,0,0,0,0,0,0,0,0,0,0,0,0,0,0,0,0,0,0,0,0,0,0,0,0,0,0,0,0,0,0,0,0,0,0,0,0,0,0,0,0,0,0,0,0,0,0,0,0,0,0,0,0,0,0,0,0,0,0,0,0,0,0,0,0,0,0,0,0,0,0,0,0,0,0,0,0,0,0,0,0,0,0,0,0,0,0,0,0,0,0,0,0,0,0,0,0,0,0,0,0,0,0,0,0,0,0,0,0,0,0,0,0,0,0,0,0,0,0,0,0,0,0,0,0,0,0,0,0,0,0,0,0,0,0,0,0,0,0,0,0,0,0,0,0,0,0,0,0,0,0,0,0,0,0],"sum_hessian":[5.808E4,3.5891E4,2.2189E4,1.9074E4,1.6817E4,1.2728E4,9.461E3,1.7425E4,1.649E3,1.5008E4,1.809E3,7.748E3,4.98E3,6.651E3,2.81E3,9.706E3,7.719E3,1.28E3,3.69E2,1.929E3,1.3079E4,7.68E2,1.041E3,2.476E3,5.272E3,3.17E3,1.81E3,4.741E3,1.91E3,1.663E3,1.147E3,9.117E3,5.89E2,1.976E3,5.743E3,8.5E2,4.3E2,2.74E2,9.5E1,9.15E2,1.014E3,1.18E3,1.1899E4,4.16E2,3.52E2,7.45E2,2.96E2,7.27E2,1.749E3,3.736E3,1.536E3,1.252E3,1.918E3,1.48E3,3.3E2,1.686E3,3.055E3,1.591E3,3.19E2,6.19E2,1.044E3,4E0,1.143E3,8.473E3,6.44E2,1.51E2,4.38E2,1.868E3,1.08E2,5.335E3,4.08E2,4.07E2,4.43E2,1.18E2,3.12E2,1.52E2,1.22E2,3E0,9.2E1,7.57E2,1.58E2,5.94E2,4.2E2,1.04E3,1.4E2,9.11E2,1.0988E4,1.8E2,2.36E2,1.04E2,2.48E2,1.88E2,5.57E2,8.6E1,2.1E2,2.73E2,4.54E2,4.74E2,1.275E3,2.872E3,8.64E2,6.27E2,9.09E2,8.3E1,1.169E3,9.77E2,9.41E2,9.3E1,1.387E3,1.55E2,1.75E2,2.34E2,1.452E3,8E1,2.975E3,1.094E3,4.97E2,1.58E2,1.61E2,4.11E2,2.08E2,3.5E1,1.009E3,3E0,1E0,3E0,1.14E3,4.209E3,4.264E3,4.39E2,2.05E2,1.16E2,3.5E1,2.61E2,1.77E2,7.63E2,1.105E3,9E0,9.9E1,5.111E3,2.24E2,1.81E2,2.27E2,2.94E2,1.13E2,1.65E2,2.78E2,9.4E1,2.4E1,2.39E2,7.3E1,1.4E2,1.2E1,7.2E1,5E1,3E0,8.9E1,1.5E2,6.07E2,1.08E2,5E1,5.05E2,8.9E1,4.09E2,1.1E1,8.8E1,9.52E2,5.2E1,8.8E1,4.18E2,4.93E2,1.0885E4,1.03E2,1.59E2,2.1E1,1.4E1,2.22E2,9.1E1,1.3E1,7.3E1,1.75E2,1E1,1.78E2,5.44E2,1.3E1,2.7E1,5.9E1,3.3E1,1.77E2,3.4E1,2.39E2,2.48E2,2.06E2,1.25E2,3.49E2,2.95E2,9.8E2,1.32E3,1.552E3,8.3E1,7.81E2,8.4E1,5.43E2,3.13E2,5.96E2,4.6E1,3.7E1,6.07E2,5.62E2,8.05E2,1.72E2,8.2E1,8.59E2,4.3E1,5E1,4.3E1,1.344E3,1.22E2,3.3E1,1.72E2,3E0,1.96E2,3.8E1,1.205E3,2.47E2,5.9E1,2.1E1,1.819E3,1.156E3,6.23E2,4.71E2,3.07E2,1.9E2,9.8E1,6E1,2.2E1,1.39E2,3.74E2,3.7E1,1.32E2,7.6E1,1.18E2,8.91E2,7.4E1,1.066E3,3.952E3,2.57E2,